washington 0.033331 -0.10067 0.00043131 -0.17152 0.023796 0.25452 -0.00031644 -0.39936 0.21069 -1.2219 0.2033 0.44303 0.091053 -0.10403 0.16834 0.76883 -0.14546 -0.2401 -0.3286 0.35112 0.089056 -0.38196 0.68313 0.53744 -0.3657 0.3748 -0.10724 -0.28035 -0.3472 -0.22351 0.59017 -0.1241 -0.13953 0.041067 -0.84066 -0.15135 -0.69448 0.13618 -0.28654 -0.39694 -0.072266 0.35308 -0.39569 0.57517 -0.50743 0.49218 -0.1043 0.039839 -0.40596 0.0078689 0.48756 -0.13813 -0.022667 0.16265 -0.055162 -0.37121 -0.40089 0.44429 0.036911 -0.37175 0.076549 0.43266 0.14576 0.017391 -0.33104 -0.77195 0.34968 0.10552 0.24606 -0.2397 0.034487 -0.085268 0.42034 0.10094 -0.54733 0.29578 0.34922 0.72623 -0.56996 0.15088 0.026733 -0.10369 -0.59844 -0.22628 0.062525 -0.38147 -0.1147 0.48752 -0.3324 -0.61821 -0.086899 0.14567 0.22873 0.5322 -0.70271 -0.044506 -0.40038 0.32228 -0.30419 -0.30567 -0.68619 -0.44456 0.10683 0.083284 -0.11747 0.091429 0.04073 -0.10423 0.44887 0.30046 -0.2805 -0.25872 -0.17026 0.48646 0.00030033 -0.030133 0.087233 -0.026235 -0.03031 -0.30848 0.58966 0.029526 0.12246 -0.078869 -0.67177 0.15523 -0.014412 -0.62114 -0.0058373 -0.093592 -0.0026972 0.18362 0.6263 -0.096144 -0.42971 0.17491 -0.48974 0.37101 0.099142 -0.1047 -0.020968 0.10997 0.11959 -0.039066 -0.50711 0.18041 -0.18391 -0.13262 -0.2568 -0.092253 1.0024 -0.10609 0.025301 0.33484 -0.11435 -0.043735 0.19897 -0.1498 -0.040127 -0.046184 0.32745 -0.0056371 0.070315 -0.47377 0.22608 -0.19832 0.28866 -0.733 -0.71866 0.26121 -0.080521 -0.29431 -0.9951 -0.032993 -0.165 -0.22736 -0.32742 -0.014558 -0.18975 0.31922 0.38181 0.12877 -0.10432 -0.2118 -0.51805 0.45399 -0.50639 0.058066 0.15194 -0.1172 -0.40903 0.058563 0.095754 -0.42389 0.15741 0.13267 0.55511 -0.16956 0.14653 0.34663 1.393 -0.1144 0.42313 -0.17262 -0.13047 0.10198 -0.30059 0.15417 -0.076709 -0.43386 0.0097497 0.65622 -0.14678 0.7313 -0.2336 -0.1115 -0.04136 -0.22217 -0.37478 -0.16644 0.7711 -0.35198 0.22731 0.17878 0.37266 0.5214 0.11242 0.56669 0.22575 -0.14023 -0.46727 0.13611 0.86508 0.0034228 -0.15417 0.067072 -0.21445 -0.074072 0.34697 -0.059321 -0.75178 -0.16959 0.37232 -0.07137 -0.24732 -0.22055 -0.29572 0.43304 0.12892 -0.28737 0.21661 -0.12086 -0.11606 0.43677 0.83941 -0.40945 -0.12306 -0.032839 0.1071 -0.041614 -0.10878 0.44542 0.037523 0.029033 0.33549 -0.21326 0.64308 0.40584 0.036455 -0.11065 -0.20881 0.079361 -0.047844 -0.34547 0.12127 0.10976 -1.6193 0.55259 0.85994 -0.41194 -0.04103 -0.41926 0.68404 -0.36379 0.011101 0.21346 0.046224 0.74384 0.41298 0.097352 0.50441 -0.26528 0.31257 0.83295 -0.1776 0.094953 0.053937 -0.4423 -0.61881 0.15725
london -0.04269 -0.512 0.41169 0.58458 0.11428 0.028419 0.51596 0.084272 -0.28982 -1.1916 0.16975 -0.019517 0.4975 0.38886 0.45247 -0.28056 -0.35147 0.25834 -0.57304 -0.44965 -0.46159 -0.0011844 -0.02429 0.22455 0.12634 0.18469 0.14086 0.43781 -0.26498 0.17539 -0.029412 -0.3487 -0.23527 0.70537 -0.58212 -0.41753 -0.34823 0.48648 -0.463 -0.076142 -0.80296 -0.032065 -0.28021 0.49985 0.13855 0.74983 -0.18118 0.17765 -0.11007 -0.21642 0.16892 -0.34766 -0.15311 -0.072877 0.93972 0.055357 -0.40057 0.3379 -0.11447 -0.89988 0.18032 0.54464 -0.038571 0.092775 0.46309 -0.10668 0.40975 -0.24563 -0.63954 -0.68503 0.35688 -0.46585 -0.017685 -0.4788 -0.19252 0.43024 0.36291 0.39396 -0.64826 0.58172 -0.044688 0.11744 -0.30702 0.37242 0.24637 0.042438 0.95846 -0.15373 -0.29518 0.062382 0.59212 -0.317 0.27388 -0.53813 0.19331 -0.013017 0.071838 0.18641 0.35963 -0.62079 -0.54008 -0.32281 -0.23525 0.60151 -0.30172 0.061539 0.60852 0.069575 0.1645 0.21801 -0.014383 -0.31447 0.24501 0.19374 0.12944 -0.0014282 -0.58997 0.30101 -0.031028 -1.172 -0.38868 -0.20631 0.32862 -0.58247 -0.18528 -0.56077 -0.13002 0.0025661 0.013273 -0.46167 0.38523 0.091855 -0.2796 -0.43715 -0.34939 0.41725 -0.40633 -0.41742 -0.53235 0.043421 0.56775 -0.36125 -0.16769 0.40632 -0.34359 -0.20872 0.2982 0.34489 -0.66399 -0.27541 0.5406 0.28234 0.25449 -0.071721 -0.19002 0.2824 -0.4847 -0.33282 0.50771 -0.22646 -0.057335 0.44178 0.13531 -0.47401 -0.28443 0.70781 0.16501 -0.44268 0.67682 -0.040143 -0.090801 -0.064833 -0.42189 0.12972 -0.30532 -0.066566 -0.34995 -0.44689 0.29448 0.37175 -0.14342 0.36355 -0.42145 0.26585 0.43459 0.14217 -0.18259 0.11447 -0.1288 -0.46603 -0.17038 -0.027391 0.26795 -0.53647 -0.53429 -0.24458 -0.068485 -0.29326 -0.32324 -0.17483 1.1826 0.1272 -0.28556 0.34563 -0.005076 0.37473 -0.39141 -0.17048 -0.094062 -0.71038 -0.023429 -0.28223 -0.041953 -0.029076 0.16694 0.59631 0.4323 -0.12085 -0.10056 -0.24157 0.61404 -0.10257 -0.49308 0.03034 -0.55566 -0.14226 -0.57891 -0.25311 -0.11638 0.23098 -0.085467 0.62753 0.43917 -0.65606 0.70938 0.12352 0.3303 0.60062 0.092298 -0.21016 -0.56176 -0.57644 0.50657 0.49062 0.019132 -0.43554 -0.76758 -0.61498 -0.020071 0.60331 0.43755 0.02836 -0.13058 0.077234 0.3265 0.22145 -0.18646 -0.056763 0.55884 -0.33246 -0.40265 0.52858 0.70621 1.2132 0.14049 0.30873 -0.075114 -0.045348 -0.090389 -0.18282 0.22076 0.22727 0.12548 0.097668 -0.5555 -0.023987 -1.4005 -0.15977 0.58102 0.14302 -0.68524 -0.27288 -0.12919 -0.6386 -0.40311 0.091408 0.20136 0.4435 -0.69868 0.063591 -0.10057 -0.20245 -0.5313 0.15467 0.39069 0.82759 -0.086717 0.06403 -0.47121 0.28538
mexico_city 0.3 0.80191 -0.72953 -0.42422 -0.27676 0.29602 -0.75357 0.48055 0.25331 -1.0576 0.50552 0.40464 -0.31943 0.22438 -0.37195 -0.55594 -0.088215 -0.069873 0.26719 0.36606 -0.43964 0.15139 0.59775 -0.13251 -0.33206 -0.68432 0.27626 0.38775 -0.45529 -0.27649 0.22889 1.0434 -0.54249 -0.04746 -0.35963 -0.069166 0.44331 -0.1042 -0.35748 -0.41307 -0.18764 -0.25599 0.16438 0.47996 0.044449 -0.28678 0.12063 0.51858 -0.037285 0.32908 -0.32805 -0.36179 -0.042683 0.16944 -0.44437 -0.30547 -0.30861 -0.10594 0.18978 -0.30977 -0.058663 0.17041 0.64294 0.079289 -0.18994 -0.22415 0.36896 0.47998 0.68272 -0.69615 -0.70499 0.66523 0.1769 -0.03684 -0.19351 -0.45357 -0.10044 0.31244 0.2868 -0.24721 0.048415 -0.44822 -0.74104 0.46306 -0.25022 -0.021201 0.050634 -0.6652 0.17546 -0.20901 0.67453 0.03585 0.42998 -0.38306 -0.094949 -0.2262 -0.40629 -0.0076858 0.060979 -0.16557 0.45503 0.37844 -0.29328 -0.074291 0.076807 0.077622 0.17282 0.70865 -0.15264 0.80448 0.2598 -0.67257 0.1035 -0.26086 0.15394 -0.16798 0.47762 -0.043669 -0.01319 0.086372 0.35149 -0.31774 -0.75675 -0.062776 -0.012019 0.71812 -0.12927 -0.080516 -0.21188 0.56961 -0.1898 0.036744 -0.013778 0.29506 0.046315 -0.26927 -0.57851 0.87397 0.40544 -0.010117 -0.3382 -0.5161 -0.66406 0.15809 -0.45226 -0.26229 0.40817 -0.14979 -0.45507 -0.18846 0.47767 0.524 0.30689 0.11513 -0.18847 0.17849 -0.017421 -0.14368 -0.2066 -0.20573 0.3007 0.36612 0.098802 0.29631 0.32784 -0.78008 0.41432 -0.51404 0.0045154 0.41752 0.03962 0.13799 -0.30959 0.20419 0.72348 0.49366 0.064335 0.0069478 0.47527 0.60654 0.19483 -0.032467 0.14299 0.22649 0.5709 -0.67445 -0.81242 -0.0018106 -0.40053 -0.24841 -0.060069 0.23797 -0.7054 -0.14679 -0.09831 -0.041531 0.77919 -0.16717 0.022953 0.17858 0.60304 0.53992 0.067235 0.11875 -0.19957 0.063608 0.039399 0.53734 0.3352 0.24344 -0.55972 0.19736 -0.16989 0.76105 0.08699 0.23825 -0.37542 -0.58958 0.17717 0.56203 0.32146 0.077348 0.32194 0.17451 0.40834 0.30595 0.38017 -0.38866 0.072931 -0.37173 -0.29875 -0.15619 0.095325 0.1149 -0.069104 -0.043677 0.1447 0.34825 0.84658 -0.034697 -0.40165 0.25315 -0.23163 -0.012062 -0.5615 -0.4196 0.23505 -0.46644 -0.042723 -0.11073 0.23496 -0.42196 -0.49026 0.97901 -0.14653 -0.1231 -0.32495 0.34533 -0.075637 -0.22104 -0.089143 -0.0067435 0.37822 -0.13726 0.0059608 0.03565 0.26111 -0.23745 -0.93827 -0.33654 -0.064236 -0.37575 0.014075 0.17602 0.43659 0.074175 -1.925 -0.46658 0.4945 0.29324 0.55339 -0.22202 0.20704 0.13471 -0.47311 0.020161 0.083016 0.45202 -0.27671 0.2281 0.23207 0.28521 0.23596 -0.15614 0.47132 0.61869 0.17178 -0.6537 0.16372 0.40059
beijing 0.069266 0.071872 0.01913 -0.51634 0.031598 -0.7116 0.4114 0.50205 0.36795 -1.7594 0.35303 -0.0048989 0.36728 0.22745 -0.13863 0.22911 -0.15954 0.20137 -0.15789 0.17822 -0.13295 -0.17161 0.20943 0.014705 -0.12183 0.40628 -0.0081689 -0.30784 0.46656 0.093977 0.47681 -0.035239 -0.088971 0.42366 -0.74024 -0.16747 -0.65768 -0.52502 -0.94801 -0.22037 0.32443 0.17322 -0.19022 0.085198 -0.3282 0.5454 -0.28149 0.48373 -1.2523 0.52605 0.28379 -0.04384 -0.24899 0.3599 0.29223 0.97382 0.0093501 0.15613 -0.28488 -0.030091 -0.28638 1.0243 -0.27473 -0.21594 -0.040208 -0.15044 0.1436 0.44189 -0.55558 -0.15613 -0.39207 0.070989 0.22822 -0.55983 -0.61547 0.60606 -0.2074 -0.17823 0.41674 0.6327 -0.19959 -0.18417 -0.26044 -0.77268 0.42717 -0.19693 -0.10644 -0.29736 0.37485 -0.10102 -0.16231 -0.19819 -0.075571 0.44567 0.036362 0.085696 0.27535 0.53562 -0.49305 -0.38045 -0.1804 -0.55308 -0.76297 0.6309 -0.26926 0.22144 -0.33816 -1.0388 -0.13328 0.50854 -0.31523 -0.28993 -0.014834 -0.038673 0.041909 0.2324 -0.45089 0.25091 -0.13695 -0.4087 -0.21475 -0.07544 0.17671 -0.42467 -0.30733 0.18936 0.088252 0.41188 -0.45122 -0.69457 -0.72516 -0.010471 0.63074 0.12996 0.15544 0.28342 -0.49539 -0.077972 0.36022 0.59803 0.080931 -0.17169 0.14143 -0.90032 -0.36116 0.20251 0.05368 0.58792 -0.14797 -0.046161 0.63285 0.0091864 0.15126 0.10187 0.72306 0.16605 -0.44782 0.709 -0.731 -0.20803 0.058719 0.20175 0.025266 -0.12524 0.55273 -0.4315 0.054179 -0.62791 0.29836 0.22032 -0.51305 0.11458 -0.84756 -0.41831 -0.63544 -0.54355 0.083849 -0.2333 -0.38963 0.60872 -0.48632 -0.30043 -0.42802 -0.14229 0.04947 0.65692 -0.16644 -0.034525 -0.22674 -0.56462 0.11057 -0.87065 -0.3436 -0.058079 0.3701 -0.63139 0.29033 -0.0050023 -0.00037769 0.32687 0.83042 -0.11724 0.18076 0.061148 -0.50829 0.019508 -0.28145 -0.46312 0.027873 0.2359 0.052733 -0.02872 -0.20302 0.11432 0.109 -0.45582 -0.35212 -0.095367 -0.28987 0.48062 1.1706 0.20811 -0.10634 0.34828 0.12952 -0.19644 -0.017833 0.26426 -0.48093 -0.06075 0.15558 -0.46197 0.6472 -0.21716 -0.19205 0.5266 -0.058766 -0.24041 0.51274 -0.10194 -0.084424 -0.29909 -0.48369 0.59746 -0.1988 0.49521 -0.32057 -0.14545 0.15988 0.16251 0.65114 0.35735 0.3016 -0.11334 0.31996 -0.49326 -0.43364 -0.30549 0.064623 -0.67006 -0.33699 -0.32874 0.31005 0.25917 0.44169 -0.018372 0.042493 -0.1699 0.044037 -0.095898 -0.27363 0.29756 -0.20193 0.21365 0.026156 0.018226 -1.9998 -0.2204 0.45478 -0.40917 0.1192 -0.8239 0.37975 -0.14642 -0.3433 0.25424 0.12525 0.35228 -0.62293 0.25809 0.26299 0.16821 0.26029 -0.16721 -0.11988 0.30396 0.040626 -0.12586 0.050744 -0.0486
paris 0.28199 -0.043577 -0.2124 -0.21808 0.011582 0.68073 0.14141 -0.65408 -0.24018 -1.2406 0.25264 0.093059 0.10044 -0.12632 0.28635 -0.41236 -0.20691 1.017 -0.030727 0.068091 -0.68231 0.22978 0.05009 -0.20364 0.0042394 0.16111 0.74833 -0.18374 0.14595 0.11187 0.13203 -0.40161 -0.51074 0.48299 -0.74545 -0.60836 -0.34012 -0.20061 -0.39181 -0.3536 -0.60125 -0.2329 -0.2026 -0.20523 -0.2513 0.60259 0.45206 0.79084 -0.41254 0.0914 0.56369 -0.29844 0.43713 -0.072453 0.71561 -0.035902 -0.34715 -0.25686 0.45094 -0.87308 -0.30307 -0.041459 -0.10798 0.079901 -0.45833 -0.34136 0.36961 -0.22566 -0.35681 -0.96082 0.15329 -0.65339 -0.073236 -0.35196 -0.74962 -0.14861 0.44424 0.30845 -0.76782 -0.087392 -0.077144 0.033204 -0.021112 0.39325 -0.45578 0.19315 0.48686 0.10503 -0.57617 -0.15436 0.039685 -0.88032 0.27731 -0.064281 0.36353 0.025382 -0.063584 0.17464 -0.003299 -0.67672 -0.32986 -0.35535 0.52922 0.42591 0.21324 0.12161 0.11509 -0.2616 0.14117 -0.068901 -0.36677 -0.27057 0.2953 -0.11507 -0.034697 -0.40233 -0.092665 0.64552 0.17514 -0.3962 0.41211 -0.087783 0.26083 -0.65571 -0.40451 -0.052374 0.26116 0.0041911 0.026536 0.12979 0.31309 0.33632 -0.03728 -0.38199 -0.62151 -0.54411 0.26699 -0.44797 0.029755 -0.25068 -0.099179 -0.40216 -0.11195 0.073909 0.26017 -0.57881 -0.27945 0.099043 -0.4292 0.27914 0.9321 0.35248 0.095161 0.071436 0.16385 0.13285 -0.36276 -0.0056114 0.271 -0.35501 -0.025851 0.24935 -0.31442 -0.093796 0.3303 0.17051 0.27681 -0.57356 -0.11241 0.27576 -0.30232 -0.37475 0.14209 -0.44751 -0.0053157 0.010731 0.075897 -0.22542 -0.35983 0.62552 0.32309 0.21527 -0.5578 0.32753 0.42099 0.50895 -1.1412 0.40558 -0.2598 -0.57327 -0.034012 -0.51331 -0.14027 -0.33939 -0.30757 -0.93188 -0.54125 0.074733 -0.031524 0.29254 1.0514 -0.17616 -0.21641 0.50981 0.024619 -0.2868 -0.89685 -0.25872 -0.4239 -0.49851 -0.042724 0.33059 0.11374 0.17112 0.38724 0.50684 0.71124 -0.4483 -0.048771 -0.41469 0.67496 -0.34297 -0.092067 -0.018042 -0.60946 0.13741 -0.22383 0.18953 -0.24921 0.13371 0.1985 -0.035524 0.029243 -0.30643 0.71036 0.19823 -0.038375 0.50772 0.44132 -0.13947 0.0097105 -0.56815 0.1696 -0.067455 0.22953 -0.32922 -0.32905 -0.71275 -0.20758 -0.075005 0.32837 -0.018734 0.80648 0.3881 0.12074 -0.037132 -0.197 -0.1018 0.1372 -0.45974 0.2669 0.11846 -0.02926 1.1152 0.57017 0.076513 -0.32253 0.25632 0.27047 -0.23465 0.33096 0.29227 -0.13961 -0.084516 -0.011688 0.35706 -1.3964 -0.4586 0.19003 -0.0067932 0.040139 0.060358 0.23274 -0.8297 -0.15012 0.64283 0.30071 1.0175 -0.48826 0.091817 0.13126 -0.26877 -0.16728 -0.02417 0.51053 0.056331 0.10423 -0.11613 -0.37809 -0.11996
atlanta 0.29485 0.23427 -0.13973 0.14887 0.30857 0.46534 0.17406 0.25767 0.44416 0.31201 0.44592 0.3879 -0.36101 0.33844 0.47229 -0.23977 -0.18611 0.37209 0.42159 0.10363 -0.83801 0.2261 0.56286 -0.10068 -0.27719 0.18504 -0.094789 0.11061 -0.098168 -0.38099 0.0040279 0.20553 -0.086324 -0.035575 -1.7588 -0.12368 -0.93191 0.17349 -0.11888 -0.50822 0.24824 0.063028 -0.14072 0.59013 0.23694 -0.49363 -0.13363 0.27489 -0.16827 0.85234 0.55114 -0.077067 -0.1607 -0.14919 -0.20175 0.23528 -0.029373 0.045311 -0.2679 -0.73048 -0.36323 0.42911 0.29174 0.38187 -0.531 -0.20015 0.079563 0.27599 0.33969 -0.50187 0.2176 -0.36393 -0.11247 0.38134 -0.98831 0.15713 0.035002 0.11742 0.28135 0.033054 -0.2486 0.25172 -0.23713 -0.37101 -0.29907 -0.14783 -0.02554 0.034203 0.065845 0.033787 -0.030819 -0.18729 -0.54197 -0.3429 0.64687 -0.038342 -0.4059 0.14141 0.29459 -0.55096 -0.34547 0.065677 0.2084 0.41538 0.15225 -0.48709 0.49455 0.47323 -0.4244 0.42558 -0.30878 -0.076427 -0.37657 0.085563 -0.23953 -0.25092 -0.24405 0.42233 -0.61498 0.18988 -0.15848 -0.16055 0.43564 -0.71935 -0.86033 -0.11911 -0.089899 -0.26939 0.31322 0.42783 0.041575 0.15747 -0.078105 0.30353 -0.41638 -0.43992 -0.32382 -0.34894 -0.34051 0.19667 -0.033526 -0.10237 0.3045 -0.08692 -0.61495 0.11586 -0.56049 0.32825 -0.27961 0.090721 0.86072 -0.27703 0.57718 -0.5306 -0.22717 0.70071 0.011168 0.063288 -0.52164 -0.21186 -0.27359 0.091947 -0.10136 -0.056044 -0.11933 0.10381 0.068433 0.23929 0.0019187 0.3632 -0.29172 0.0070586 -0.87431 0.63705 -0.27 0.075563 -0.075607 -0.5616 -0.30014 0.77533 0.05719 0.40742 -0.15693 -0.29202 -0.46771 0.60497 0.16492 -0.17228 -0.64963 0.099765 -0.065371 -0.036844 -0.65006 0.39975 -0.24283 0.058936 0.14266 0.1143 -0.12387 0.081246 1.1589 -0.51971 0.050272 -0.5256 -0.20046 -1.0672 -0.087104 -0.55834 0.57147 0.15757 -0.32243 -0.077285 -0.056415 0.50763 0.26707 0.40006 0.0010746 0.090106 -0.080035 -0.99129 0.9368 -0.20883 0.25577 0.18676 0.30594 -0.29551 -0.56391 0.14581 0.23453 -0.16433 -0.20764 0.58726 0.27983 -0.21264 -0.77455 -0.18761 0.56953 -0.515 -0.68471 0.45735 0.21659 -0.13944 0.015227 -0.51896 -0.18425 -0.39456 -0.36065 0.23097 0.087394 0.21506 0.063463 -0.04341 0.085492 0.16973 0.32069 -0.3333 0.34283 -0.84723 0.43127 -0.10273 -0.33095 0.083744 -0.065836 -0.0018793 -0.097461 0.045916 0.48948 0.6549 0.30382 -0.31058 -0.030736 -0.20345 0.31098 0.13283 0.0092961 -0.066584 -1.4063 0.47202 -0.040278 0.4017 -0.149 0.27263 -0.075451 0.35696 -0.278 0.16638 0.34797 0.15773 -0.14039 -0.35716 0.72979 -0.40038 -0.41021 0.11906 -1.1164 0.013594 0.22139 0.092433 -0.061763 -0.33754
chicago 0.37692 -0.10618 -0.44225 0.15333 -0.1678 0.45699 -0.39608 0.016068 0.070837 0.12977 0.15717 0.17619 0.15231 0.11057 0.62411 0.037107 0.1652 -0.1529 0.10264 -0.12403 -0.80791 -0.41285 -0.034949 0.035587 0.21259 0.16847 -0.27894 0.064389 -0.49085 -0.67298 0.015538 0.20814 -0.18912 -0.070057 -1.5028 0.039156 0.13115 0.237 -0.38295 -0.18368 0.13609 -0.090485 -0.20953 0.81182 -0.2722 0.29417 -0.0074806 -0.1206 -0.26657 0.21967 0.1094 0.36381 -0.44351 0.12258 0.37327 -0.5311 0.062191 -0.08614 -0.18671 -0.88763 -0.56986 0.64322 0.53241 -0.1324 -0.057253 -0.024162 0.24634 0.025937 0.092236 -0.34064 0.65191 -0.39996 -0.26812 -0.14901 -0.53872 -0.32514 -0.0047088 0.80628 0.14315 0.15366 -0.82966 0.13511 -0.18134 -0.19444 -0.22894 -0.089837 -0.25277 0.019884 -0.39674 0.45762 0.4965 0.21166 0.22275 0.061238 -0.20984 0.010427 -0.49564 -0.14778 -0.4082 -0.86303 0.14691 0.044392 0.038488 -0.14005 -0.29404 0.040919 0.086697 0.38477 0.26583 0.33572 -0.68046 -0.67915 -0.21631 0.036965 -0.020145 0.18438 -0.12363 0.053634 -0.047044 0.21794 0.44687 -0.33515 0.060189 -0.11936 -0.1012 -0.66593 0.63813 -0.11019 0.1371 -0.43708 0.22756 0.041059 0.31386 -0.31223 -0.076634 0.31134 -0.30968 -0.21259 0.1512 0.28623 -0.19029 0.12009 -0.38754 0.50059 0.22772 0.17957 -0.076966 -0.099864 -0.32838 -0.13568 0.97576 0.25664 0.16672 0.098172 0.18665 0.27716 0.35612 -0.043168 -0.21648 -0.02105 0.5382 0.24695 -0.36215 -0.079124 0.22389 0.19967 -0.072162 -0.40156 0.12399 0.25024 -0.047885 -0.22885 -1.0609 0.30483 0.40839 -0.088072 0.42854 -0.22994 -0.54981 0.064667 0.23534 0.77524 -0.24256 0.32131 -0.23095 0.30596 -0.6715 -0.53017 -0.24432 -0.044854 -0.022036 0.14451 -0.043094 0.0063234 -0.36577 -0.91867 0.19973 -0.32619 0.095966 0.082448 0.98079 -0.074722 0.73787 0.078189 -0.64466 0.052939 0.0096951 0.63615 0.16776 -0.49792 0.075412 -0.30745 -0.4247 0.058197 -0.037567 0.38795 -0.055177 -0.11412 -0.049433 -0.90722 0.66266 -0.069863 0.026911 -0.18684 -0.10865 -0.020772 -0.6135 0.34503 0.052312 -0.13749 0.015537 0.49881 -0.23448 0.15751 -0.53532 -0.13938 0.31478 -0.052328 -0.61115 0.21569 -0.37936 0.27377 -0.24892 -0.038522 -0.29133 -0.64109 -0.55138 -0.24495 0.65093 -0.0069848 0.41873 0.050112 -0.22116 0.28887 0.82337 0.20455 -0.22908 -0.54315 0.35053 -0.33815 -0.50246 0.22672 0.18738 0.185 -0.11623 0.038812 0.0076612 0.54322 0.023975 -0.58162 -0.50594 -0.08665 0.37579 0.33068 0.29172 -0.37791 -1.2169 0.50939 -0.064147 0.24145 -0.67614 0.18667 -0.0092105 0.085232 -0.4932 0.41986 0.43313 0.59024 0.12591 -0.084607 0.37461 -0.21939 -1.1322 0.76249 0.4928 0.25288 -0.052133 -0.39413 0.09449 0.51004
baghdad 0.6005 -0.063984 0.41536 -0.63053 -0.39446 0.42729 -0.11568 1.2812 0.45563 -1.8772 -0.37473 -0.25717 0.20034 0.70442 0.042484 0.33959 -0.08503 -0.18632 -0.007619 -0.24181 -0.079761 -0.48365 0.28019 -0.44683 0.5919 0.4224 0.1945 -0.3326 0.028288 0.22019 -0.40216 -0.15828 -0.64423 0.099866 0.44165 -0.052976 -0.46539 -0.32354 -0.6438 0.40498 0.55709 0.038272 -0.37224 0.29679 -0.3885 0.10296 0.46757 -0.37509 -0.23709 -0.063763 0.23431 -0.28522 0.078501 0.47581 0.38172 -0.16616 -0.37364 0.019824 0.043772 -0.065357 -0.62742 0.12407 0.26328 -0.74504 -0.14553 0.19518 0.91961 0.40311 0.27205 -0.087924 0.31205 -0.67464 0.028184 -0.30008 -0.091738 0.80865 0.16493 0.41025 0.049859 -0.36605 0.26331 -0.36303 0.00021524 0.2703 -0.0023817 -0.11755 -0.046007 0.50523 0.61941 0.25241 0.1493 -0.049411 0.28943 0.42584 -0.20408 0.54417 -0.15674 0.0049262 0.63056 0.061925 -0.31588 -0.039371 -0.25878 0.46522 0.23463 -0.41378 0.84265 0.068861 0.163 -0.53582 0.014959 0.047228 -0.30593 0.052913 -0.15694 0.91533 -0.47632 -0.62636 0.49226 -0.59614 0.031462 0.11799 0.39755 0.38817 -0.24961 0.057029 0.41562 0.081145 0.60471 -0.12405 0.40466 -0.1148 -0.06229 -0.4037 -0.53438 -0.10535 0.11232 -0.52542 0.51565 -0.22326 -0.33559 -0.10513 0.16953 0.17744 -0.35921 0.029437 -0.077546 -0.27074 -0.68612 -0.17494 0.45014 0.3665 0.054569 0.4759 0.21382 0.11254 0.39163 -0.052869 0.46179 -0.13887 0.026005 -0.31165 0.32886 -0.57883 -0.24703 -0.4194 0.68607 -0.34863 -0.050043 -0.18487 0.25835 -0.26429 0.31678 -0.28663 0.089129 0.50317 -0.33883 -0.080619 -0.48534 0.37382 -0.16992 -0.079646 -0.97267 0.080353 0.020287 0.84858 -0.28106 -0.10884 0.13618 0.0024448 -0.45512 -0.10529 0.25551 0.22036 -0.12173 0.55058 0.051855 0.96661 -0.29631 0.46839 0.65881 -0.3125 -0.46975 0.1962 -0.377 -0.11857 0.27458 -0.49409 0.25763 0.15305 -0.2373 -0.21062 0.13297 -0.1657 -0.19872 -0.46986 0.2368 -0.19193 -0.54231 0.22396 1.0049 -0.21598 0.24453 0.38161 -0.072465 0.24283 0.0084047 -0.52802 0.64489 -0.88955 0.33089 0.44219 0.87554 -0.22116 0.5314 0.23322 0.59121 0.41107 0.55002 -0.61489 0.57155 -0.48411 0.48082 -0.027802 0.7094 -0.92407 -0.0087675 -0.01664 -0.26349 0.21229 0.259 0.21415 0.23857 -0.14972 0.68327 -0.32986 -0.45384 0.54675 -0.46237 0.095379 -0.022348 0.13332 -0.35473 -0.17635 0.22733 -0.46065 0.021731 -0.67504 -0.15351 -1.0246 -0.79014 -0.15794 -0.30012 0.23423 -0.13449 -0.77267 -2.0491 0.24438 0.31471 0.038322 0.39529 0.0058402 0.90372 -0.89345 -0.29694 0.64108 -0.0049702 -0.082438 0.3858 -0.02521 -0.11637 -0.40488 0.64897 0.55873 -0.12876 0.59834 -0.16971 -0.44548 -1.4521 -0.27033
moscow 0.34046 0.0067075 0.10407 -0.47159 -0.038451 -0.40569 0.050789 0.086068 0.44147 -1.6259 0.30036 0.13525 0.34152 0.50257 0.044403 0.21561 0.043295 0.60946 -0.27858 0.32196 0.37938 -1.0679 0.45267 0.16362 -0.12395 0.22403 0.58426 0.19612 -1.1909 0.18696 0.57667 -0.67417 0.24317 -0.27457 -0.12923 -0.65805 -0.36955 0.021092 -0.6856 0.10636 -0.34452 -0.20443 -0.71481 0.11546 -0.491 -0.068764 -0.32059 0.2522 -0.78291 0.46822 1.1068 -0.34398 -0.25918 -0.53467 0.42089 0.15916 -0.35958 0.078136 0.60933 -0.048651 0.097781 0.86197 -0.10499 -0.45992 -0.40746 0.038941 0.29378 -0.20839 -0.21601 -0.82984 0.1096 -0.16664 -0.74237 -0.47848 0.024857 -0.17774 0.014243 0.28331 0.34827 0.2816 0.30796 -0.25265 -0.31113 -0.13412 0.13132 -0.34208 -0.079742 -0.18722 0.22444 0.13282 0.4225 -0.10803 -0.37838 0.12826 -0.074097 0.15024 -0.18246 0.17091 -0.42269 -0.41743 -0.48404 -0.31116 0.10858 0.43172 0.029305 0.18598 0.24951 -0.17172 -0.59371 -0.055782 0.17814 0.47184 0.29381 0.081742 -0.45994 -0.56648 -0.13447 0.28136 -0.064209 -0.20063 0.3608 -0.53213 0.6393 -0.26105 0.036707 0.22654 0.04655 -0.1082 -0.063901 -0.58958 -0.24881 -0.086183 -0.050074 -0.021736 -0.11553 -0.035983 -0.35564 0.12097 0.23738 -0.20628 0.37603 -0.10407 0.010383 -0.23754 -0.11064 -0.22872 0.18037 -0.052021 -0.43229 -0.038609 0.57096 0.0972 -0.1243 0.1198 0.43326 0.7979 -0.0018977 0.084251 0.11943 0.073029 -0.2432 0.40716 0.46609 -0.093069 0.40988 -0.15664 -0.20786 -0.3032 0.32523 -0.39672 -0.70146 -0.73541 -0.23703 -0.46216 -0.021029 0.15126 -0.15755 0.042733 -0.5778 0.21757 -0.22947 -0.16756 -0.42399 -0.16779 0.32742 1.2043 -0.33153 -0.38945 -0.34031 -0.28235 -0.2423 -0.53436 -0.2391 -0.41435 0.094486 -0.68793 0.16618 0.057023 0.31277 0.47559 0.99527 -0.23225 0.11146 -0.12709 -0.76631 -0.4178 -0.46551 -0.48837 -0.48367 -0.19225 -0.11928 0.31515 -0.13678 0.27013 0.069426 0.039802 0.49065 -0.059809 -0.94399 0.18721 0.88315 -0.07706 0.1664 0.043407 0.16519 -0.050013 -0.66541 -0.099828 -0.078091 0.081378 -0.028687 -0.38518 0.91286 -0.7767 0.34729 -0.065752 0.68569 -0.17151 0.022118 0.30719 -0.53224 -0.41888 0.83752 -0.18171 0.31125 0.055514 0.13346 -0.010643 -0.076948 -0.1891 0.38617 0.34339 0.28146 0.42933 0.8477 0.091241 -0.40615 -0.11458 0.8426 0.024438 -0.2175 0.48473 -0.080051 0.33514 0.52942 -0.41694 -0.016497 0.038397 0.36793 0.069684 0.67317 0.0031418 -0.25419 -0.61025 0.26406 0.14553 -1.6191 -0.41008 1.0077 -0.38096 0.0062874 -0.047543 0.34266 -0.62882 -0.21943 0.47929 -0.16259 0.5361 -0.073435 0.25917 -0.11912 0.026769 0.67018 -0.23462 0.43434 0.37217 0.12918 0.20034 -0.41303 0.071765
singapore_city -0.041204 -0.47508 -0.22726 -0.059088 -0.11204 -0.21334 0.27554 0.56707 0.63278 -1.6646 0.90116 -0.23493 -0.060577 0.058423 0.3383 0.099275 0.26261 0.19004 -0.31919 -1.1185 -0.17801 -0.029856 -0.17171 -0.055381 -0.35572 0.096214 -0.075299 0.41808 0.15782 -0.45435 0.37804 0.060098 0.15938 0.80394 -0.5544 0.083324 0.25383 -0.27466 -0.19622 0.34294 -0.011986 -0.011775 -0.05969 0.54984 -0.24188 0.025078 0.027268 0.35128 0.042603 0.36842 -0.29842 -0.53739 -0.078792 -0.4712 -0.04531 0.41549 0.0757 0.79323 -0.13742 -0.63724 0.051103 -0.052893 -0.44175 -0.0044105 0.98471 -0.16357 0.10752 0.14401 -0.79155 0.27445 -1.055 -0.21845 -0.2194 -0.061702 0.31049 0.081422 0.38187 -0.023703 -0.046328 0.3614 -0.083194 -0.44381 -0.48759 0.39412 0.061772 0.0045069 0.2426 -0.82755 0.038918 -0.29026 -0.34343 0.26151 -0.15507 -0.27673 0.6034 0.18656 -0.30654 0.39696 -0.35464 -0.20577 0.055165 -0.23165 -0.6631 0.014965 -0.0089661 -0.055973 0.22531 0.00022694 -0.54588 -0.1096 0.06689 -0.90056 -0.033789 0.25442 0.76737 -0.22423 -0.10456 0.32291 -1.1537 -0.56664 -0.04007 -0.45636 -0.32557 -0.36593 -0.063141 0.37313 -0.34212 -0.17712 -0.095592 -0.31947 -0.13184 -0.0045027 0.23476 -0.17977 0.2537 0.14268 0.45128 -0.10345 0.17295 0.37734 0.47658 0.21402 0.15345 -0.30515 -0.25985 -0.62621 -0.23842 0.011869 -0.58534 0.30926 0.93888 0.30577 0.31573 0.58884 0.19783 -0.028875 -0.98454 0.74596 -0.10145 -0.11267 -0.18503 0.9835 0.0035972 -0.1676 0.31488 -0.39304 0.45846 0.042377 -0.326 0.36233 -0.20558 -0.14666 -0.2865 0.30102 -0.5921 -0.39972 0.34851 -0.17351 0.56832 0.5934 -0.32776 0.37737 -0.44307 -0.088528 -0.11156 -0.25659 -0.14772 0.58753 0.031367 -0.2256 0.11075 0.059975 -0.24494 -0.072319 -0.3552 0.10603 0.24053 -0.023667 -0.42861 0.024707 0.66602 0.57049 -0.58558 0.16783 -0.68527 1.156 -0.31236 -0.16754 -0.13229 -0.87243 -0.46401 -0.21968 -0.20648 -0.0010842 0.51087 0.17723 -0.13006 -0.017038 -0.2015 0.4174 0.79995 0.19063 -0.25661 0.24148 -0.35778 -0.2694 -0.25809 -0.31974 -0.15982 0.28979 -0.10065 -0.028116 0.22233 0.68069 0.1616 0.537 -0.0034002 -0.1289 0.13296 0.0055581 0.073493 0.030033 -0.1453 0.91261 0.40519 0.46714 0.63968 0.19911 -0.13588 -0.58594 -0.13274 -0.3689 0.061765 0.28902 -0.15274 -0.55878 -0.55552 0.2898 -0.31086 0.21684 -0.38187 -0.036762 0.14038 0.094429 0.47693 -0.17793 0.007892 -0.58296 -0.22256 -0.41236 0.5286 -0.17021 1.1116 -0.41779 -0.1122 0.26859 -0.62499 -0.3015 0.11499 0.032075 -0.71181 -0.63248 -0.23976 -0.54417 -0.079432 -0.2498 0.31208 0.42053 -1.149 -0.029116 0.24205 0.48148 -0.50222 -0.22672 0.50422 1.1129 -0.087125 -0.44345 -0.19066 -0.58964
tokyo 0.098601 0.27441 -0.191 -0.47449 0.32377 0.036325 -0.1794 0.0715 -0.16002 -1.3565 0.054445 0.058587 0.96325 0.64588 0.31832 -0.22093 -0.32938 0.25902 0.038284 0.036803 -0.072783 -0.86109 -0.14331 -0.068163 0.13699 0.34745 0.6794 -0.39183 -0.17969 -0.30863 0.050854 -0.6783 0.20786 0.056981 -0.010946 -0.45238 0.061764 -0.48375 -0.4535 0.36633 0.19866 0.50684 0.0084629 0.25704 -0.59336 0.53967 -0.046738 0.15907 -0.61923 0.71216 0.15731 0.078115 0.065436 0.012679 -0.11812 0.045434 0.11911 0.31346 -0.33378 -0.72048 0.16348 0.37567 0.24608 -0.19863 0.33136 -0.069558 0.032321 -0.011914 0.046053 -0.57834 0.28408 -0.30575 -0.10392 -0.50894 0.20286 -0.51883 0.19081 0.90813 -0.16143 -0.55581 -0.2981 0.011338 -0.69549 0.3706 -0.24571 0.68152 -0.02208 -0.53535 -0.26667 -0.45464 0.53624 -0.48291 -0.011227 -0.46368 -0.053426 -0.11341 -0.33399 0.018974 0.13978 -0.27534 -0.2229 -0.9672 -0.39 0.66004 -0.13951 -0.28494 0.40031 -0.47418 0.11423 0.54769 -0.54861 -0.49663 -0.16145 -0.046406 0.5475 0.37303 0.17157 0.025244 -0.016331 -0.88476 0.65766 -0.78519 0.024987 -0.21502 -0.4689 0.15996 -0.17555 -0.27995 -0.37627 -0.16559 -0.38295 1.1125 0.77546 0.28117 0.50622 0.1783 0.11839 0.052525 0.59884 0.61513 0.1548 0.054971 0.36211 -0.34473 0.20225 -0.30249 0.044324 0.23936 0.1108 -0.11807 0.93929 0.20263 0.23739 0.85676 0.61424 0.53468 -0.8022 -0.32135 -0.087396 0.058967 0.12191 -0.019841 -0.25127 -0.5628 0.65913 0.071932 0.38056 -0.096998 0.25373 -0.10515 -0.31138 -1.2763 -0.59519 -0.19963 -0.44105 -0.19738 0.41205 0.5094 0.05373 0.97082 0.11403 0.23819 -1.1227 0.27666 0.13608 0.78915 0.19753 -0.067116 -0.23772 -0.21532 0.5068 -0.38146 -0.040092 -0.27019 -0.60186 -0.46939 0.083592 -0.018712 -0.5859 0.57434 1.0775 0.28712 -0.14793 0.75426 -1.1862 0.89508 -0.2454 -0.26082 0.35861 -0.30432 -0.25548 -0.21376 -0.16343 -0.17536 -0.38322 0.0035327 -0.12855 0.064825 -0.46896 0.23991 0.8058 -0.22862 0.070653 0.021761 -0.44339 0.37779 -0.88561 0.092389 -0.49615 0.30729 0.3822 -0.33535 0.14134 0.29734 0.67802 0.2839 0.41608 0.41806 0.54032 0.70921 0.037843 -0.33668 -0.27685 0.52396 -0.19763 -0.23426 -0.1787 -0.36219 -0.17823 -0.20024 0.4667 -0.26823 -0.07795 0.80319 -0.77293 -0.49381 -0.37111 0.51082 0.55032 -0.21746 -0.063999 -0.25789 -0.48426 0.43555 0.59306 -0.12925 -0.34708 0.31591 0.26827 -0.5112 -0.42441 0.08333 0.33871 -0.06986 -0.065561 0.13207 -1.1871 -0.1551 0.76769 -0.35147 -0.49877 0.31884 0.11302 -1.1187 -0.64931 -0.25633 -0.30675 0.61263 -0.36169 -0.4735 0.44561 0.0256 -0.10268 -0.035208 0.32269 0.67372 0.097163 0.14781 -0.017222 -0.23901
houston 0.48599 0.08869 -0.14456 0.086742 -0.30803 0.16281 -0.22309 0.014935 0.0019684 0.73736 0.42776 -0.12464 -0.43674 0.27128 0.17642 0.095904 -0.027495 0.35839 0.27559 -0.26681 -0.24886 -0.42608 0.017564 0.32569 -0.014692 0.29906 -0.30917 0.24413 -0.6349 -0.46962 0.23733 0.52199 0.18426 -0.28749 -1.4131 0.074253 0.13032 0.11561 0.00021386 0.11452 -0.19256 -0.45917 0.4491 0.51133 -0.088909 -0.22811 -0.024851 0.24267 -0.16204 0.002831 0.24126 -0.17549 -0.43466 -0.027202 -0.21969 -0.60198 0.037947 0.25103 0.23402 -0.83969 -0.27916 0.38758 0.86648 0.26304 0.34507 -0.52911 -0.2402 -0.12081 0.44647 -0.3838 -0.064314 -0.85453 0.10714 0.35654 0.060658 0.4669 0.49043 0.46382 -0.017077 0.13713 -0.21569 0.25926 -0.79497 0.46468 -0.56786 -0.037022 -0.12075 0.25201 -0.1381 0.13953 0.40609 0.53636 -0.20488 -0.017731 -0.065071 -0.13247 -0.27265 0.079315 0.18453 -1.0869 -0.22949 0.2082 -0.38374 -0.44731 0.20034 0.11047 0.25812 0.068562 -0.06942 0.23616 -0.14071 -0.5694 -0.024994 0.30299 -0.067 0.14144 -0.11403 -0.16462 0.7107 0.64965 0.91744 -0.071028 0.37813 -0.35558 -0.55711 -0.69226 -0.19097 -0.70897 0.49912 0.47524 -0.14876 -0.29347 -0.0091868 0.1349 -0.19828 0.026908 -0.13512 -0.12447 0.13797 0.020659 -0.36001 -0.50871 0.56343 0.46877 -0.59649 -0.1904 0.069016 0.26645 -0.15014 0.50076 0.60132 -0.20334 0.22133 0.079882 -0.2332 0.43888 0.14471 -0.078175 -0.096369 -0.24361 -0.20935 -0.18812 -0.4148 0.031712 -0.063895 -0.1824 -0.25394 -0.044548 -0.35299 0.93505 -0.044763 -0.16919 -0.51574 0.30777 -0.057104 0.4727 0.11042 -0.21099 0.31581 0.010364 -0.11674 0.38717 -0.27416 0.076076 -0.086967 0.07544 -0.04738 -0.048569 -0.35132 0.037444 -0.35837 0.14617 -0.37776 -0.11607 0.17965 -0.065953 0.72394 -0.25376 0.23446 -0.12587 1.1058 -0.12116 0.22781 -0.37016 -0.15388 -0.03082 -0.18677 -0.30716 0.51958 0.041843 -0.43832 0.074605 -0.43574 0.059169 0.22697 0.37813 0.027778 0.034254 -0.67009 -0.69158 0.73846 0.0011584 0.1773 0.46073 -0.034377 -0.08812 -0.49022 9.7839e-05 -0.20953 -0.13397 -0.038906 0.47776 -0.40024 -0.09082 -0.61308 0.11421 0.060428 -0.53284 -0.33474 0.056044 -0.25521 -0.17583 -0.086523 0.087573 -0.18237 -0.19029 -0.09017 -0.11494 0.29132 -0.068035 0.19296 0.042006 -0.44784 0.37737 0.21886 -0.26725 -0.10748 -0.65383 0.042963 0.10998 -0.46577 0.4585 -0.21789 -0.41476 -0.39526 -0.389 0.21668 -0.10219 0.11825 -0.5504 -0.41471 0.074444 0.29491 -0.37409 0.13866 -0.35188 -1.3988 0.17204 0.051689 -0.041889 -0.73546 0.23756 0.35109 0.69846 -0.63568 0.39353 0.027786 0.4247 -0.29738 -0.30527 0.68607 -0.28421 -0.30562 0.48597 0.70444 0.25606 -0.052257 -0.50994 -0.0097757 0.32411
miami 0.39773 0.0084916 -0.065779 0.17741 0.13368 -0.14508 0.312 -0.29874 0.73128 0.55795 -0.033129 0.016938 0.025438 0.078421 0.56591 -0.089316 -0.05924 -0.11993 -0.11135 0.26068 -0.27765 -0.50428 -0.22355 -0.13501 -0.045607 0.31127 -0.1551 0.54953 -0.73535 -0.50791 0.21001 0.55549 -0.8397 0.0015776 -1.2187 -0.24545 -0.17447 0.45671 -0.18022 -0.06836 -0.50894 -0.096358 -0.1838 0.41484 -0.25349 0.53304 0.42628 0.31665 0.11277 0.26981 0.16312 -0.42001 -0.13775 0.015905 -0.20586 -0.29655 0.01851 0.16663 0.64578 -1.1056 -0.59407 -0.35712 -0.11964 0.91504 0.094483 -0.15276 0.23457 0.27048 0.31044 -0.2908 0.26447 -0.12349 0.20444 0.13494 -0.61318 -0.087613 0.30378 0.30788 -0.11073 0.54342 0.29478 -0.16787 -0.56622 0.46261 -0.35191 -0.031463 0.0099663 -0.083507 -0.49809 -0.33165 -0.24361 -0.10017 -0.12899 -0.91136 -0.21916 -0.086056 -0.07137 -0.11994 -0.057942 -0.56289 0.010285 0.0018811 0.47305 0.4169 0.42149 -0.0046559 0.11076 -0.50754 0.049523 0.32331 -0.40249 -0.88219 0.18258 -0.087128 -0.1645 0.3053 -0.078098 0.26085 -0.90022 0.32227 0.40481 -0.13661 0.22517 -0.42481 -0.72135 -0.30071 0.61548 -0.55853 0.14937 0.20378 -0.12282 0.24713 0.10796 0.12732 -0.36163 0.16326 -0.25464 -0.23101 0.18229 0.33597 -0.086093 -0.10153 -0.089664 0.8994 -0.39548 0.89049 0.11195 0.35874 0.051993 0.24704 1.0546 -0.10834 -0.35993 -0.19631 -0.056072 0.17741 0.23057 0.11241 -0.16165 0.34286 0.32202 0.26606 -0.29726 0.20715 0.11481 -0.5204 0.38438 0.04625 -0.53168 0.6548 0.44424 0.1508 -1.0349 0.33535 0.057026 -0.15031 -0.14091 0.23249 0.1706 -0.15529 0.64143 0.16757 -0.11689 0.32569 -0.43185 -0.45862 -0.64359 -0.012185 -0.46018 0.3041 -0.44438 0.39168 -0.47513 0.16818 0.2571 -0.34917 0.31411 0.40841 0.1196 0.22828 1.1227 -0.037901 0.013475 0.043278 0.52136 -0.59613 -0.18226 0.57716 -0.16175 -0.02446 -0.087163 0.86892 -0.59175 0.46992 0.37312 -0.064558 -0.081347 -0.2944 -0.13201 -0.43412 0.84067 -0.25227 0.19343 0.45933 0.064538 0.3443 0.18757 -0.24494 -0.23863 -0.098018 0.47391 0.14662 0.6861 0.030293 -0.3229 -0.4116 0.18643 -0.3598 0.32422 -0.12265 -0.44507 0.026274 -0.075418 -0.096079 -0.22622 -0.32598 0.2195 -0.14752 -0.089757 0.33167 0.20523 0.22424 -0.45265 0.51118 -0.023149 0.059604 0.41024 0.33202 -0.083303 -0.47726 -0.48033 0.049407 -0.16604 -0.21661 -0.020512 0.10791 0.4749 -0.063919 -0.2502 -0.32444 -0.10964 -0.57046 0.41297 0.099206 0.28245 -0.038046 -1.4699 0.66014 -0.13331 0.48369 -0.43992 0.16816 -0.18825 0.22588 -0.44886 -0.25681 0.10783 0.26249 -0.09201 -0.33144 0.43808 -0.00091769 -0.3148 0.58351 0.1491 -0.31525 -0.53499 -0.459 -0.17658 0.2713
philadelphia 0.023173 -0.4826 -0.093487 -0.19656 -0.073373 0.19743 -0.017205 -0.14568 -0.35807 0.86903 -0.11307 0.05827 -0.25162 -0.20672 0.79801 0.28854 0.032506 -0.53079 0.27 -0.059838 -0.6444 -0.65347 -0.3915 -0.26337 -0.25904 -0.082276 -0.50815 -0.33454 -0.677 -0.20046 0.094909 0.10234 -0.099895 -0.26788 -1.4526 -0.13702 -0.6591 0.17296 -0.18833 -0.075836 -0.46824 0.16093 0.49036 0.47093 -0.26564 0.5769 0.43422 -0.118 -0.44103 0.34321 -0.04791 0.44288 -0.089518 0.013406 0.21368 -0.45423 0.069304 0.22275 0.079648 -0.68376 -0.37542 -0.05847 0.12865 -0.3407 0.36107 -0.47641 0.14543 -0.063798 -0.023374 -0.3036 0.16074 -0.28356 -0.13206 0.14635 -0.33908 0.18346 -0.057771 0.47906 -0.19355 0.48668 -0.60282 0.18391 -0.35132 -0.35454 -0.1002 0.21642 0.11192 -0.003792 -0.43793 0.60631 0.46999 0.027812 -0.493 -0.361 -0.66874 -0.24344 -0.048971 0.09351 -0.61028 -0.97777 -0.13587 -0.15063 0.023601 -0.11108 0.2738 -0.45551 0.55986 -0.39192 0.31783 0.82769 -0.25652 -0.85807 -0.20087 0.084342 -0.20129 0.27382 0.051029 0.2065 -0.024219 0.35028 0.50878 0.22057 0.043484 -0.4197 0.057144 -0.3673 0.19169 -0.51544 0.23518 0.066352 -0.009804 0.11331 0.15303 -0.31127 -0.77118 0.14351 0.21746 -0.4329 -0.1461 -0.046133 -0.31377 0.11316 0.056852 0.68559 -0.06935 0.73007 -0.37565 0.0052952 -0.1598 -0.22549 0.75543 -0.14574 0.4327 -0.068772 0.024893 -0.16624 -0.28167 0.37748 0.15121 -0.16512 0.1762 -0.019195 -0.36548 -0.31731 0.27275 0.18519 0.13644 -0.35651 -0.56041 0.70091 0.29222 -0.23294 -0.86432 0.60621 0.19278 -0.32123 0.059236 0.041326 -0.014034 0.24718 0.18633 0.53545 -0.096057 -0.14775 -0.53841 0.509 -0.44664 0.20606 -0.22605 0.44503 0.076688 0.505 0.27253 -0.42546 -0.19274 -0.45176 -0.22071 -0.43563 0.27745 0.33857 0.90699 0.28959 0.54403 -0.33346 -0.147 -0.66443 0.11757 0.21107 0.23517 -0.19021 0.30561 -0.048754 -0.18871 -0.039036 -0.014002 0.24403 -0.26723 -0.15481 -0.051489 -1.004 0.4549 -0.060455 0.43263 -0.33813 -0.28248 -0.2001 -0.24951 0.019222 0.46086 -0.13311 -0.50725 0.43942 0.20914 0.067776 -0.49637 -0.46819 -0.14329 -0.16384 -0.67208 -0.051529 -0.068482 -0.5315 0.25301 0.021881 -0.15188 -0.23222 -0.57606 0.15549 0.32283 0.07442 0.11712 0.35713 0.087931 0.53354 0.78922 0.080474 0.44714 -0.64574 0.20656 0.36299 -0.57329 0.2965 0.17929 0.29796 0.072436 0.29181 0.11292 1.0766 0.31661 -0.68555 -0.21261 -0.29952 0.045537 0.37873 -0.23255 -0.095408 -1.1791 0.28509 -0.15271 0.43048 -0.59276 0.26482 -0.23887 -0.031186 -0.041505 0.7399 -0.23571 0.43943 0.094195 -0.061197 -0.15728 -0.57364 -0.93458 0.60045 -0.15011 0.25338 0.58155 -0.62576 0.10371 -0.016708
shanghai 0.040277 0.29526 0.012155 -0.52929 -0.0055592 -0.37683 0.26746 0.021548 0.056071 -1.0055 0.74504 -0.023526 0.60774 0.21575 0.17479 -0.7151 -0.16806 0.14523 -0.064516 0.27487 -0.55249 -0.41021 0.058521 0.16992 -0.0093034 0.47579 -0.093185 0.23229 0.10294 -0.14305 0.17023 -0.13056 -0.11926 0.60073 -0.95003 -0.039805 -0.27647 -0.3332 -0.17348 -0.03339 -0.0049891 -0.26048 -0.029175 0.27415 -0.030301 0.037996 -0.1166 0.67258 -1.3066 0.53766 0.25085 0.22363 -0.40207 0.38922 0.092684 0.48534 0.65943 -0.10669 -0.005161 -0.4779 -0.29207 0.22671 0.029674 -0.51338 0.34224 0.47328 -0.044753 0.10871 -0.95605 0.24026 -0.15886 0.28287 0.60993 -0.41591 -0.43818 0.12974 -0.44483 -0.13646 0.25558 0.56299 -0.41302 0.0064159 -0.38405 -0.3518 0.42044 0.11444 0.18633 -0.21286 -0.0060409 0.064334 0.37078 -0.12611 0.0732 0.48438 -0.28797 -0.056111 -0.16031 0.54706 -0.26592 -0.7972 0.091691 -0.0045521 -0.045413 0.031752 -0.15746 0.2318 0.043284 -0.78705 -0.43556 0.27515 -0.37766 -0.58194 -0.025639 -0.14169 0.61439 0.047686 -0.04973 0.5602 -0.27838 -0.017569 -0.00056447 -0.5144 0.35193 -0.41111 0.29559 0.44503 0.37091 0.40006 -0.32713 -0.37507 -0.16999 0.15905 0.4086 0.32367 -0.1092 -0.11253 -0.054426 -0.3548 -0.028033 0.64584 0.29535 0.073666 0.3242 -0.49443 0.41163 -0.081401 -0.057923 0.086017 -0.20057 0.27661 0.65922 -0.15071 0.56108 -0.15644 1.0819 0.1475 -0.55076 0.26111 0.068145 -0.20749 -0.2338 0.72736 -0.052821 -0.064229 0.40944 -0.29098 0.39979 -0.48717 -0.059111 0.54084 -0.58161 -0.42035 -0.60248 0.13317 -0.42699 -0.35095 0.19256 -0.27045 -0.29547 0.565 -0.11515 0.32392 -0.54062 0.49051 0.13504 0.51066 -0.36019 0.51662 0.12747 -0.10056 0.74068 -0.48585 -0.96563 -0.24776 0.50762 -0.44576 -0.25882 -0.56887 -0.050133 0.12845 0.32656 0.25522 0.25714 0.65572 -0.97111 0.50235 -0.22642 -0.53497 -0.023975 0.08708 -0.49692 -0.21307 -0.17475 -0.50738 0.14336 -0.013677 -0.11502 0.5969 0.064878 0.36698 0.74933 -0.22441 -0.21024 0.34483 -0.14517 0.051337 -0.047376 -0.098735 -0.68754 0.1701 0.14089 -0.5712 -0.070771 0.16607 0.35982 0.98428 -0.16805 -0.28916 0.25116 0.50251 0.086652 -0.52627 -0.5924 0.71669 0.029962 0.69887 -0.10769 -0.32813 0.28069 -0.0090545 0.73826 0.25775 0.45138 0.015587 -0.35407 -0.36007 -0.22044 -0.24703 0.2418 -0.62828 -0.31907 0.206 0.25173 -0.10836 0.32833 -0.16092 -0.13104 -0.49398 -0.12677 -0.22515 0.08208 -0.13131 0.1643 0.40767 0.20463 0.021449 -0.94304 -0.45319 0.16788 0.090159 -0.74385 -0.49376 -0.32119 -0.79962 -0.22785 0.35767 0.31579 1.0069 -0.49756 -0.081653 0.12349 0.30077 -0.48314 -0.30647 0.32808 0.54881 0.086603 -0.71721 0.17403 0.013038
sydney -0.15084 -0.023978 -0.12076 -0.34137 -0.059456 0.06711 -0.038224 0.27543 0.13296 -0.41161 0.40336 0.42537 0.61262 0.25272 0.41435 -0.25259 0.14166 0.41886 -0.24557 -0.0060942 -0.74139 -0.48388 0.36098 0.042248 0.21924 0.47714 -0.15346 0.36227 -0.28615 -0.14245 0.13603 -0.2118 -0.32225 1.2509 -0.84099 -0.093053 -0.4364 0.31077 -0.10579 -0.15975 -0.39323 -0.13396 -0.34482 -0.053792 0.14137 0.53208 -0.16151 0.58724 0.29035 0.34839 -0.29209 0.36733 -0.12506 -0.10558 -0.016154 0.76313 0.18565 0.14896 -0.54226 -0.69465 -0.11844 0.42097 -0.16113 0.072458 0.6099 -0.23481 -0.35025 -0.015522 -0.39094 -0.17092 -0.57296 -0.30306 -0.19276 -0.5807 -1.0873 -0.065329 0.32377 0.034603 -0.13351 0.67054 -0.20916 -0.026331 -0.1112 -0.28857 -0.19288 0.037225 0.43286 -0.90684 -0.24349 -0.23801 0.44996 -0.048218 0.49088 -0.19773 -0.079403 0.33067 0.32771 0.065577 0.23058 -0.76149 0.049134 -0.20305 -0.72085 0.42231 0.16751 0.36643 -0.16458 -0.363 -0.19872 0.085611 -0.056734 -0.28627 0.07897 -0.56922 0.053602 0.01331 -0.097874 0.31641 -0.41016 -0.85889 -0.081144 -0.2314 -0.57735 -0.14822 0.24126 -0.2478 -0.077858 0.017816 -0.085432 -0.49244 0.10494 -0.01804 0.13993 -0.047778 0.33115 0.55608 0.29759 -0.27806 0.52015 0.63469 0.035083 0.27492 0.20383 0.40831 -0.72056 -0.50159 0.43416 -0.30275 -0.19581 -0.15732 1.1 0.20032 -0.06906 -0.067681 0.39417 -0.3587 -0.76192 -0.36316 0.17657 0.065133 -0.44329 -0.20495 -0.014027 -0.5149 -0.2765 -0.11846 0.15624 0.33784 0.85091 0.42663 -0.68194 -0.40361 -0.19207 -0.129 -0.33874 0.027181 0.46864 -0.23083 0.0032193 0.59089 0.15707 0.71402 -0.23947 -0.27676 0.47245 0.70509 -0.18118 0.25495 -0.055098 -0.31202 0.089522 0.18052 -0.31031 -0.21807 -0.12527 -0.5512 0.28265 0.24047 -0.24546 0.1792 1.0736 0.33924 -0.74493 -0.19497 -0.39978 0.25939 -0.17535 -0.66308 0.31069 -0.63034 0.12516 0.39459 -0.13936 0.47758 -0.044421 0.26871 -0.14745 -0.056667 -0.0038952 -0.73615 0.97728 -0.25036 0.16349 -0.5431 -0.14436 -0.27046 -0.32592 -0.20228 -0.31316 0.98498 0.37572 0.55007 0.063135 -0.33806 0.1693 0.80807 -0.2959 0.34032 -0.020129 0.089238 -0.089293 -0.22971 -0.28794 -0.016285 0.022824 -0.0017064 -0.46559 -0.18697 -0.25534 0.2252 0.025998 -0.061531 -0.10296 -0.035562 0.011723 0.038519 0.35127 -0.0019157 0.84707 -0.058549 -0.44646 -0.037588 0.056427 0.5201 0.2172 0.012743 0.25578 -0.67778 -0.027246 0.28941 -0.17563 -0.034594 0.27628 0.068757 -0.32489 -0.25275 -0.99384 0.19138 0.65536 0.26822 -0.39301 0.026729 -0.44172 0.14069 -0.59758 -0.23688 -0.034858 0.20034 -0.27945 -0.15786 -0.15702 0.11577 0.020748 0.078145 0.071149 0.040308 -0.034672 0.43814 -0.13855 -0.34043
madrid 0.58703 0.72231 -0.10914 0.28462 0.41189 0.12647 -0.80556 0.24472 -0.0018587 -0.93482 0.27664 0.38975 0.40906 0.59703 0.12297 0.026068 -0.40187 0.67832 0.35531 0.35877 0.10699 -0.46269 -0.35384 -0.53186 -0.11269 0.049196 0.039637 0.76798 -0.2856 -0.59786 0.57266 -0.14325 -0.38439 0.040945 -0.59554 -0.48845 0.43915 -0.052575 -0.41849 0.24098 -0.03469 -0.24328 -0.44746 -0.27688 0.39221 -0.010537 0.25843 0.67702 0.44843 0.56339 0.39393 -0.44661 -0.2158 0.016387 0.28551 0.28598 -0.29092 -0.51817 -0.050041 -0.44199 -0.35931 -0.40849 0.086022 0.091114 -0.17182 -0.37115 0.94598 -0.43865 -0.45482 -1.2568 0.20858 0.7369 0.37064 -0.022691 -0.22488 -0.22664 0.45882 0.39124 -0.41153 0.85526 0.065389 -0.17099 -0.56373 0.10498 -0.26515 0.23645 0.20561 0.09148 0.0068625 0.43833 1.0674 -0.13294 0.036655 -0.28036 0.64148 0.0017804 -0.0098473 -0.16632 -0.082619 -0.6275 0.17016 -0.53396 0.22497 0.37091 0.078434 0.39161 0.7615 -0.13349 -0.35575 0.15312 0.16378 -0.087708 0.39279 -0.93205 -0.5667 0.04975 -0.090202 0.6313 -0.026511 -0.44088 -0.023206 -0.30848 0.52742 -0.02418 -0.47086 0.11634 0.20568 -0.12923 -0.33911 0.097984 -0.12097 -0.098298 -0.39132 0.15032 0.44639 -0.31699 -0.019674 -0.12439 -0.3348 0.42259 0.52867 -0.22386 -0.010499 0.27866 0.088948 -0.08464 0.018546 0.64432 -0.56564 -0.46868 0.0015284 -0.079263 0.054508 0.11655 0.064745 -0.017567 -0.032759 -0.053487 -0.49758 0.63484 0.21839 0.71328 0.31323 -0.33795 0.79397 0.1387 0.27351 -0.81176 0.096134 0.19671 0.042691 0.11964 0.0076617 -0.46353 0.13478 -0.05935 -0.48385 0.47603 0.0058883 0.60018 0.5825 -0.41756 -0.47704 0.73405 -0.47259 0.37584 -1.5409 0.099469 -0.20918 0.14179 0.12444 -0.41917 0.24432 -0.6599 0.31898 -0.58929 -0.6446 -0.25171 -0.088398 0.7988 0.85142 -0.24232 -0.065061 0.5633 -0.26601 -0.69924 -0.28166 0.31006 -0.56263 0.17412 -0.30806 -0.11217 0.077149 -0.063278 0.12263 0.33572 0.44311 -0.41936 -0.6376 0.052315 0.53136 -0.093006 -0.17354 0.16535 -0.35559 -0.13642 0.11544 -0.011913 -0.26041 0.26888 -0.1827 0.47008 0.49905 -0.56604 0.64167 -0.28873 0.3361 0.65833 0.40733 -0.1039 0.2434 -0.48827 0.0215 -0.030391 0.49654 0.32513 0.025239 -0.33183 0.35803 -0.16764 0.01541 -0.22942 0.09028 0.4766 -0.31051 -0.27772 0.22372 -0.12009 -0.19787 -0.55484 0.16435 0.23336 0.74935 1.1661 0.18689 0.31857 0.46354 0.001581 0.42125 -0.66167 0.32861 -0.18747 -0.229 0.059625 0.32957 -0.099305 -1.0155 -0.60216 0.86406 0.57877 0.054031 -0.0028974 0.38168 0.028647 0.021446 0.10406 -0.1469 0.67451 -0.089677 -0.39967 0.13677 0.036738 -0.50201 0.041788 0.41969 0.4465 -0.037933 -0.44745 -0.64325 0.1062
berlin 0.26191 -0.38692 -0.37203 -0.10643 0.46429 -0.19928 -0.0337 -0.36968 -0.057691 -0.99212 0.018644 0.30477 -0.040811 0.1794 0.17374 -0.41021 -0.080189 0.49095 0.15384 0.29567 0.52147 -0.38161 0.15226 0.058792 0.041678 -0.17706 0.19412 0.25258 -0.40058 0.33814 0.24405 -0.40812 -0.38859 0.31145 -0.38412 -1.1542 -0.16321 0.24111 -0.41928 0.1749 -0.60054 -0.31122 -0.5182 -0.23009 0.063835 0.63385 0.2244 0.3955 -0.38337 -0.26384 0.17852 -0.68346 -0.30011 0.11893 0.63789 -0.32047 -0.037305 -0.030318 -0.10454 -0.16971 -0.73589 -0.080095 0.11155 -0.38098 0.49557 0.11167 0.036552 0.42286 -0.14881 -0.7412 0.00559 0.0017113 -0.016012 -0.21564 -0.3618 0.27121 0.42982 0.93292 -0.12974 0.41059 0.088612 -0.52753 -0.094486 -0.10636 0.32042 0.15802 -0.26688 0.47357 -0.3358 -0.083153 0.4048 -0.47495 0.21006 -0.14175 -0.042732 -0.23838 0.43243 0.29925 -0.50708 -0.81665 -0.27133 -0.59153 0.59507 -0.10996 -0.20008 -0.078016 0.57912 0.0024215 0.18826 0.025047 0.37726 0.47449 0.20193 -0.22636 -0.70113 0.11147 -0.32993 -0.16644 0.1796 -0.89524 0.58446 0.17487 0.77142 -0.15158 0.2577 -0.24803 0.716 -0.056945 -0.37566 -0.83899 -0.19268 0.73744 0.25559 -0.0083361 -0.74917 -0.11999 -0.41006 -0.053657 -0.18361 -0.16297 0.17414 0.15411 -0.20784 0.15631 0.581 0.10867 0.34514 0.054848 -0.36405 0.6719 0.2916 0.64494 0.28247 0.0019689 0.24849 0.51393 -0.13673 0.27877 -0.26737 -0.083686 -0.33944 0.17783 0.34958 -1.051 0.14168 0.63654 0.34369 -0.15911 0.26756 0.0054471 0.33644 -0.30148 -0.22156 -0.54387 0.18764 0.062875 0.5022 -0.43309 -0.22537 0.20095 0.64983 0.40884 -0.94535 -0.30821 0.36865 0.44012 -0.93727 -0.55846 0.23879 -0.19574 0.14615 -0.34926 -0.20665 -0.39779 -0.49912 -0.16717 -0.20055 -0.32389 -0.1934 0.37458 1.1682 -0.0038228 -0.46155 -0.022693 -0.78231 -0.41311 -0.31704 -0.13894 -0.05044 -0.41177 0.13394 0.027373 -0.37398 0.10004 0.12199 0.27883 0.19944 0.12491 -0.152 -0.3677 0.63485 -0.32051 0.020788 0.22434 -0.43293 0.17249 -0.44622 -0.25124 -0.16298 -0.37398 -0.014156 -0.25192 0.62224 -0.021528 0.15203 -0.36559 -0.14627 0.054342 0.73009 -0.312 -0.47969 -0.31441 0.42386 -0.25189 0.24084 0.1613 -0.3655 0.056947 0.01121 -0.12769 0.16656 -0.16165 0.24219 0.60081 0.42132 0.25081 -0.042555 -0.62252 0.4517 -0.12899 -0.019707 -0.31205 0.85061 0.29421 0.28277 -0.19621 -0.295 -0.045406 0.37214 -0.47921 -0.040713 0.1808 -0.46242 -0.099347 0.17696 -0.1711 -1.1276 0.12107 0.40143 -0.14801 -0.74434 0.22365 -0.43944 -0.45305 0.18936 0.56574 0.08775 0.58517 -0.28641 0.30764 0.28632 -0.23883 0.16619 -0.18333 -0.03826 0.26233 0.43068 -0.27259 0.078249 0.23799
toronto 0.49345 -0.066695 0.058295 -0.081277 0.011996 0.062694 -0.53015 -0.045528 -0.43674 0.36 0.56932 0.23287 -0.30518 0.82386 0.23369 0.32049 -0.37294 0.28314 0.0017548 -0.35435 -0.74162 -0.69919 -0.49757 -0.0023388 0.10867 0.28132 -0.25924 -0.38452 -0.43742 -0.06828 -0.059394 -0.077328 0.0029102 0.30325 -1.0996 -0.06768 -0.067694 0.52775 0.25362 0.3296 -0.41443 0.39363 -0.0010237 0.95021 -0.075363 0.54128 -0.33198 0.42737 -0.65494 0.051694 -0.26162 0.18503 -0.23205 -0.13033 0.30828 -0.43656 0.020997 0.025787 0.32436 -0.58145 -0.37526 0.52905 -0.4218 -0.24402 0.61031 -0.45948 -0.22572 -0.14353 0.1488 -0.36657 0.38686 0.3009 0.22969 0.35006 -0.58424 -0.20286 0.012429 0.53314 0.49169 -0.028652 -0.8489 -0.50629 -0.32172 -0.22224 -0.66127 -0.080856 0.29373 -0.37667 -0.59226 -0.21621 0.44062 -0.075806 0.042558 -0.55509 0.26478 -0.37059 -0.00099695 -0.064159 -0.024926 -1.0687 0.012512 0.094843 -0.50974 0.18866 0.0072335 0.20047 0.25079 -0.037401 -0.54945 0.54689 -0.26261 -1.2864 -0.29247 -0.16142 -0.20354 -0.094294 -0.1142 0.1059 0.32747 0.0897 -0.2594 -0.27696 -0.03577 -0.38033 -0.081957 -0.55119 0.54995 -0.54376 0.48779 -0.41498 0.23831 -0.20284 -0.19374 -0.73601 0.33077 -0.10803 -0.54991 -0.38 0.077373 -0.21046 0.56605 0.43672 0.043751 0.52085 0.53313 -0.0036006 0.2903 -0.28781 -0.5944 -0.49826 1.2028 -0.45501 0.22249 0.40784 -0.078577 0.21978 -0.014995 -0.058815 0.15368 -0.49924 0.015985 -0.013043 -0.45828 -0.26396 -0.078698 0.32604 0.22246 0.43606 -0.33729 0.19351 -0.58667 -0.43837 -0.56769 0.4114 -0.23344 -0.23789 0.38437 -0.031811 -0.26055 0.45384 -0.38987 0.34125 0.0019886 -0.046379 -0.18472 0.87053 -0.58017 -0.3491 -0.55509 0.27487 0.14308 0.23526 0.23104 -0.29488 -0.067444 -0.28228 0.13378 0.074975 0.23068 0.48261 0.73222 -0.18445 -0.050588 0.33183 -0.45028 0.65145 0.16575 0.00067451 0.25441 -0.13183 -0.32994 -0.41029 0.15457 0.10915 -0.11888 0.050753 0.21789 -0.25638 -0.0064714 -0.45269 0.084579 0.22795 -0.049715 0.025873 -0.015163 0.10422 -0.29248 -0.32422 0.18997 0.29735 0.15213 0.43467 0.11173 -0.32915 -0.48759 -0.26336 0.56894 0.17667 -0.72974 0.3279 -0.36194 -0.11497 -0.044488 -0.061623 0.0094519 -0.17029 -0.10709 0.31147 0.18077 0.21519 0.62352 0.13975 -0.064768 0.40891 0.3476 -0.45806 0.39812 -0.22379 0.00039843 -0.014 -0.47606 0.14206 -0.025873 0.71569 -0.18485 -0.23563 0.58941 0.16772 -0.15882 -0.33685 -0.27259 -0.23255 0.75031 -0.062837 0.16157 -0.082697 -1.4178 0.031117 0.11854 0.42051 -0.45071 0.17363 -0.28726 -0.17 -0.57485 0.51301 0.45962 0.49803 -0.018372 -0.26186 0.36847 0.31943 -1.0296 0.57323 -0.021568 0.30453 -0.011388 -0.30927 0.48057 -0.0093771
rome 0.15579 -0.12682 0.039515 0.1359 0.49554 0.22866 -0.32457 -0.33084 -0.34179 -1.0314 -0.19426 0.30464 0.39693 0.052947 -0.29709 -0.41987 -0.14345 0.25766 -0.26907 0.071141 -0.5485 -0.038342 0.17909 0.018206 0.40881 -0.23368 0.27556 -0.77666 -0.10578 0.11605 -0.13971 0.33362 -0.54085 0.40434 -0.12869 -0.33061 -0.45806 -0.47795 -0.36158 -0.28963 -0.073571 -0.53832 -0.67514 -0.053115 0.22643 0.36783 0.45492 0.80034 -0.046703 0.27151 -0.16506 -0.2373 0.25753 0.38239 0.41011 0.49753 -0.1082 -0.21396 0.70326 -0.10628 -0.47584 0.29554 -0.20767 0.35271 -0.52103 0.29787 0.02775 0.12097 -0.23212 -1.0237 0.49872 -0.55076 -0.32955 -0.88964 -0.029194 -0.057849 0.20975 0.12537 0.26092 -0.036168 -0.080716 -0.30265 -1.0237 0.12033 -0.057111 0.68092 0.35122 0.29003 0.34897 0.37859 0.51651 -0.38886 -0.33363 -0.31032 0.17947 -0.33917 0.050305 -0.017744 -1.0186 -0.19719 -0.16242 -0.29863 -0.026507 0.43561 -0.099558 0.34454 0.10975 -0.44267 -0.11264 -0.088731 0.13254 0.071257 -0.23915 -0.32854 -0.66423 -0.48008 -0.40556 -0.18457 0.60449 -0.58578 -0.51327 0.44295 0.17701 -0.50821 0.42553 0.15907 0.26133 -0.17799 -0.24412 0.2699 0.41791 -0.50789 0.17285 0.13902 0.16712 -0.65691 0.058875 -0.23273 0.13426 -0.59465 0.054543 0.080898 -0.47238 0.52708 -0.029048 -0.1594 0.25685 0.3069 -0.26302 -0.55384 0.58525 0.21421 0.079298 0.15622 0.057153 0.58271 0.084517 0.39554 -0.30939 -0.89446 -0.22621 -0.071418 0.42094 0.30137 0.38541 0.070477 -0.26258 -0.49498 0.16078 0.10852 -0.28027 -0.23803 0.11764 0.060861 -0.40549 0.21127 0.5058 0.00023643 -0.33079 0.065804 0.30832 0.83645 -0.55344 0.36941 0.13062 0.3643 -1.2764 0.46076 0.28244 -0.17603 0.019537 -0.078029 0.28046 -0.25633 -0.11001 -0.72791 -0.37003 -0.016348 0.02686 0.9227 1.0414 -0.33943 -0.34739 0.55176 0.060553 -0.64934 -0.26672 -0.041887 -0.055918 -0.18446 0.044882 0.18022 0.19292 -0.31619 -0.3383 0.25463 -0.034749 -0.25252 -0.18023 -0.22727 0.54404 -0.26749 0.19146 0.074057 -1.019 -0.49977 -0.22906 0.049769 0.14901 0.12281 -0.29263 -0.11195 0.62534 -0.66411 0.36717 -0.55724 0.44088 0.43166 0.40103 -0.016776 -0.71147 -0.48637 -0.087337 -0.0054872 0.1232 0.39468 -0.69833 0.026113 -0.13162 0.24509 0.46468 0.42396 0.23549 0.16423 0.54994 -0.045274 0.1149 -0.27826 0.45608 -0.10704 0.016605 -0.22036 0.34042 0.44656 0.4932 -0.11652 -0.15128 0.018703 0.33436 -0.34846 -0.26577 -0.088409 -0.13055 0.51006 -0.29032 -0.23816 -1.4544 0.11102 0.92174 0.3252 0.022641 0.29415 0.30826 -0.10695 -0.35456 0.087349 0.017075 0.24808 -0.11739 -0.12772 -0.18916 -0.21196 0.012507 0.69837 -0.5078 -0.21889 -0.6778 -0.048609 -0.64297 -0.42663
dallas 0.078922 0.11362 -0.3371 -0.075584 -0.16686 -0.10062 0.15902 0.06419 -0.24438 0.95832 0.37011 0.11559 -0.091681 0.035871 0.41664 -0.076437 0.53364 0.27477 -0.31568 -0.51674 -0.073426 -0.44304 0.15763 0.081368 0.31773 0.22347 -0.43093 -0.14561 -0.92323 -0.58764 0.057753 0.55206 -0.32538 -0.19561 -1.5211 -0.031923 -0.43398 0.30165 0.32931 -0.41691 -0.42377 0.090977 0.082382 0.38579 0.13794 0.086584 0.47855 0.091647 -0.15313 0.21845 0.044426 -0.32324 -0.75168 0.12615 -0.39775 -0.50539 -0.18403 0.064729 0.17361 -0.89114 -0.24878 0.051153 -0.013341 0.076381 0.51247 -0.55612 -0.025157 -0.036127 0.20772 -0.27222 0.059473 -0.32387 -0.085015 0.85048 -0.0096035 0.31533 0.37016 0.34465 -0.19052 0.10355 -0.47978 0.05933 -0.63363 0.37067 -0.39084 -0.35171 -0.69654 0.071154 -0.30621 0.34598 0.081291 0.69805 -0.0054053 0.24684 0.25761 -0.12151 -0.097389 0.17223 -0.44547 -1.0699 0.12516 -0.23479 -0.57991 0.279 -0.29086 -0.22407 0.075198 0.38883 -0.10097 0.32471 0.16457 -0.77993 -0.098114 0.13809 -0.17197 0.12867 0.054497 -0.16092 -0.0025614 0.79797 1.0022 0.14184 0.37928 -0.27418 -0.47918 -0.7334 0.080169 -0.61056 0.3952 -0.02785 0.18988 -0.23881 -0.42153 0.17614 -0.045136 -0.089579 -0.011565 -0.11467 -0.082119 0.28036 -0.24805 -0.14261 0.16193 0.52886 -0.51477 0.40649 0.10737 0.038107 -0.29277 0.021428 0.67378 0.075032 0.031892 -0.14403 0.2014 0.33165 0.44047 0.23232 -0.042544 -0.36552 0.29071 -0.21481 -0.24045 -0.00019405 0.3825 0.1842 0.27417 -0.30665 -0.74435 0.31825 -0.28714 -0.39631 -0.91777 0.17768 0.013071 0.47301 0.083699 0.31494 0.26072 0.13262 0.21525 0.31867 -0.26642 -0.277 -0.2194 -0.22388 -0.45231 -0.54145 -0.28417 0.03959 -0.099414 0.36495 -0.11296 0.36508 0.010161 -0.35691 0.3967 -0.45955 0.89122 0.57679 1.1714 -0.020923 0.1783 -0.18491 -0.11343 -0.38333 -0.16155 -0.061367 0.17454 -0.032192 0.32109 0.28569 -0.25211 0.065765 0.24812 0.24957 0.22013 -0.06596 -0.60552 -1.02 0.26735 0.11149 -0.18483 0.31391 0.059256 0.030152 -0.20396 0.21249 -0.078479 0.069921 0.32998 0.23909 -0.10963 -0.23394 -0.22836 -0.16953 0.25674 -0.60268 -0.47487 0.2064 0.0061536 -0.096819 -0.15561 0.24836 -0.24429 -0.13619 0.26323 0.11886 0.42628 0.00056185 0.070983 0.01425 -0.39467 0.27667 -0.025788 -0.12559 0.49507 -0.45467 -0.054354 0.0294 -0.32278 0.52379 0.2473 -0.070949 -0.31792 -0.44538 0.3498 0.25375 0.021253 -0.61822 0.033822 -0.61747 -0.037967 -0.17749 0.0975 -0.20364 -1.1119 0.43542 -0.096787 0.071164 -0.52231 0.10604 0.39094 0.10525 -0.55 0.30828 0.026601 0.34623 -0.3913 -0.099719 0.64238 0.050015 -0.4439 0.68183 0.19898 0.15755 -0.21057 -0.26616 -0.27626 0.35826
milan 0.521 0.65576 -0.17768 0.72952 0.80177 -0.01906 -0.68763 -0.68584 -0.13462 -0.88204 -0.15263 0.27708 0.47554 0.50434 0.2915 0.0092472 0.1359 0.49772 0.37796 0.032572 0.19008 -0.68278 0.15447 -0.14383 -0.37409 0.26415 0.14808 -0.20476 -0.34861 -0.4082 0.41444 -0.28867 0.2658 0.22728 -0.97265 0.18296 -0.067845 -0.57403 0.077436 0.12418 0.41654 -0.64427 -0.63927 0.20764 0.12457 0.078025 0.42461 0.75708 0.05028 0.49783 -0.059838 -0.17294 0.13191 0.49001 0.55186 0.2949 0.031855 -0.72579 0.74654 0.091342 -0.53991 -0.030233 -0.091722 -0.30603 -0.13131 0.78428 -0.22095 -0.82212 -0.45463 -1.1188 0.30846 -0.0864 -0.19265 -0.60525 0.19654 -0.11191 0.2668 -0.111 -0.18487 0.037867 -0.28912 -0.11983 -0.59186 -0.040197 -0.68829 0.57202 0.29777 0.073398 -0.68811 0.36753 0.44963 -0.040839 0.19271 -0.67053 0.52167 0.085745 -0.35332 -0.17677 -0.14725 -0.41703 -0.19468 -0.73509 -0.1439 -0.094743 -0.19656 0.47798 0.30031 -0.079092 -0.22916 0.4822 0.48234 -0.026578 -0.021957 -0.66507 0.29738 0.089733 -0.43948 0.43717 0.58581 -0.65439 -0.086882 -0.11224 0.91722 -0.43292 0.18067 -0.19301 -0.35777 -0.42535 0.21141 0.88872 0.35238 -0.5143 -0.40345 0.33404 0.40042 -0.12172 0.29825 -0.35573 -0.158 0.037442 0.12431 -0.23195 -0.3849 0.93159 0.42177 0.64672 -0.34366 0.095029 -0.67342 -0.69172 0.37027 0.18661 -0.093461 -0.033906 0.41917 0.28562 0.19315 0.48784 -0.49625 0.042681 -0.12669 -0.71191 -0.33541 0.31896 0.22442 0.31589 -0.12914 -0.63979 0.18949 -0.017944 0.13351 0.27661 -0.44329 0.12865 -0.40488 -0.12045 0.29804 0.41919 -0.15488 0.63028 0.21457 0.065317 -0.022386 1.0821 0.1411 0.39281 -1.1419 0.12495 0.064022 0.38274 0.35815 -0.50391 0.067475 0.23655 0.18606 -1.0731 -0.5288 -0.72106 -0.15102 0.77823 0.73004 -0.43113 -0.48119 0.32188 0.025955 -0.38273 -0.35576 -0.25065 -0.3806 -0.59072 -0.11541 -0.54225 0.20513 0.29551 0.45176 0.072554 0.42797 -0.37252 -0.72349 -0.33872 0.25934 -0.81033 0.0072702 0.26134 -0.74979 -0.016477 -0.49355 0.18372 -0.32905 0.6488 -0.4657 0.4829 0.071793 -0.24271 0.91772 -0.24064 -0.23189 0.55459 0.69213 0.46895 -0.026556 -0.70394 -0.11645 -0.018857 0.84044 0.76856 0.16304 0.55018 0.30951 0.13827 0.18858 0.37299 -0.080992 0.23038 0.27702 -0.25644 0.13848 -0.31019 -0.08394 -0.23786 0.068427 0.4272 0.46019 0.57051 0.006595 -0.48794 0.24386 0.071698 0.8308 -0.72025 0.27336 0.051453 -0.41672 0.19993 -0.033781 0.059716 -0.76113 -1.2608 0.18118 0.19341 -0.64833 0.63304 0.53302 -0.23006 0.54031 0.13566 -0.41144 0.51813 0.3756 -0.50938 -0.21 0.42053 -0.53986 0.82022 0.34624 -0.058574 -0.045976 -0.62237 -0.18487 0.10555
tehran 0.41347 -0.041907 0.24802 -1.0054 0.18179 -0.97115 0.24715 0.11203 0.052757 -1.7577 0.18739 0.25783 0.67414 0.32705 0.18339 0.74819 0.08344 -0.1328 -0.42528 -0.075768 0.19641 -0.82183 0.0083468 0.56117 0.059289 -0.070171 0.6419 -0.26681 -0.66563 -0.11688 -0.47287 -0.56794 -0.42846 -0.38164 0.53509 -0.80195 -0.50837 -0.46094 -0.6761 -0.013423 -0.2217 0.63226 -0.74241 0.13305 -0.82276 1.125 -0.42519 0.32379 -0.44873 -0.29731 -0.16746 -0.099639 -0.0050292 -0.34102 0.22538 0.041307 -0.56911 0.33028 0.45914 -0.38537 -0.15933 0.46359 -0.17089 -0.86234 -0.35271 0.24954 0.95863 0.60309 -0.14766 0.23021 -0.17813 -0.33274 0.22307 -0.20512 0.29854 0.032412 -0.31466 0.31529 -0.31197 0.58456 0.11738 -0.64673 -0.11407 0.76416 -0.050701 -0.24188 0.33954 0.19239 0.13684 0.051979 -0.37483 -0.35435 0.33493 0.39395 -0.19237 0.59257 -0.099368 0.18548 -0.10964 0.1409 -0.60594 -0.21611 -0.81511 0.36128 0.14568 -0.1807 0.12394 -0.60686 -0.0068335 -0.12408 0.23103 -0.26533 -0.061082 -0.087843 -0.16491 0.098948 0.024244 0.043126 1.1809 -0.41197 0.045036 0.37676 0.59882 0.26811 -0.42951 0.47583 0.5032 -0.80152 -0.0078287 -0.30533 0.17397 -0.028464 -0.29767 0.27022 -0.24727 0.15348 -0.24774 0.33707 -0.27489 -0.28413 0.14828 -0.2054 0.1596 -0.012527 -0.13218 0.22228 0.32345 -0.75385 -0.5334 0.17775 0.54422 0.72792 0.20214 1.0037 0.18928 -0.28799 -0.15129 0.0019166 0.27173 -0.33999 -0.34938 -0.044785 0.062729 0.19765 -0.56519 -0.36621 0.11615 -0.52346 0.16729 -0.084867 0.12447 -0.50804 -0.37631 -1.3019 -0.083305 0.065828 -0.52655 0.047536 -0.54909 0.13422 -0.2869 -0.62373 -0.24614 -0.54737 -0.26171 0.80348 0.18155 -0.58642 0.080403 -0.16989 -0.64733 -0.084282 0.44117 -0.32319 -0.31733 -0.26819 -0.1781 0.039623 0.56472 0.3375 0.53766 -0.24381 -0.017623 0.53475 0.27753 -0.67251 0.01049 -0.17267 -0.47538 -0.32496 0.40023 0.66812 -0.094087 0.21003 0.05716 -0.036617 0.21957 -0.063408 -0.51877 0.52382 0.56507 0.38952 0.085136 0.18378 -0.040099 0.33176 0.032984 0.22442 -0.0049961 -0.28234 0.56264 -0.42149 0.89543 -0.24308 0.67018 0.63985 -0.28558 -0.15004 0.96435 -0.13132 0.086789 -0.77787 -0.18496 0.23932 0.10994 0.19727 -0.23696 0.085278 -0.52252 0.11842 0.67848 0.54335 -0.70984 0.3513 0.1082 -0.43001 -0.16249 0.021983 -0.17014 -0.25734 0.15433 0.61426 0.10121 0.36297 0.15156 -0.24079 0.059146 -0.54628 -0.056403 -0.25661 -0.36081 0.12156 -0.46605 -0.041395 -0.23281 -0.60163 -1.8743 0.043165 1.0475 0.45966 0.10424 0.052642 0.36802 -0.89469 0.31655 -0.19409 -0.12607 0.56597 0.30303 0.2356 -0.38738 -0.42907 1.1004 0.35603 -0.069569 0.25597 0.10372 -0.62304 -0.38512 -0.091189
nice -0.23945 0.12185 -0.23636 0.10928 -0.17754 0.15013 0.34539 -0.23074 0.30911 -1.1142 0.21455 -0.39053 0.15441 0.26127 -0.047398 0.21101 -0.10822 0.45783 0.33089 0.38884 -0.16717 0.82434 -0.30286 -0.097178 -0.089753 -0.45756 0.2603 -0.24104 0.23172 -0.25979 -0.41544 -0.16094 -0.65317 0.49848 -1.6464 0.78985 0.24639 0.26661 -0.15522 -0.18751 -0.051755 -0.37377 0.32686 -0.3074 0.10566 0.46075 0.57423 -0.15669 0.051996 -0.13129 -0.33392 0.21705 0.22601 0.0030807 0.061437 0.35603 -0.11671 -0.49518 0.48622 -0.013694 0.15244 0.056011 0.28352 0.20905 -0.52119 -0.253 0.12035 0.016592 0.29529 -0.47404 -0.36418 -0.42231 -0.059455 0.31245 -0.17251 -0.36963 0.065306 0.418 0.096111 -0.52629 -0.20643 0.21129 0.57124 -0.026037 -0.038424 0.232 -0.28904 0.071725 -0.35324 -0.34903 -0.018514 0.24934 -0.22795 -0.72518 0.47936 -0.043574 0.15879 0.017558 -0.17282 0.15398 -0.50434 -0.48969 0.24139 -0.069805 -0.088792 -0.10841 -0.14475 -0.11419 -0.38295 -0.30476 -0.19583 -0.061215 0.59854 -0.62287 0.080727 -0.22695 0.20161 0.36852 0.08105 0.42868 0.14654 -0.36731 0.56258 0.34656 -0.13911 -0.25612 0.41266 0.51539 0.28685 0.089266 0.45515 0.23269 -0.44961 0.29415 -0.32171 -0.5319 0.088749 -0.64274 0.17965 -0.22444 0.049967 -0.036467 0.22712 -0.45746 -0.45717 -0.24394 -0.63377 -0.048762 -0.080301 0.54988 -0.55446 -0.29078 0.08777 -0.13673 -0.11969 -0.19569 -0.21761 -0.23823 -0.088479 0.34194 0.15223 -0.18768 -0.35711 -0.29887 0.30467 0.079187 0.097091 -0.086771 0.68534 0.23941 -0.27396 -0.73841 -0.25821 0.21093 -0.23356 0.0064933 0.0051355 0.37493 -0.62359 -0.22286 0.088473 -0.56776 0.44862 0.17453 0.23562 0.040937 0.13505 0.20636 -0.11595 -0.0053068 -0.039644 0.16911 0.23225 -0.065398 0.074355 -0.91874 -0.59618 -0.026529 -0.27157 -0.22312 1.4572 -0.62635 0.054936 0.090441 0.24713 -0.57216 -0.13795 -0.02635 -0.61672 -0.3536 -0.5615 0.11093 0.082106 0.093673 0.41595 0.13944 0.22132 -0.36522 0.21387 -0.3457 0.031785 -0.025139 -0.16275 0.30264 -0.14454 0.087622 0.39728 -0.15941 0.028823 0.020414 -0.24266 -0.080013 -0.052619 -0.7519 0.45059 0.20498 -0.041315 -0.26964 0.038678 0.19729 0.30153 -0.50578 -0.081664 0.43418 -0.19143 0.040886 -0.18989 -0.055249 -0.19703 -0.65618 0.3273 -0.77434 0.37792 0.34652 0.30298 0.41851 0.28266 -0.37998 -0.2364 -0.26584 -0.044243 0.011165 0.08734 0.65323 0.10373 -0.14826 0.050453 0.087663 0.65278 0.25582 0.42891 -0.29728 -0.26019 -0.27215 0.6891 -0.030933 -0.96456 0.49358 -0.10605 -0.046468 -0.3858 0.7347 0.071306 0.14366 -0.022284 0.64815 0.53694 -0.039531 -0.045737 -0.28758 0.48108 0.34405 -0.48826 -0.030526 0.2338 -0.7128 0.20321 0.15751 0.25749 0.25208
athens 0.66382 0.08813 0.24181 0.065357 0.53775 0.13393 0.204 -0.095404 0.08773 -0.84144 -0.25242 0.46566 0.21798 0.53626 0.49662 0.42748 -0.11121 0.40816 0.287 -0.30149 -0.25291 -0.18608 0.30275 -0.23074 0.43322 0.069396 0.083697 0.002277 -0.41801 0.0017751 0.041566 -0.12045 -0.1833 0.49469 -0.56508 -0.35265 -0.78141 -0.069161 -0.39276 -0.21001 0.1119 -0.60809 -0.45693 -0.18239 0.30417 0.34351 0.2382 0.70469 -0.184 0.37273 -0.049282 -0.010288 0.42961 -0.72612 -0.13281 1.2769 -0.63669 0.39874 -0.04069 -0.40412 -0.37516 0.60916 -0.72742 0.12255 -0.438 0.17485 0.03577 0.44075 0.24127 -0.83201 -0.23924 -0.27407 0.15534 -0.2003 -1.3118 0.1535 -0.054409 -0.12412 0.14712 0.27691 0.11638 0.17354 -0.35648 -0.54623 0.29184 0.42482 0.071926 0.15019 0.18317 0.03871 0.37487 0.055822 0.056287 -0.55904 0.6437 0.44839 0.23312 0.44593 -0.28939 -0.46955 -0.44172 -0.26031 -0.55244 0.24828 0.12539 0.25833 0.1798 -0.89954 -0.45228 -0.11831 -0.30436 0.15192 0.31078 -0.14585 -0.65338 -0.30873 -0.34777 0.32375 0.0066216 -0.63984 -0.38503 0.53081 -0.14978 -0.018158 -0.28252 0.58483 0.36073 0.24544 -0.15277 0.32738 0.046444 0.33082 0.57985 -0.0076215 0.0017783 -0.38452 -0.3895 -0.18657 0.27738 0.055124 -0.053089 -0.59853 -0.15951 -0.21354 -0.1056 -0.42543 0.29317 0.22901 -0.001889 -0.62714 0.55171 -0.26463 0.57918 0.62355 -0.1443 0.6178 -0.34333 0.97148 -0.55827 -0.060934 -0.41276 0.24189 -0.31219 -0.05985 0.10704 -0.57875 -0.16736 0.096635 0.96215 0.062383 -0.16132 -0.099103 0.25863 -0.035081 0.26235 -0.15038 0.37106 -0.16673 0.090233 0.81056 0.15502 0.024558 -0.44858 -0.51366 0.086611 0.58299 -0.58431 -0.06281 0.043535 0.16347 -0.50163 -0.55208 -0.6038 -0.32975 -0.020398 -0.54387 0.1802 0.014204 -0.3708 0.71525 0.68461 -0.043977 -0.38201 0.677 -0.091969 -0.79201 -0.40395 -0.54796 0.3526 0.30221 -0.2123 0.52975 -0.32147 0.48421 0.25687 -0.22848 0.098519 -0.0062632 -0.49875 -0.75814 0.89091 -0.21474 0.026985 0.13622 -0.24248 -0.68008 -0.51393 -0.19252 -0.21646 0.20775 -0.17047 0.25127 0.32217 -0.70242 0.18569 0.23092 -0.34019 0.060176 0.77451 -0.090234 0.34206 0.26332 0.12384 0.034809 0.25734 -0.58256 -0.15277 0.16571 -0.42593 0.38888 0.026269 0.81988 -0.014908 -0.042225 0.31222 -0.24267 -0.25494 -0.13695 0.27137 -0.6301 -0.30091 0.18241 0.4546 0.21413 0.37458 0.28518 0.29081 -0.21552 -0.16014 -0.61136 0.047166 0.28911 0.16126 0.63596 -0.30755 0.061882 -1.3348 -0.22334 0.25018 -0.041366 -0.14235 -0.045574 0.45824 -0.065645 0.14223 0.18575 -0.22887 -0.0045108 -0.14494 -0.24546 0.086101 0.12584 -0.19967 -0.54767 -0.3597 0.2467 -0.001761 -0.10445 -0.86161 0.032086
seoul -0.42776 0.2498 -0.062192 -0.56927 0.11021 -0.23347 0.35229 -0.068368 -0.10539 -1.3995 -0.0072804 0.31224 0.20685 0.8587 0.56753 -0.15357 0.096675 0.29472 -0.17871 0.0093176 -0.14289 -1.0797 0.2045 -0.036491 0.14931 0.55069 -0.03222 -0.071173 -0.22249 -0.35475 0.49499 -0.40274 0.021053 0.43209 0.095903 -0.53556 -0.52939 0.089931 -0.78243 0.15319 0.26942 0.25094 -0.32995 0.5472 -0.48627 0.34647 0.24711 0.11956 -0.60276 0.59637 -0.34226 0.047719 -0.19416 0.079733 -0.13336 0.48612 0.52971 0.0070141 -0.37176 -0.33355 -0.3374 0.46354 0.35363 0.25911 0.096772 0.22634 0.26919 0.039095 0.43498 -0.24292 -0.51588 -0.56032 -0.252 -0.40861 -0.20417 0.18283 0.21777 0.19407 0.18448 -0.078277 -0.03337 -0.29035 -0.42991 -0.090886 -0.56089 -0.35242 -0.35478 -0.47466 -0.51548 -0.1029 0.025038 0.054131 0.21602 -0.010202 -0.31162 0.44774 0.068061 0.72758 -0.30775 -0.30383 -0.32443 -0.52429 -0.25995 0.45096 -0.050187 -0.085565 -0.28836 -0.55943 -0.62726 -0.046186 -0.37506 -0.07035 -0.22773 -0.095959 0.27335 0.20257 -0.2213 -0.22554 0.081176 -0.29927 0.48356 -0.76835 0.064716 -0.37648 -0.16823 0.30139 0.20922 0.08136 -0.63145 -0.21603 -0.75446 0.28111 1.0431 -0.078898 0.70834 0.54911 -0.14713 -0.061933 0.59081 0.18443 -0.30791 0.0045671 -0.17181 -0.53417 -0.26549 0.14975 -0.25332 0.28783 -0.41768 -0.42864 0.48436 0.23355 0.40314 0.70043 0.77838 0.61332 -1.2446 -0.13531 -0.032542 0.071991 -0.2853 -0.47796 0.22052 -0.24844 0.32836 -0.32219 -0.25037 -0.19318 0.52969 -0.16883 -0.59138 -0.31556 -0.86541 -1.0066 -0.29151 -0.038759 0.041214 0.075531 -0.10478 0.57096 -0.018505 -0.17791 -0.99174 -0.35221 -0.30187 0.65903 -0.55928 0.22206 -0.041189 -0.53024 -0.059187 -0.54399 -0.23501 -0.23051 -0.48101 0.17939 0.31319 -0.54752 0.0050388 0.64197 0.59068 -0.36889 -0.061121 0.29163 -0.86095 0.039413 -0.047013 -0.47867 0.024125 -0.53723 0.36777 0.18264 -0.87531 0.47788 -0.46154 -0.051355 0.090907 -0.48603 -0.76629 0.033775 1.1251 -0.25321 0.016528 0.087987 -0.13404 -0.016019 -0.43786 0.1493 -0.35215 0.011593 -0.15177 -0.49438 0.50756 0.39765 0.56037 0.6784 0.051196 0.075295 0.52772 0.27168 0.23405 -0.57478 -0.25248 0.40649 0.18957 0.19002 0.16279 -0.083104 0.46167 -0.27775 -0.20478 -0.075333 -0.0072856 0.49115 -0.16764 -0.6572 -0.38794 -0.18293 0.23175 -0.49165 -0.26633 -0.019265 -0.26225 -0.1535 0.64081 0.12109 0.050048 -0.017778 -0.41277 -0.37097 -0.41207 0.56377 0.11266 0.12634 -0.11042 0.0059683 -1.0116 0.19919 0.7303 -0.17331 -0.38065 -0.40563 0.25823 -1.0468 -0.63206 -0.37574 0.30241 0.28729 -0.54861 0.17697 0.37963 -0.15016 0.36687 -0.098378 0.27043 0.36943 0.28415 0.063963 -0.28896 -0.22432
barcelona 0.41937 0.49426 -0.10377 0.1699 1.0199 0.2852 -0.4146 0.03138 0.14916 -0.43279 0.23587 0.26857 0.47083 0.2323 0.13847 -0.23605 -0.12632 0.67762 0.3435 0.10485 0.15549 -0.38621 -0.15334 -0.35269 -0.2685 -0.090236 -0.18229 0.69287 -0.065979 0.087979 0.19958 0.15248 -0.30839 0.44926 -1.0603 -0.6802 0.10339 0.21662 -0.2708 0.55938 -0.063226 -0.82711 -0.14623 -0.3294 0.032861 0.021591 0.026444 0.63388 0.22819 0.88138 0.16771 0.028504 0.062237 0.036698 0.112 0.50958 -0.034375 -0.4037 0.081278 -0.16202 -0.46322 -0.0066981 0.0065565 0.091614 -0.16509 -0.20448 0.027831 -0.63368 0.10288 -1.0868 -0.49505 0.373 0.32492 0.028976 -0.51849 0.005589 0.5098 -0.18956 0.13239 0.47364 -0.082531 0.038853 -0.28913 -0.59065 -0.094749 -0.053744 -0.39829 -0.13555 0.25736 0.45997 0.54943 0.087188 0.22153 -0.087917 0.48012 0.005008 0.51063 -0.22253 0.22703 -0.98808 0.29946 -0.075677 0.010885 0.30328 -0.072964 0.55929 0.17415 -0.24478 -0.36083 0.33497 0.085692 -0.24105 0.20684 -1.0597 -0.93309 -0.017573 -0.34033 0.71656 -0.15903 0.49757 -0.41294 -0.70422 0.12216 -0.30795 0.34581 -0.099505 0.015795 0.059653 -0.061525 0.16236 -0.33651 -0.38825 0.070635 0.53122 0.59292 0.12233 0.022744 -0.36968 0.052719 0.35607 0.037996 -0.40036 -0.06202 0.21578 0.51138 0.32191 0.11301 0.40202 -0.58694 -0.47421 0.11423 -0.077197 0.081513 0.42256 0.36004 0.38152 -0.26611 -0.087836 -0.66237 0.50782 0.081406 0.3481 0.24816 -0.047557 0.50932 -0.2166 -0.019445 -0.31945 0.29555 0.57411 -0.31481 0.38312 -0.22644 -0.4872 0.43368 -0.026825 -0.30563 0.57185 -0.86594 0.72706 0.28861 -0.34632 -0.33366 0.1817 0.28103 0.11268 -1.5053 -0.010304 -0.44635 0.33448 0.31266 -0.26918 0.34329 -0.55761 0.064356 -0.57382 -0.42999 -0.22414 -0.1462 0.98453 1.1191 -0.65837 0.027163 0.27875 -0.12003 -0.97 -0.50696 -0.086565 -0.66345 0.029513 -0.38812 -0.39164 -0.33834 0.027787 0.096432 -0.24364 0.82738 -0.48078 -0.76958 -0.68955 0.55942 -0.090652 -0.45474 0.30394 -0.44603 -0.52752 -0.057133 0.012027 -0.39977 0.054573 -0.14103 0.5138 0.57536 -0.58983 0.69947 -0.038451 0.016898 0.74009 0.59223 0.58243 0.29818 -0.42255 -0.43298 0.15006 0.35761 0.65871 -0.44048 0.04553 0.39898 -0.4924 -0.15767 -0.12532 0.072443 0.63655 -0.16235 -0.42397 0.14011 -0.37218 -0.5255 -0.62687 0.22546 0.22938 0.54468 0.65444 -0.21536 0.50997 -0.15684 0.030785 0.43621 -0.69478 0.48361 -0.24895 -0.2369 0.33603 0.23252 -0.30671 -0.71258 -0.33061 0.21057 0.42725 0.04037 -0.11053 0.14926 0.28934 0.12955 -0.015602 -0.22833 0.4848 -0.31862 -0.49883 -0.45843 0.082232 -0.40221 -0.22602 0.19601 -0.35862 -0.031407 -0.65741 -0.11089 -0.18489
jakarta -0.20643 -0.33099 -0.10365 -0.29931 0.82513 -0.78223 0.56868 0.38347 0.27756 -1.0344 0.71246 0.73005 0.011609 0.27074 0.39631 0.19098 0.48162 0.72807 -0.13175 -0.80431 0.018127 -0.80241 0.38541 -0.28844 -0.17564 0.88345 -0.022855 0.020792 -0.29383 -0.7734 0.37572 -0.066484 0.084676 0.40442 0.50494 -1.0007 -0.40793 -0.48404 -0.26734 -0.26195 -0.29772 0.32089 -0.31708 -0.36003 0.15076 0.28076 0.46158 0.062845 -0.32174 0.10011 0.54176 0.22843 -0.29254 0.24416 0.49954 0.31294 -0.00061394 0.27647 -0.34402 -0.71191 -0.24082 0.093936 -0.42277 -0.13384 0.37295 0.016646 0.52361 -0.33832 -0.68578 0.29335 -0.22953 -0.047129 -0.11952 -0.36106 -0.13416 -0.24644 1.0552 -0.078869 0.49742 0.35415 0.3259 -0.18124 -0.30111 0.088516 0.053223 -0.2281 -0.22303 -0.23034 -0.17155 0.55849 -0.55448 -0.26877 0.11061 0.3019 -0.031863 0.20242 0.14326 -0.13936 -0.1986 0.107 -0.15462 -0.72602 -0.10712 0.37143 -0.12554 -0.032458 -0.085036 -0.45086 0.10731 -0.03145 -0.049659 -0.46753 -0.55657 0.1813 0.82126 0.42145 0.16188 0.27681 0.15109 -0.69793 0.19434 -0.24774 0.18535 -0.14699 -0.32189 0.33324 0.56477 -0.34568 -0.22469 -0.38941 0.24771 0.6026 0.17911 0.011044 0.87112 0.089748 -0.19569 0.2876 0.14606 0.72372 -0.14066 0.44981 -0.069942 0.78066 -0.64214 -0.43441 0.069689 0.40286 -0.6926 -0.29595 0.50358 0.22831 0.45524 1.0116 0.43504 0.23819 -0.83544 -0.13422 0.28335 0.0051497 0.083749 -0.31661 0.0017215 0.036126 -0.12402 -0.24905 0.13092 0.18805 0.10714 -0.23582 -0.49748 -0.50787 -0.27311 -0.47344 -0.54198 -0.38033 0.14471 0.45254 0.09274 0.1823 -0.46205 -0.16446 -0.58301 -0.52255 -0.27372 0.23835 -0.20265 0.3134 0.33145 0.5601 0.42078 -0.29456 -0.49346 0.045829 0.23638 0.10977 0.16171 0.43783 -0.32316 0.23789 0.063688 0.21909 -0.44025 0.67648 -0.70792 0.23502 0.53244 -0.79989 0.17709 -0.62326 -0.15725 0.12778 0.1236 -0.12826 0.29799 1.0849 -0.32261 -0.17906 -0.16957 -0.051833 0.59599 -0.44323 0.19419 0.71704 -0.05637 0.004481 -0.39423 0.043284 -0.56441 0.27226 0.14642 -0.46411 0.40498 -0.1516 0.60636 0.71952 0.26917 -0.018181 0.37635 -0.13769 0.10055 -0.21849 -0.22314 -0.25973 0.38389 -0.089959 -0.016354 0.17239 0.096255 0.40152 0.69327 -0.067246 -0.087538 0.31394 -0.21718 -0.011362 0.47902 0.49836 0.1274 -0.054885 -0.039906 0.096302 -0.12008 -0.24283 0.69112 -0.045135 0.24751 -0.33549 -0.32054 -0.45862 -0.57925 -0.22091 0.2525 -0.17729 -0.14312 0.37897 -1.119 -0.16977 0.063641 -0.15869 -0.73306 -0.11435 0.020122 -1.1027 -0.87163 0.037593 0.02203 -0.17737 -0.3534 -0.39023 -0.43585 0.28305 0.042592 0.2574 0.11099 1.0707 -0.92494 0.074728 -0.40428 -0.75926
brussels 0.4693 -0.099303 0.0016176 0.42797 0.10244 0.31621 -0.12553 -0.39747 0.03205 -1.2212 0.022842 -0.01397 -0.2103 0.19465 0.19264 0.0058033 -0.052755 0.42154 0.01932 0.16897 0.17858 -0.16845 0.56538 -0.043621 -0.3665 -0.071195 0.1945 -0.011294 -0.46044 0.053981 0.010831 -0.83935 -0.36624 0.6827 -0.39751 0.015087 -0.27678 0.53363 -0.77245 -0.12439 -0.61109 0.42064 -0.18056 -0.023206 0.11606 0.50272 -0.1132 0.331 -0.38641 -0.24275 -0.048188 -0.056427 0.15743 -0.048823 0.55679 0.448 0.0047045 0.36972 0.5351 -0.28552 -0.34671 -0.45918 -0.15549 0.05913 -0.82219 0.1048 0.35997 -0.21141 -0.47074 -0.82806 0.21051 0.057311 0.54604 -0.46173 -0.31982 0.31753 0.72897 0.049485 -0.13411 0.095216 -0.31955 -0.38062 -0.24864 0.05419 0.1413 -0.27907 0.62658 0.28031 -0.88393 -0.37305 0.37197 -0.14113 -0.54207 0.424 -0.034847 -0.3672 -0.33319 0.26665 -0.91102 -0.20883 -0.25482 -0.71963 0.38794 0.097196 -0.30785 0.19397 0.43087 -0.43254 -0.33323 0.066092 0.19275 0.065854 -0.08709 0.50778 -0.51259 -0.36858 0.22887 0.74672 0.13684 -0.45978 0.26331 -0.27408 0.51084 -0.20973 -0.13964 -0.026671 0.72286 0.27163 0.27532 -0.25583 0.19667 0.16858 0.43081 0.23904 -0.28164 -0.020046 0.33708 -0.20368 0.31933 -0.55759 0.64194 0.34988 -0.099001 -0.42081 -0.046691 -0.24744 0.38768 0.27853 -0.61319 0.1858 0.26771 0.23634 0.59209 0.041538 0.064362 0.45787 -0.27075 0.097751 -0.098325 -0.40119 -0.49604 0.78008 -0.010061 -0.64765 0.54334 0.40568 -0.016737 -0.32939 0.12997 -0.029099 -0.40021 -0.18001 0.053571 -0.44455 -0.042089 -0.21316 0.1927 -0.27873 -0.46099 0.36129 -0.13668 -0.11743 -0.44474 -0.18739 -0.027354 0.38369 -0.73878 0.12922 0.44524 -0.36863 -0.048068 -0.3056 0.23288 -0.3535 0.032221 -0.66785 -0.47144 0.090042 -0.27489 0.32381 0.42139 -0.04166 -0.28101 0.6061 -0.20172 0.22435 -0.52014 -0.47716 -0.32243 -0.20292 0.35445 0.12015 0.37694 0.56443 -0.38355 0.41169 0.46637 -0.19726 -0.35411 -0.5885 0.67323 -0.60776 -0.098673 -0.22521 -0.45782 -0.21229 -0.15051 -0.004871 -0.064421 -0.14024 -0.48023 0.18318 0.33454 -0.63955 0.63652 -0.015651 0.94751 0.47769 0.58201 -0.28989 -0.24354 -0.53915 0.351 0.020743 0.37997 0.26429 -0.30476 -0.087099 0.33323 -0.57811 0.25132 0.30798 0.40941 0.05449 0.038346 -0.25396 -0.60899 -0.16128 -0.13069 -0.15662 0.40265 0.3812 0.16134 0.96267 0.5227 -0.36863 -0.026964 -0.11367 -0.21847 -0.82408 -0.23126 0.64023 -0.49841 -0.41526 0.30176 0.63264 -0.80093 -0.11278 0.6671 -0.35541 -0.037964 -0.096782 -0.20919 -0.82112 -0.33081 0.010248 0.34865 0.75092 -0.39616 0.03057 0.39413 -0.32019 0.15488 -0.42138 -0.26955 0.076081 -0.58198 -0.46865 -0.73627 0.19223
delhi 0.1912 -0.67384 0.26023 -0.20869 0.42725 -0.73207 0.83508 0.42845 -0.42132 -1.4658 0.35169 -0.28519 0.025293 0.058788 0.50162 0.80521 -0.69413 0.032758 0.083093 0.010918 -0.42518 -0.97939 0.33136 0.078002 -0.26724 0.071902 0.48622 0.097232 -0.41394 -0.29091 0.84897 -0.027771 -0.12969 -0.28128 0.36446 -0.33466 -0.41445 0.15677 -1.0466 0.3987 0.34337 -0.31537 -0.40266 0.28687 -0.023106 0.13653 -0.085702 0.59122 -0.56308 -0.35845 0.6412 -0.41351 -0.14529 -0.35802 0.67477 0.029677 -0.21039 0.30572 0.3408 0.1429 -0.59548 0.12946 -0.27081 -0.47904 0.53919 -0.040505 0.45393 -0.29145 -0.77427 -0.18997 0.52766 -0.14982 -0.15906 -0.78519 0.23504 0.29694 -0.28079 -0.37076 -0.17097 0.60153 0.99134 0.14934 -0.016901 -0.22099 -0.37658 0.4381 0.026453 -0.54728 0.36495 0.023477 -0.051927 0.059682 0.4105 0.053508 0.089305 0.57449 0.18427 0.05189 -0.57298 0.197 -0.122 -0.52364 -0.2348 0.14711 -0.14739 -0.40455 0.51866 -0.24797 0.1724 -0.11698 0.30079 -0.44656 -0.45372 0.038737 -0.045902 -0.28316 -0.026276 -0.014367 -0.18897 -0.85263 -0.0055506 -0.19536 0.28176 -0.137 -0.57562 -0.010827 0.17195 -0.64394 -0.73977 -0.32518 0.2643 -0.071397 0.29456 -0.4366 -0.19945 0.48167 0.32142 0.14475 -0.11415 0.06692 -0.44503 0.33739 0.31103 -0.58565 -1.1029 -0.0068307 0.44783 0.41111 -0.067062 0.3016 0.81218 0.34057 0.058519 0.56946 0.14493 0.13764 -0.33805 0.010613 0.38497 -0.53761 0.25924 0.59456 -0.22906 -0.53797 -0.22983 -0.052835 0.43164 -0.023822 -0.19464 0.41595 -0.98842 -0.6777 -0.38213 -0.26462 -0.38845 0.16655 -0.13691 -0.25676 -0.092517 0.031073 -0.58191 -0.16919 -0.57557 0.33436 -0.24661 0.80147 -0.13808 0.15065 0.32372 -0.59101 0.23193 -0.30621 0.32313 -0.32087 -0.6255 -0.27256 0.34891 0.11142 0.43846 -0.001285 0.57012 -0.42316 0.18046 0.61998 -0.027886 -0.45867 0.49946 -0.20914 0.33205 -0.43794 0.1175 0.50034 -0.23574 0.078684 -0.012917 -0.58665 -0.33454 -0.54077 -0.19838 0.098557 0.25458 -0.016834 0.21589 -0.0038327 -0.02718 -0.47747 -0.28742 -0.064479 -0.18144 0.35219 0.14707 -0.14154 -0.026682 -0.056185 0.26927 0.31989 0.77169 0.06198 0.53109 0.0058729 -0.27315 -0.13716 -0.47003 0.65596 -0.34567 0.4929 -0.019982 0.15557 -0.035722 -0.20793 0.028744 -0.052843 -0.36621 0.11696 0.10074 -0.26718 0.32501 0.083479 0.12042 0.22591 -0.098466 -0.097399 0.22069 0.47843 0.26178 -0.21124 0.53008 0.077726 -0.017565 0.33097 -0.044317 0.19068 -0.20722 -0.22556 0.29221 0.052721 -0.93864 -0.17945 -0.036856 0.055313 0.17073 -0.90817 0.71808 -0.14082 -0.82077 -0.011982 -0.40025 0.61591 -0.66123 -0.10404 0.71052 -0.31701 -0.16074 0.21951 -0.28578 0.69005 -0.20731 -0.088023 -0.10396 -0.0011226
vienna 0.081528 -0.024195 -0.27379 -0.099246 0.15353 -0.08891 -0.10514 -0.64534 -0.20608 -0.70075 0.16008 0.37275 -0.29005 0.031775 -0.48061 -0.22757 0.43045 0.27099 -0.13326 0.1584 -0.085488 -0.088324 -0.15699 -0.2049 -0.14593 0.099329 0.36997 0.2752 -0.85339 -0.04851 0.30932 -0.32467 -0.064837 0.73584 0.20709 -0.034156 -0.25773 0.17914 -0.44689 0.30742 -0.47507 -0.5809 -0.001721 -0.14977 -0.065161 0.75869 -0.12382 -0.075189 -0.39819 -0.068441 -0.067267 -0.30234 -0.1929 0.25552 0.9152 -0.1774 -0.47552 0.16063 0.34433 0.063402 -0.48248 0.02145 0.61067 0.10682 0.06305 0.01095 0.64418 0.22046 -0.39196 -1.0228 -0.049282 -0.40164 0.34684 -0.27444 -0.16562 -0.13921 0.36613 0.46926 0.14348 0.32216 0.02148 -0.39225 -0.90687 0.50959 0.063972 0.45312 -0.49851 0.19765 -0.34937 0.28905 0.054385 -0.24138 0.36521 0.48733 -0.15267 0.27971 -0.25632 0.055205 -0.58894 -0.40761 -0.3579 -0.40836 0.11028 -0.6703 -0.52847 0.12863 0.61774 -0.15995 -0.5242 0.40476 0.86614 0.15636 -0.026968 0.40076 -0.62797 -0.51552 0.024147 -0.47013 0.24567 -0.38711 0.15857 0.18497 0.70395 -0.38572 -0.14522 0.1279 0.50098 -0.142 0.017401 -0.30164 0.0065943 0.14898 0.070866 -0.47463 -0.40238 0.072757 0.084106 0.1063 -0.0056263 -0.10453 0.46199 -0.094647 -0.16121 -0.37318 0.8388 0.24402 0.11501 0.13566 -0.58917 0.11537 0.60617 1.0368 -0.12565 0.40494 -0.081935 0.64034 0.53439 0.2263 0.20663 -0.64037 -0.45576 0.50602 -0.048777 -0.76391 0.12767 0.10649 0.14195 -0.39175 0.38015 0.18195 -0.15742 -0.27129 0.0086496 0.12102 0.0035959 -0.19699 0.78776 -0.51677 -0.39943 0.53227 0.2392 -0.111 -0.69987 -0.26825 0.067733 0.16761 -1.0191 0.018736 0.035735 0.01236 -0.032934 -0.0948 0.0049314 -0.44862 -0.74517 -0.77481 -0.14673 -0.056802 0.14715 0.92985 0.94943 0.44714 -0.36961 0.51566 -0.47335 -0.10539 -0.69773 -0.39269 -0.47134 -1.0227 0.12036 0.33722 0.14814 0.2829 0.087538 0.099697 -0.062508 -0.33129 -0.15017 -0.43463 -0.10959 -0.49254 0.13707 0.49641 -0.96118 -0.061017 -0.39203 -0.49911 -0.062775 -0.29543 -0.10021 0.14661 0.99833 -0.50459 0.43194 0.1775 0.00042116 0.0095442 0.50583 -0.014004 -0.51994 -0.51719 -0.185 0.49226 0.32318 0.24058 -0.26663 0.2 -0.28739 0.049376 -0.00092291 -0.042302 0.11586 0.17835 0.23007 -0.1593 -0.10435 -0.19641 0.28496 -0.26912 2.0618e-06 0.31717 0.2474 0.24993 0.47872 -0.28062 -0.34892 -0.29975 0.15249 -0.60776 0.023496 -0.29743 0.2809 -0.10033 0.16912 -0.19582 -1.3383 -0.035399 0.59246 -0.09324 -0.72096 -0.27314 -0.019175 -0.58458 -0.23782 0.23395 -0.034511 0.27543 -0.64678 0.39838 -0.010274 -0.56646 0.26995 0.41574 -0.006038 -0.17942 0.39632 -0.57616 -0.065993 0.18671
cairo 0.34653 -0.24107 -0.53446 -0.051576 -0.11994 0.34354 0.00030918 0.054825 -0.22554 -0.88001 -0.41987 -0.073157 0.29879 0.24591 0.3557 -0.027365 -0.0020189 0.5899 0.034927 -0.60404 -0.16355 -0.67584 -0.54734 0.065311 0.30033 0.082492 0.3786 -0.50548 -0.093626 0.059973 -0.2162 -0.37005 -0.86868 0.16265 0.022657 -0.59796 -0.48675 0.56622 -0.56184 -0.271 0.47856 -0.053621 -0.46727 0.28966 -0.42459 0.36738 0.12417 0.25656 -0.57196 -0.034657 0.066081 0.0060819 -0.46032 -0.032331 0.46074 0.21089 -0.066335 -0.044733 0.38399 0.045584 -0.13616 -0.014936 0.15792 -0.4376 -0.46961 0.35039 0.83182 0.18801 0.3856 -0.65612 0.30456 -0.27655 0.62881 -0.66491 0.025291 -0.090794 0.4119 -0.64107 -0.17313 0.64514 0.21866 -0.6502 -0.68973 0.40679 -0.26409 0.099209 0.057761 0.16143 0.69267 0.29829 -0.36514 0.40101 0.49865 0.5786 -0.11985 -0.012832 -0.0021051 -0.013034 -0.3059 -0.34021 -0.17889 -0.87166 0.80399 -0.21642 -0.07744 0.18716 0.78154 -0.22012 0.18674 -0.62117 -0.31427 -0.23747 -0.37158 -0.039904 0.24685 -0.43821 -0.76787 -0.035126 0.71248 -0.044705 -0.073995 -0.26227 0.031499 -0.65759 -0.32124 0.21386 0.81187 -0.13201 0.51428 -0.19248 0.08164 0.28682 0.6364 -0.29895 -0.22248 -0.17174 -0.25624 0.055422 -0.62755 -0.33429 0.10446 -0.068665 -0.34136 -0.44107 -0.058195 -0.54311 0.14821 -0.012212 -1.0464 -0.24897 0.46928 0.23537 0.25429 0.30792 -0.17604 0.15631 0.47964 -0.21849 0.30222 -0.25262 0.013233 0.17983 -0.20677 0.10644 0.3273 -0.50203 -0.096639 -0.097834 -0.012725 0.018122 -0.77292 -0.28586 0.23292 -0.81681 0.050859 0.17395 -0.33693 -0.39184 -0.50227 0.033242 0.23548 0.093465 -0.30166 0.81217 -0.38815 0.66782 -0.72698 0.17993 -0.068557 -0.20468 -0.010372 -0.20538 0.39334 -0.57552 0.3434 0.0027033 0.12855 -0.14852 -0.35765 0.50842 0.5915 -0.060012 0.080522 0.81656 -0.17156 -0.30205 -0.11589 -0.29016 0.47448 -0.26464 0.27771 -0.20193 0.0041754 0.079735 0.10772 0.072019 0.21724 -0.46008 0.15716 -0.22229 0.59063 -0.35438 0.20957 0.45682 -0.2319 0.048465 0.076323 0.26874 0.43127 -0.43719 -0.091173 -0.22244 0.42748 -0.004661 0.8723 0.48759 -0.11571 -0.087609 0.54115 -0.21709 -0.13386 -0.1108 -0.49569 0.32947 0.55791 -0.11743 -0.23652 -0.20464 0.1367 -0.012009 0.42739 0.37521 -0.20903 0.37032 0.29976 -0.17416 -0.21811 0.035279 -0.27627 -0.54946 -0.045488 -0.022733 0.056145 -0.010609 0.31568 0.0030924 -0.022487 -0.26443 -0.033684 0.0099655 -0.33765 0.41988 0.44616 0.30253 -0.11992 -0.30632 -1.2673 0.63862 0.60474 -0.053207 -0.12974 -0.43268 0.26973 -0.97559 -0.034285 0.57448 0.45137 0.79582 -0.095177 -0.024614 -0.29651 -0.56854 0.069034 0.59161 -0.026356 0.32433 -0.32724 -0.37038 -0.65104 -0.11044
melbourne 0.018234 -0.19938 -0.042457 -0.26922 -0.038279 0.11953 0.12442 0.073748 0.10965 0.0044521 0.20237 0.27387 0.41418 0.53093 0.43271 -0.2672 0.0069569 0.51574 0.036436 -0.22926 -0.50793 -0.44881 -0.0060504 0.092474 0.029371 0.7791 -0.13104 0.72316 -0.3591 -0.19331 0.16243 -0.27086 -0.11489 1.0795 -0.72125 -0.32363 -0.20706 0.54144 -0.5249 -0.09462 0.065016 -0.25109 -0.52698 -0.0066443 0.3604 0.14078 -0.24278 0.60154 -0.088264 0.0869 -0.27247 0.19239 -0.12481 0.18711 0.45591 0.22125 0.38288 0.30458 -0.064052 -0.59141 -0.39847 -0.14618 -0.20649 0.13128 0.19246 -0.27351 -0.17532 -0.027722 -0.50031 0.062591 -0.31445 0.077791 0.02367 -0.28107 -0.89678 -0.22782 0.16873 -0.34723 -0.18422 0.26065 -0.31555 0.0022776 -0.061458 -0.11658 -0.61239 -0.22183 0.45041 -0.61349 0.40668 0.21598 0.69548 0.10131 0.65563 -0.41151 -0.0021961 0.22239 0.45492 -0.13851 0.34137 -0.9003 -0.096424 0.023364 -0.30117 0.25413 0.19052 0.49347 -0.18513 -0.47417 -0.024834 0.21235 0.15857 -0.72845 0.16848 -0.28114 0.031027 -0.31732 -0.32372 0.073187 -0.22392 -0.73449 0.024791 -0.14347 -0.31951 -0.35244 0.10481 -0.47586 -0.13468 -0.079294 -0.14581 0.031231 0.21847 -0.060064 0.20105 0.095263 0.028288 0.37794 0.33005 -0.41072 -0.12595 0.46426 0.21281 0.56034 -0.21133 0.59054 -0.35232 -0.31396 0.41002 -0.19611 -0.034843 -0.24101 0.89712 -0.026438 -0.19444 0.071257 0.11643 -0.67748 -0.47833 -0.27918 0.20827 0.10741 -0.30702 0.17231 0.063234 -0.39197 -0.14058 -0.43916 -0.074072 0.23975 0.92563 0.5415 -0.3851 -0.14012 0.16035 -0.19712 -0.25489 0.26273 0.38437 -0.38967 0.17798 0.32881 -0.045012 0.31824 0.099621 0.37522 0.68372 0.72794 0.072105 0.1043 0.080773 -0.55135 -0.29641 0.39333 0.06064 -0.034606 -0.24438 -0.094747 0.47437 0.33227 -0.52325 -0.042431 1.231 0.21766 -0.64204 -0.35131 -0.37828 0.23593 -0.25978 -0.32615 0.57172 -0.79881 0.12803 0.44901 -0.034468 0.30256 0.046341 0.13351 -0.13669 0.026065 -0.063448 -0.54034 0.6842 -0.48351 -0.046265 -0.66879 -0.3242 0.17036 -0.27194 -0.6158 0.3911 0.75587 0.15718 0.2272 0.34 -0.49663 0.10115 0.55432 -0.072806 0.58654 -0.17911 0.67547 -0.21213 -0.17811 -0.37867 -0.10183 0.078901 0.37716 -0.39863 -0.16138 -0.11775 0.21622 -0.0091095 -0.074671 -0.19533 -0.37864 0.10845 0.12729 0.42814 0.18684 0.69917 0.053658 -0.35599 -0.017959 -0.097789 0.59636 0.0080247 -0.05786 -0.11118 -0.53935 0.46629 -0.15096 -0.22457 -0.16374 0.59784 -0.21312 0.06048 -0.2216 -0.88985 0.37588 0.56915 0.080651 -0.32217 -0.56357 -0.56512 0.26856 -0.64458 -0.30195 -0.22199 -0.04887 -0.36133 -0.13282 0.087635 0.36218 -0.17409 0.2137 0.54083 0.072033 -0.46175 0.0042124 0.20062 -0.029533
bangkok 0.051877 -0.17597 0.17354 -0.30258 0.15638 -0.54839 0.62051 0.37884 -0.28274 -0.67153 -0.27427 -0.26862 -0.15417 0.41684 0.3983 -0.32671 0.10402 0.86099 -0.16151 -0.43137 -0.42998 -0.44672 0.035498 -0.41527 -0.27328 0.3994 -0.41653 -0.023129 0.39017 -0.58781 0.37374 -0.56405 -0.12421 0.58295 0.057661 -0.21575 -0.54376 -0.42831 -0.31334 0.10335 -0.19799 -0.45236 -0.45414 0.53369 0.23855 -0.10294 0.030819 -0.15938 -0.70414 0.068024 0.3953 -0.38914 0.7321 -0.19985 0.22945 -0.051251 0.10594 -0.14902 -0.73005 -0.83543 -0.052565 -0.13324 -0.43527 0.023347 0.064104 0.50503 0.25949 0.22924 -0.36709 -0.5406 -0.17191 0.35381 -0.18681 -0.48651 -0.042175 0.47881 0.64787 0.049583 0.53081 -0.084781 0.48755 -0.38275 -0.93018 0.48786 -0.53187 -0.25788 -0.24857 -0.24009 -0.10619 -0.058162 -0.22187 -0.26926 0.16638 -0.093286 0.46753 0.2903 0.1692 0.40634 0.10939 -0.084212 0.048297 -0.30178 -0.53912 0.074295 -0.38321 0.19323 -0.26445 0.0071463 -0.067032 0.62286 -0.39636 -0.87405 -0.17226 -0.18089 0.79823 -0.43729 0.32734 -0.49016 -0.010084 -1.1039 0.29979 -0.12847 0.0037908 -0.24597 -0.87689 0.063214 -0.11022 -0.66443 -0.11283 -0.37395 0.24745 0.51641 0.37784 -0.03354 -0.16237 -0.29801 -0.28464 -0.32527 0.70386 0.11841 -0.38038 0.57395 -0.12512 -0.052843 -0.37815 -0.17017 0.24593 0.55832 -0.38673 0.2108 0.72737 0.15042 0.42256 0.43433 0.38533 0.57422 -0.64869 -0.14488 0.18386 -0.25953 -0.45401 0.18337 0.32925 -0.27572 0.16041 -0.20847 0.40796 0.12116 0.21118 -0.1018 -0.94026 -0.4703 -0.31982 -0.65206 -0.91019 -0.43003 0.024497 0.15997 -0.014248 0.19573 -0.58323 -0.073959 -0.56991 0.025831 -0.45532 -0.044036 0.137 0.77971 -0.12651 -0.16706 -0.25979 0.0090729 -0.84587 0.063224 0.25901 0.13208 -0.085334 -0.099411 -0.29736 0.35899 0.46933 0.11999 -0.50851 0.41503 -0.81274 0.2883 0.6996 -0.60135 -0.23249 -0.10282 -0.152 -0.29587 0.11863 0.017213 0.014838 0.15211 -0.21849 -0.58197 -0.42292 0.090514 0.51983 -0.8576 -0.078333 0.32855 -0.85798 0.23835 -0.017312 -0.034472 -0.34657 -0.18477 -0.097854 0.032228 0.28882 -0.47895 1.0691 0.27096 0.28129 0.15781 0.37456 0.18553 -0.058941 0.21945 -0.32518 0.72453 0.35407 -0.36159 0.22638 -0.040719 -0.36146 0.14225 0.18046 -0.12124 -0.25602 0.30761 -0.035361 -0.27395 0.21878 0.41748 0.30166 -0.713 0.001722 0.23246 0.034675 0.023557 0.48022 -0.19085 0.58186 -0.19963 -0.31934 0.23455 0.026767 0.51431 0.23922 0.16261 -0.038654 -0.25778 -1.2389 -0.47476 0.33327 0.38859 -0.029608 -0.74994 0.042316 -0.49923 -0.77337 -0.23487 0.055478 0.54337 -0.70987 -0.035907 0.11398 0.066266 -0.4673 0.26819 0.52717 0.66616 -0.11537 -0.36777 -0.62716 0.09789
manila -0.11528 -0.25058 -0.23829 -0.82687 0.32449 -0.14142 -0.11975 0.44491 0.053382 -0.86521 0.3284 0.52147 0.61273 0.34647 0.13159 -0.25101 0.17967 -0.34883 0.11973 -0.61615 -0.49389 -1.1012 0.063921 -0.38019 -0.68903 0.31687 -0.67917 0.26171 0.12389 -0.35852 0.13866 -0.1778 -0.095895 0.31159 0.37763 -0.26369 -0.39481 -0.67444 -0.24632 0.40923 -0.22272 -0.25045 -0.36864 0.91534 0.51594 0.048404 0.20087 -0.028995 -0.54042 0.33463 0.021502 0.51936 -0.32734 0.055253 0.29666 -0.0040559 -0.12132 0.42362 -0.10869 -0.25097 -0.23283 -0.11285 0.42285 0.22968 0.23225 -0.19299 0.61364 -0.193 -0.43532 0.27642 -0.10702 0.14092 -0.42388 -0.28309 -0.28456 -0.14851 0.29851 0.15097 0.45448 -0.11724 0.32226 -0.13898 -0.22166 0.68824 -0.20607 -0.30026 -0.16588 -0.70315 -0.18198 0.063734 0.036877 -0.37978 -0.037321 -0.091252 -0.025658 0.23949 0.060643 0.015633 -0.30642 -0.10311 0.055986 -0.45639 -0.45737 0.66926 0.19154 -0.094283 0.16354 -0.66717 -0.23871 0.18444 -0.57407 -1.1708 -0.043175 0.21721 0.85222 0.061086 0.10025 -0.23091 -0.40031 -0.32289 0.37399 -0.53214 0.043624 -0.39665 -0.44941 0.2813 0.12415 -0.25813 -0.36654 -0.20578 -0.16575 -0.26107 0.5876 0.0064762 0.38461 -0.31902 0.065292 -0.16388 0.41529 0.44845 0.11185 0.61206 -0.24187 -0.27693 -0.23188 -0.42762 -0.077274 0.07046 -1.0854 -0.39223 1.0557 0.26779 0.59208 0.94462 0.64576 0.10641 -0.38609 -0.28699 0.41949 -0.023188 0.2862 0.077088 0.37725 -0.078422 -0.16715 -0.68056 0.49977 0.052492 -0.24008 0.3345 -0.48611 -0.17973 -0.083222 -0.23891 -0.54263 -0.22679 -0.39433 0.79822 0.10515 0.091234 -0.13071 -0.11023 -0.60213 0.25762 -0.072131 0.42677 -0.12906 0.85158 -0.13773 0.26274 -0.14608 -0.099287 -0.11645 -0.21811 0.064513 0.046761 -0.1912 0.24043 -0.24116 0.49432 -0.091843 0.29322 0.24561 0.51393 -0.51074 0.31877 0.16899 -0.40782 0.23131 -0.3372 -0.51097 0.089148 0.064831 -0.09065 0.10895 0.73337 -0.048596 -0.92081 -0.019616 0.2234 0.85101 -0.66202 0.041282 0.33277 0.062035 -0.052537 0.31794 -0.17543 -0.14506 -0.49507 -0.078593 0.0066726 -0.21497 0.32446 0.56288 0.13532 0.27554 0.13135 -0.18471 0.20163 0.13896 -0.34639 -0.56638 0.058496 -0.070164 0.12605 0.47663 -0.2402 -0.079855 -0.19611 -0.86339 -0.095456 -0.054716 0.71286 -0.18293 -0.43635 0.86944 8.8416e-05 0.26436 -0.65954 -0.20622 0.29888 -0.07354 0.27795 0.90617 0.14091 0.2315 -0.28925 -0.15633 -0.56279 0.20184 -0.032594 0.17377 0.79568 0.14143 -0.024211 -0.9102 -0.015218 0.22621 -0.18722 -0.21823 -0.056103 0.29973 -0.69864 -1.0652 0.43809 -0.21157 -0.094185 -0.1132 -0.2944 -0.13846 0.46079 -0.38314 -0.095611 0.33882 0.78975 -0.42153 -0.48689 -0.59961 -0.57341
munich -0.065299 0.68223 -0.28597 0.17749 0.66852 -0.24637 -0.50639 -0.3163 -0.038302 -0.44255 -0.014461 0.51385 -0.050802 -0.22376 0.097587 -0.1028 0.5158 0.48285 0.40404 0.12763 0.37631 -0.059312 -0.19517 -0.063982 -0.8313 -0.18205 -0.16286 0.3691 -0.51314 0.23926 -0.098064 -0.60267 -0.14865 0.46677 -0.4589 -0.59853 0.014132 0.045986 0.17796 -0.15449 -0.11718 -0.44671 -0.40159 -0.59002 -0.13788 0.31313 0.3272 0.38751 -0.10259 0.19708 -0.11072 -0.31796 -0.84283 0.071238 0.64731 0.032631 0.19519 -0.43826 -0.068727 0.069697 -0.79834 -0.16921 -0.15321 -0.32438 0.11324 0.049375 -0.31337 -0.31162 -0.19687 -1.2158 -0.10681 0.39359 -0.097151 0.016207 0.058733 -0.37386 0.086395 0.42284 -0.39112 0.71832 -0.1679 -0.28952 -0.5829 -0.066023 0.12078 0.25357 -0.31855 0.10136 -0.50751 0.4383 0.31115 0.17117 0.44557 -0.14461 0.58617 0.0165 0.48674 0.61482 -0.43865 -1.0862 -0.040328 -0.50715 -0.032889 0.19018 -0.24342 -0.27474 0.73376 -0.29533 -0.26498 0.35764 0.12073 -0.24324 0.33903 -0.9001 -0.10578 0.035709 -0.36279 0.091465 -0.24938 -0.38955 0.1965 0.26409 0.76264 -0.11694 -0.32891 0.14368 0.41767 -0.053036 -0.44534 -0.25611 0.025606 0.5076 -0.044605 0.26141 -0.10118 0.011779 -0.34025 0.060322 -0.11052 0.38309 0.011606 0.31945 -0.2261 0.089194 0.97188 0.17143 0.28638 0.17571 -0.38168 0.14237 0.59816 0.61204 0.16883 0.09504 -0.01093 -0.015071 0.43919 -0.20765 0.0034104 -0.42376 -0.26162 -0.12247 0.19526 -0.41094 0.4693 0.91323 0.31381 -0.24943 0.68518 0.14014 -0.087229 -0.27019 0.006223 -0.49264 -0.29223 0.019554 0.71457 0.39111 0.38788 0.66183 0.45057 -0.2761 -1.1617 -0.24234 0.5299 0.36837 -1.4064 -0.30719 0.33062 0.253 0.51326 -0.42851 -0.13697 -0.21524 -0.11985 -1.2376 0.32597 -0.27535 -0.041297 0.53778 0.86291 0.14916 -0.51472 -0.14451 -0.50094 -0.71205 -0.64218 -0.49094 -0.91789 -0.62942 -0.16149 0.078731 -0.32403 -0.15769 0.83576 0.14016 -0.12192 -0.31837 -0.28076 -0.602 0.15191 0.033876 0.21745 0.56511 -0.66656 0.014914 -0.6208 -0.11984 -0.24667 -0.015454 -0.0282 0.54854 0.56988 -0.34426 0.2966 -0.20526 -0.25516 0.21485 0.21857 0.71785 -0.6569 -0.0015201 -0.33212 -0.56481 0.19981 0.60862 0.040506 0.067907 0.11799 0.0084207 -0.011739 0.24424 0.32384 0.81657 -0.098415 0.11743 -0.080388 -0.97693 0.74904 -0.31804 0.29751 0.34434 0.94165 0.74872 0.10442 0.27749 -0.32239 -0.086195 0.50798 -0.11438 0.51313 0.24688 -0.072435 0.39615 0.078811 -0.21109 -0.84001 -0.41039 0.20977 -0.10005 -0.73011 0.081425 -0.099342 0.081909 0.77696 0.29633 0.085528 0.45899 -0.2851 0.12157 0.080115 0.42291 0.16407 -0.091805 0.21641 0.26702 0.33165 -0.28352 0.21529 0.59096
vancouver 0.3077 -0.29207 -0.2285 -0.47684 -0.097195 0.14756 -0.29399 0.23894 -0.35465 0.50166 0.33197 0.078351 -0.1859 0.9338 0.20722 0.3911 0.092926 0.16295 -0.19424 0.051055 -0.8884 -0.26228 0.30894 -0.28366 0.20372 0.07679 0.17039 -0.48936 -0.52786 -0.073923 0.15692 0.027776 0.092706 0.3857 -0.47807 -0.20614 -0.3983 0.51778 0.44938 -0.12436 -0.53621 -0.091815 -0.20199 0.40567 0.27569 0.62131 0.046162 0.22351 -0.33741 0.044709 0.13544 0.32602 -0.1582 -0.30781 0.01544 0.573 0.32186 0.36056 -0.18945 -0.3141 -0.58298 0.62427 -0.34659 -0.62945 0.72802 -0.60282 -0.71908 0.017976 -0.094663 -0.20339 -0.12279 -0.13758 0.13081 0.44139 -0.77506 -0.13239 0.18054 0.32195 0.56912 0.5068 -0.8731 0.10737 -0.33377 -0.6561 -0.58703 0.050948 -0.41884 -0.15615 -0.46938 -0.28215 0.024168 0.13805 0.27342 -0.19778 0.50511 0.0369 0.11015 0.098352 0.067949 -0.85843 0.19422 -0.071233 -0.6695 0.28272 -0.37794 -0.023679 0.076266 -0.13839 -0.66373 0.56746 -0.19936 -1.0285 0.12399 -0.18681 -0.19602 -0.12964 0.074043 0.05386 0.27767 0.19827 0.16198 0.36274 -0.34441 -0.44431 -0.3078 -0.32093 -0.090004 -0.32993 0.78409 -0.63018 0.11839 -0.092851 0.37183 -0.53286 0.10333 0.4285 -0.51101 -0.50786 0.16661 0.2239 0.29536 0.5843 -0.73746 0.33409 0.20044 -0.42327 0.99254 -0.050194 0.0034989 -0.37502 0.76194 0.021457 0.27035 -0.1053 0.021647 0.1549 0.05151 0.096284 -0.19882 -0.052778 -0.16719 0.061196 -0.16175 -0.52252 0.35069 -0.079711 0.36534 0.16754 0.15075 0.40949 -0.087717 0.092805 -0.82931 0.15674 -0.12288 -0.011838 0.17605 0.11377 -0.054342 0.54887 -0.39867 0.35413 0.25015 -0.21267 0.092565 0.35246 0.064401 -0.36687 -0.53161 -0.024253 0.16161 -0.029568 0.098017 -0.40102 0.045256 -0.082673 0.22839 0.078968 0.17722 0.57342 1.0985 -0.07404 -0.28445 -0.25413 -0.40672 0.33819 0.074934 0.27601 0.62362 -0.028978 0.24076 -0.072443 0.0319 0.78094 -0.18085 -0.022009 0.34405 0.075184 -0.35482 -0.75182 0.79504 0.12901 0.12228 -0.38461 0.12444 -0.04463 0.060879 -0.47138 0.16962 0.34199 -0.028048 0.87631 0.15987 -0.3316 0.030647 0.095956 -0.21597 -0.058707 0.071497 0.68205 -0.33354 0.19454 -0.063209 0.088271 -0.23427 -0.34411 -0.35652 0.6451 0.043503 0.50449 0.045178 0.56836 0.26653 0.2862 0.037367 0.10961 0.25893 -0.19203 -0.0025183 0.10964 -0.54539 -0.060271 0.23767 0.65983 -0.085641 -0.061441 0.81413 0.4278 -0.23302 -0.50873 -0.14875 0.16903 0.31598 0.096647 0.47778 -0.092197 -0.91078 0.094736 0.42124 -0.043734 -0.22654 0.05131 -0.32558 0.25233 -0.72741 0.48624 0.35335 0.0010821 -0.1131 0.12284 0.32975 0.41974 -1.0313 0.098955 -0.46642 0.38914 -0.071714 0.16472 -0.066886 0.30743
dublin 0.46107 0.22399 0.28797 0.22865 -0.15996 0.26446 0.41133 0.032755 -0.30974 -0.292 -0.47242 -0.4306 0.35172 0.011766 0.52557 -0.089629 -0.28488 -0.075765 0.18916 -0.026386 -0.9241 0.12345 -0.50177 -0.13859 -0.11597 -0.093678 0.24523 0.26974 -0.92604 0.54048 0.15957 -0.40522 -0.082684 0.7861 -0.61345 0.46161 -0.48742 0.69096 -0.70866 -0.47058 -0.54947 -0.32714 0.07073 0.77658 -0.26335 0.36615 0.13505 0.18373 0.048337 -0.53672 -0.41407 0.17944 -0.031585 0.53432 0.58701 0.053771 0.30038 0.57198 -0.34219 -0.49666 -0.35416 -0.37622 -0.635 0.63348 0.17056 -0.076181 0.26613 0.54033 -0.097012 -0.64054 -0.1394 -0.41289 0.42014 0.30867 -0.43999 0.012654 -0.35395 -0.1084 -0.51414 0.22202 -0.13587 -0.31507 0.23402 -0.075641 -0.22412 -0.49846 0.080207 0.19878 -0.22732 0.43362 0.46155 -0.053413 -0.42947 -0.22202 0.064008 0.47591 0.43184 -0.1012 -0.49759 -0.26001 -0.40453 -0.1768 -0.053852 0.42289 -0.078632 0.20278 0.55114 0.17787 0.20008 0.50194 -0.022618 -0.40588 0.83017 -0.081264 -0.15849 -0.79296 -0.29156 -0.28246 -0.51144 -0.90129 -0.23467 -0.075181 -0.11812 -0.40805 -0.0674 -0.26984 0.48683 0.10799 -0.19694 -0.084808 0.28334 -0.058046 0.13058 -0.20605 -0.19899 0.33905 0.21021 -0.14833 -0.17178 -0.39785 0.20923 -0.32445 -0.35422 0.24875 -0.13558 0.18803 0.25052 0.031844 -0.65859 -0.20927 0.67313 0.11133 0.11004 0.30447 0.070114 0.35424 -0.36054 0.42923 0.64795 -0.082468 -0.28994 0.54519 0.080616 -0.66184 -0.70604 0.49812 0.17739 -0.41007 0.61007 0.0060949 -0.12677 -0.17266 -0.21288 0.25146 -0.24346 -0.45106 -0.19424 -0.27656 0.060898 0.16586 -0.44296 -0.21993 -0.18967 0.17468 0.62249 0.31809 -0.53344 0.017254 0.34999 -0.78098 -0.3618 0.047564 0.54728 -0.66847 -0.41765 -0.31706 -0.065959 0.2141 -0.37689 0.27212 0.46723 -0.20967 -0.4531 0.22592 0.060744 -0.29751 -0.089899 0.30979 -0.33904 -0.5617 0.54291 0.12266 -0.59297 -0.14614 -0.076703 0.16772 -0.40115 0.029594 -0.047291 -0.33189 0.078108 -0.018172 -0.25157 0.086941 -0.60504 0.046212 -0.10983 -0.63643 0.13173 0.19625 -0.19028 0.37988 -0.031577 -0.15017 0.23656 0.1016 0.10464 0.40561 0.30051 0.47355 -0.5396 -0.76907 0.37383 -0.38138 0.0049102 0.15665 -0.079784 -0.036144 -0.21346 -0.060169 -0.19346 0.27848 0.13129 -0.7916 0.30594 -0.044587 0.1117 -0.061059 0.31265 -0.15273 -0.37072 -0.029862 0.92662 0.82325 -0.1478 -0.25642 0.35083 -0.39944 0.05463 0.075929 -0.22449 0.47488 0.52466 0.10364 0.17999 -0.18497 -0.66684 -0.02591 0.56465 0.20875 -0.22973 -0.1234 -0.12896 -0.27181 -0.27724 0.11643 -0.21166 -0.21586 0.49257 -0.076927 0.68582 0.46405 0.012249 0.009765 0.4282 0.16993 -0.083913 -0.24526 -0.63301 0.18656
