china -0.11286 0.033802 -0.2941 -0.75285 0.054276 -0.54167 0.068019 0.59827 0.40707 -2.4216 0.67319 -0.44478 0.19267 -0.132 -0.27979 -0.17061 -0.087901 -0.032694 -0.3663 0.25004 -0.18012 0.18174 0.17109 0.20651 -0.52343 0.2936 -0.14797 -0.33627 0.39343 0.28431 0.29872 0.62853 -0.20346 0.27751 -1.0096 0.20671 -0.12999 -0.85432 -0.42196 -0.13 0.54003 0.11573 -0.12678 0.32775 -0.10726 0.2095 -0.1187 0.24351 -1.0391 0.25945 0.36425 0.25624 -0.23305 0.17933 0.21582 0.82448 0.20714 0.11903 -0.25287 -0.29569 -0.27008 0.65743 -0.022714 -0.77507 0.06398 -0.032921 0.17008 0.80824 -0.58816 0.21539 -0.20832 0.30273 -0.0052951 -0.16262 -0.082132 0.32964 -0.54239 -0.011848 0.060443 0.55534 -0.28234 -0.19165 -0.25292 -0.40374 1.0096 -0.23732 -0.05222 -0.21439 0.51683 -0.43026 0.056678 -0.015126 -0.30487 0.61036 -0.0057971 0.13954 -0.17101 0.52008 -0.31587 -0.28945 0.22626 0.093885 -0.35134 0.19609 -0.063854 0.25502 -0.18738 -0.12288 -0.19039 0.42833 0.016198 -0.72557 -0.32121 -0.17481 0.67367 0.1483 0.12435 0.76097 0.093439 -0.066564 -0.59027 -0.13048 -0.04428 -0.36893 -0.1524 0.56732 -0.55685 0.81918 -0.10825 -0.76628 -0.82532 0.44591 0.44255 -0.04152 -0.07863 0.064299 -0.27792 -0.020597 0.097693 0.67124 0.13637 0.062541 0.31893 -1.0303 -0.3656 0.50771 0.092327 0.13383 0.085109 -0.22769 0.37967 -0.25551 0.21872 -0.23463 0.69672 0.224 -0.57862 0.91144 -0.6088 -0.28881 0.014998 0.55252 0.20409 -0.0048005 0.52435 -0.64297 0.40855 -0.8322 -0.44022 0.098128 -0.04037 0.33705 -0.78163 -0.29235 -0.35622 -0.30874 -0.010305 -0.097657 -0.19145 0.64846 -0.5687 -0.22893 -0.096972 -0.19725 0.51993 0.11601 -0.56334 0.4216 -0.6105 -0.48234 0.42825 -0.41685 -0.39815 0.16719 0.52909 -0.32967 0.60521 -0.42216 0.12745 0.060571 0.86801 0.093184 0.1168 -0.095533 -0.12922 0.81823 -0.19247 -0.067666 -0.42855 0.31852 -0.38401 -0.31259 -0.24751 0.20452 0.099494 -0.37441 -0.69178 0.20528 -0.051128 0.722 0.67511 0.61175 -0.22162 0.11487 0.083432 0.18446 -0.1178 0.47266 -0.37187 0.069497 -0.19681 -0.61121 0.23983 0.35411 -0.41869 0.218 -0.23668 -0.17653 0.40288 0.027388 -0.16273 0.44215 -0.19204 0.93419 0.056879 0.56512 0.040255 0.10924 0.33404 0.17854 0.65186 0.19401 0.51986 -0.18339 0.18928 -0.54576 -0.87496 -0.30271 -0.050409 -0.24406 0.0049453 -0.61252 0.26521 -0.054427 0.34969 0.21037 -0.2659 -0.24277 0.15039 0.15868 0.10193 -0.2519 -0.03081 0.37559 0.07343 -0.029411 -2.0853 -0.81006 0.40917 -0.18106 -0.036109 -0.47769 0.26093 -0.35338 0.32716 0.21245 0.18651 0.46949 -0.3254 0.388 -0.22521 0.41757 0.22724 -0.19168 0.080302 1.0795 0.24896 -0.40801 0.47543 -0.13274
israel 0.21257 -0.51255 0.097078 0.18691 -0.17763 -0.1943 -0.73409 -0.19592 -0.13304 -2.2895 0.057814 -0.13517 0.74786 -0.44454 0.72798 0.69817 -0.097887 -0.05256 -0.069074 0.23537 0.34175 -0.022015 0.45843 -0.19149 -0.24309 -0.39025 0.11254 -0.19326 -0.46797 0.014889 -0.71134 -0.27388 -0.46941 0.3912 -0.062798 -0.70475 0.12712 0.19215 -0.11879 -0.53168 0.47117 0.57091 0.073762 -0.34265 -0.65454 -0.045616 -0.45965 -0.4821 0.28658 0.46498 -0.065173 -0.22205 -0.26196 -0.45544 -0.57603 -0.14543 -0.094729 -0.20349 0.043406 -0.04046 0.075947 0.55614 -0.6607 -0.45075 -0.45578 -0.036643 0.5316 0.63156 0.27813 0.47556 0.16528 -0.3009 0.96995 0.3762 0.49507 -0.42628 -0.10111 0.2872 -0.412 0.47426 0.14849 -0.51359 -0.71147 0.45717 0.17034 0.18401 -0.64266 0.073581 0.37791 -0.23547 -0.47817 -0.21056 -0.20781 0.15682 -0.35639 -0.16435 -0.56395 0.14214 -0.12237 -0.50393 -0.30797 0.016691 0.51928 -0.65488 0.17021 -0.1501 0.71261 0.26023 0.39815 -0.6602 -0.17493 0.30773 0.29856 -0.94055 -0.36129 -0.12576 -0.24252 -0.56576 -0.11844 -0.29008 0.088704 0.12041 -0.55366 -0.17519 -0.11423 0.58247 0.022394 0.019949 0.15714 -0.30878 0.023078 0.23707 0.2689 0.26507 -0.44074 0.54162 -0.10374 0.28118 -0.045304 0.09845 0.3945 0.062833 0.042104 0.04585 -0.84302 -0.34698 0.29268 -0.48043 -0.27949 0.032267 -0.21062 -0.31903 -0.36489 0.35771 -0.28858 -0.23493 -0.069331 0.25048 0.40928 0.13806 0.42484 0.953 0.3664 0.077265 0.097557 -0.03338 -0.43988 0.44069 -0.61405 -0.23017 0.33059 0.15997 0.74529 0.16238 0.034023 0.58018 -0.49588 -0.022403 0.099431 0.37255 -0.46535 -0.5851 -0.1484 0.59847 0.13478 0.74911 -0.52015 0.057057 -0.20691 0.93903 0.66607 -0.30339 0.12102 -0.54126 -0.18115 -0.13628 0.38198 -0.41934 0.53021 0.72958 1.0003 0.25175 -0.28177 -0.021883 0.19102 -0.23075 -0.049351 -0.0019673 0.49015 -0.0061619 -0.17673 0.54225 -0.33324 -0.018657 0.19714 -0.64284 0.2122 -0.018333 0.21978 0.1161 1.4697 -0.35043 0.012988 0.52372 -0.021346 0.31561 0.24238 -0.36259 0.44858 -0.22374 -0.33461 -0.64926 0.51036 -0.17325 -0.065251 0.54556 -0.58846 -0.76852 0.51297 -0.28243 -0.72192 0.66963 0.38492 -0.45534 0.043068 0.37886 -0.16394 -0.12866 -0.27055 -0.88311 -0.077397 0.48919 -0.65993 0.707 0.12737 -0.10555 -0.60334 -0.59388 -0.066947 -0.13632 0.17074 0.17387 0.16121 0.21418 0.061824 0.3627 -0.13578 -0.080082 -0.09288 0.453 0.053789 0.56301 0.53294 0.19198 0.070262 -0.3969 -2.4624 -0.37078 1.0974 0.5125 0.72802 0.034638 -0.39474 0.15921 0.89535 0.089658 0.58015 0.90491 0.24226 0.44366 -0.77462 -0.63557 0.17475 0.74952 0.23808 0.88119 0.19868 -0.34643 -0.011385 -0.44189
japan -0.033127 0.20492 -0.13129 -0.62211 0.26258 -0.0025751 -0.21852 0.61948 -0.11947 -1.8783 0.60723 0.10709 0.66805 -0.023459 0.10588 -0.23143 -0.068403 -0.1309 -0.13279 -0.24566 0.15559 -0.12329 -0.12592 0.20937 -0.57484 -0.076266 0.36195 -0.79145 0.22313 0.16523 -0.32312 -0.20121 0.39629 -0.011809 -0.5304 0.0013861 0.61518 -0.69859 -0.36547 0.25944 0.64648 0.3083 0.074213 -0.27852 -0.69315 -0.41553 -0.1684 -0.33082 -0.6919 0.4956 -0.070838 0.30352 0.1662 0.062993 -0.38663 0.11836 0.1691 0.34677 -0.77199 -0.19438 -0.027827 0.69725 -0.14263 -0.50192 0.35473 0.064952 -0.22335 0.79229 0.11489 -0.10667 -0.30218 0.44591 -0.32825 -0.040979 0.0065728 -0.45569 -0.21401 0.59876 -0.23765 -0.75967 -0.23615 0.2563 -0.27428 0.69092 0.30636 0.47544 -0.25792 -0.63144 0.10761 -0.90481 0.28574 -0.21024 -0.52963 -0.33547 0.23338 -0.17815 -0.45719 0.023259 -0.094509 0.032541 -0.1623 -0.39265 -0.082224 0.05534 0.10146 -0.047362 0.14823 -0.13355 -0.22209 0.64586 -0.10704 -0.78888 -0.23114 -0.58817 0.65249 0.2225 0.0060516 0.53285 0.61395 -0.39246 0.16354 -0.49945 -0.3245 -0.17592 -0.13317 0.78331 -1.0917 -0.26392 0.015085 -0.040794 -0.22913 1.0869 1.167 0.12701 0.23727 0.42015 -0.19735 -0.055963 0.4692 0.053494 -0.019274 -0.14175 0.21582 -0.56255 0.54783 -0.03771 -0.045918 0.054546 0.53372 -0.53364 0.65914 -0.38379 0.053058 0.61563 0.36695 0.62874 -0.7771 -0.0049204 -0.73127 -0.23169 0.16186 0.20992 -0.044263 -0.43233 0.68864 -0.17799 0.10504 0.19504 0.12649 -0.40001 0.25905 -0.72641 -0.49775 0.060819 -0.35724 0.22763 0.28296 0.20107 0.19066 1.1347 0.052517 0.20116 -0.37014 -0.12939 0.98572 0.089581 -0.30034 0.010297 -0.59155 -0.17496 0.39345 0.031465 0.12227 -0.22032 -0.24806 -0.062542 0.76065 -0.037008 -0.43745 -0.022912 1.4629 -0.031934 -0.20028 0.20967 -0.61798 1.0021 0.042236 0.15688 -0.10204 -0.35966 -0.36106 -0.26679 0.058258 0.20126 -0.32269 -0.30851 -0.48149 -0.23708 -0.26066 0.45576 0.58251 -0.033679 -0.034661 -0.36932 -0.15827 0.54005 -0.19843 -0.073582 -0.14305 0.037311 -0.16729 -0.88295 0.0055232 0.77712 0.085398 -0.082164 0.07643 0.51574 0.51371 0.52358 -0.30499 0.044397 -0.047292 0.48268 -0.17287 0.28204 0.17981 0.25802 0.11798 -0.059491 0.18809 -0.49409 -0.086748 0.7938 -0.64027 -0.64091 -0.8867 0.51074 0.33521 -0.13955 0.21913 -0.82561 -0.33576 -0.017197 0.083391 0.21063 -0.86943 0.13737 0.31658 -0.42352 -0.071384 0.15683 0.3921 -0.071511 0.012417 0.2132 -1.8834 -0.10971 1.0906 -0.51809 -0.10145 0.23294 -0.16339 0.082608 -0.12902 -0.26383 -0.25612 0.47529 0.081458 0.027126 0.28304 0.7266 -0.10887 -0.31917 0.10829 1.2636 0.45329 0.19691 0.28128 -0.82022
france -0.055966 0.33098 -0.48706 -0.63245 0.072906 0.54625 -0.040818 -0.068302 0.017669 -1.7192 0.63679 -0.14927 0.21591 -0.45068 0.30043 0.21499 -0.07414 0.55876 0.10662 0.28551 -0.3689 0.72203 0.15396 0.11345 -0.60126 -0.57111 0.41505 -0.20347 0.16531 0.63124 -0.77005 -0.3026 -0.50839 0.55926 -1.038 -0.68186 0.57905 -0.42094 -0.3888 -0.19517 -0.43155 -0.31099 0.36055 -0.39106 -0.58718 -0.15774 0.13408 0.75595 0.16151 -0.37458 0.10214 0.12893 0.9727 -0.58133 0.44972 0.02003 -0.35883 -0.063266 0.47629 -0.40336 -0.37269 0.56424 -0.52578 -0.24461 -0.7874 -0.81476 0.31068 0.055933 -0.37837 -0.26595 -0.07701 -0.20037 -0.15868 -0.09022 -0.21265 -0.018562 -0.018781 0.144 -0.72747 -0.039233 -0.10749 0.037988 0.15168 0.71152 -0.23795 0.064947 0.31126 0.069939 -0.46109 -0.4581 0.33955 -0.47408 0.44543 -0.2303 0.26445 -0.14113 -0.2452 0.65596 -0.35718 0.078136 -0.43686 0.072648 0.33366 -0.2097 0.52535 0.063034 -0.26364 0.33701 -0.15457 0.47752 0.3591 -0.25345 0.37681 -0.64692 -0.055199 -0.35584 0.055432 0.71769 0.19166 0.10678 -0.30252 -0.021128 -0.051167 -0.55438 -0.1986 0.62892 -0.63701 0.28693 0.27626 0.34279 0.47562 -0.065373 -0.064048 -0.41519 -0.35064 -0.40783 0.45085 -0.50531 0.27776 -0.43899 -0.16439 -0.25692 -0.0053715 -0.039016 -0.091245 -0.44833 -0.28659 -0.81737 -0.057906 0.41293 0.62307 -0.35825 0.062524 0.027088 0.3294 0.083387 -0.4397 -0.0043705 -0.65431 -0.18451 0.12614 -0.011859 -0.3374 0.027249 0.42567 0.54902 0.029459 -0.67886 -0.25666 0.37696 0.22621 0.35936 0.064466 -0.83238 -0.26073 0.39573 -0.18747 -0.37337 -0.28883 1.1036 -0.13651 0.1114 0.044952 -0.33704 0.75452 -0.16587 -1.3352 0.67671 -0.5944 -0.30932 -0.37772 0.00046474 0.15142 -0.38775 -0.099708 -0.94751 -0.11036 0.11209 0.29644 0.18328 1.2896 -0.20671 -0.65376 -0.16972 0.57084 -0.0060047 -1.0059 0.16858 -0.53043 -0.12424 -0.08961 0.4576 -0.1454 0.35346 0.30197 0.23056 0.28004 -0.69333 0.54768 -0.29636 0.55402 0.18283 -0.038603 -0.64959 -0.32164 -0.050521 0.66065 0.21459 -0.11346 0.13104 -0.16482 -0.27077 -0.37089 0.26073 0.32221 0.33063 0.029957 0.70487 0.37762 -0.15694 -0.43349 -0.060576 0.62632 -0.40047 0.67239 0.040707 0.079469 -0.52537 -0.0022598 -0.32231 0.1241 0.20315 0.72522 0.43114 -0.1091 -0.1631 -0.35959 -0.35122 -0.43144 -0.1875 0.83869 0.085325 -0.23705 1.1001 0.38692 0.37339 -0.72893 -0.10522 0.13405 0.047224 0.31673 0.34673 -0.35407 -0.17806 -0.10423 0.20275 -1.6813 -0.48924 0.64335 0.19622 0.66399 0.18485 -0.15111 -0.29832 0.31045 0.48917 0.33887 0.76722 -0.134 0.55847 0.4451 -0.096998 0.09862 -0.19646 0.40751 0.43885 0.20325 -0.11074 0.23883 -0.65954
russia -0.10292 -0.0040756 -0.087242 -0.61466 -0.11474 -0.15587 -0.23862 0.081568 0.4404 -2.0176 1.0439 -0.13257 0.030028 0.22109 -0.10819 -0.22095 0.1833 0.52876 -0.39403 0.34204 0.090726 -0.16728 0.69789 0.1921 -0.24661 0.073545 0.78566 -0.02024 -0.76367 0.56101 0.25633 0.15165 0.22343 -0.13104 -0.4015 -0.2218 -0.093733 -0.078235 -0.64114 -0.059485 -0.48178 -0.28186 -0.54765 0.10471 -0.44037 -0.51494 -0.32419 0.07163 -0.47263 0.24073 0.93246 0.053859 0.12303 -0.93335 0.066982 0.26591 -0.38319 0.2019 0.19369 -0.11001 0.17094 1.0207 -0.22494 -0.99652 -0.66415 -0.35443 -0.078038 0.3654 -0.12845 -0.22254 0.048164 0.077928 -0.85841 -0.36161 0.29052 -0.68159 -0.43135 0.44639 0.10028 0.4142 0.39026 -0.29222 -0.30916 -0.01969 0.7332 -0.25975 -0.10191 -0.40127 0.066143 -0.56987 0.28379 0.028086 -0.43181 0.033128 -0.0050766 -0.28958 -1.1992 0.42926 -0.17986 -0.14762 -0.11636 0.2528 0.093923 0.077202 0.33822 0.40047 0.019182 0.48203 -1.033 -0.053492 0.56188 0.14013 0.0017511 0.034321 -0.34859 -0.467 0.2998 0.45235 0.25956 0.30158 -0.14031 -0.49109 0.24806 -0.14846 0.32816 0.75956 -0.6046 0.11591 0.2572 -0.4918 -0.3107 -0.29613 0.0054734 -0.188 -0.27775 0.37386 -0.036124 0.29432 0.23929 -0.27949 0.31347 -0.25147 0.096237 0.22254 -0.3459 -0.0069459 0.20817 -0.30305 -0.075985 -0.38456 0.13325 -0.35333 -0.33112 -0.16446 0.093274 0.7803 -0.021584 0.39123 -0.17166 -0.19139 -0.4624 0.56832 0.69154 0.10478 0.41232 -0.21741 0.0045154 -0.022145 0.25656 -0.47055 -0.18153 -0.080922 -0.095515 -0.36424 -0.13501 0.45469 0.20478 0.15668 -0.071219 0.35689 -0.41718 -0.049862 -0.058408 -0.82236 0.71355 0.82858 -0.3284 -0.12206 -0.79504 -0.22901 -0.13783 -0.20884 -0.086696 -0.022835 0.12033 -0.26205 0.6252 -0.24064 0.91656 0.25179 1.4263 -0.001929 -0.1827 -0.32426 -0.33477 -0.27682 -0.34088 -0.38852 -0.28405 0.079453 -0.23675 0.25605 0.010475 0.65969 0.025941 -0.35405 0.4084 -0.10887 -0.70061 0.40085 0.58215 0.17214 0.24305 -0.29423 0.35889 -0.013535 0.096645 -0.29134 -0.21375 0.31845 -0.77764 -0.53045 0.51553 0.14507 0.03247 0.33642 0.16995 -0.17761 0.091668 0.16857 -0.612 0.35464 0.97645 0.28864 0.31966 0.16693 0.21912 0.3953 0.15275 -0.40815 0.23215 0.077569 0.30919 0.48649 0.56115 -0.21694 -0.90224 0.032622 0.64172 0.58716 0.067716 0.42319 -0.22103 0.15277 0.25023 -0.29353 -0.36719 0.0033414 0.17698 0.12368 1.0046 -0.49872 -0.24781 -0.23524 0.083491 0.11597 -1.845 -0.7813 1.4021 -0.16453 0.55668 0.37805 -0.2194 -0.2209 -0.013188 0.061162 -0.13037 0.40685 -0.031988 0.70238 -0.58482 0.29068 0.55447 -0.317 0.5862 0.72166 0.44314 0.06255 0.21399 0.035232
india -0.11337 -0.57114 0.070453 -0.36241 -0.050125 -0.73224 0.0053144 0.73643 -0.47838 -2.0426 0.89094 -0.16986 -0.3274 -0.2248 0.58587 0.38909 -0.78668 -0.029682 -0.50677 -0.13206 -0.23225 -0.27431 0.47933 0.44104 -0.54903 -0.0084795 0.39307 -0.10722 -0.38326 0.14742 0.36448 0.39203 -0.26223 -0.21355 -0.18301 -0.37038 0.15173 -0.063059 -0.90597 0.25776 0.32715 -0.57639 0.0021658 0.19618 -0.033329 -0.81134 -0.061402 0.27819 -0.067204 -0.53376 0.88306 -0.56227 0.19905 -0.32555 0.75748 0.30028 -0.13704 0.2423 0.13628 0.23217 -0.28347 -0.08735 -0.26226 -0.68542 0.85062 -0.12459 0.17726 -0.14221 -0.53211 0.031076 -0.15925 0.15676 -0.32764 -0.34191 0.66373 -0.083746 -0.27801 -0.3259 -0.58553 0.59509 0.98003 0.45763 -0.40739 -0.141 0.0478 0.54944 -0.0199 -0.97376 0.46856 -0.19449 -0.027223 -0.15349 0.40461 -0.13635 0.6513 0.38179 0.19373 -0.10557 -0.51371 0.052077 0.17496 -0.068007 -0.26771 -0.23099 0.32478 -0.48599 0.19567 0.24993 0.16697 0.1104 0.97969 -0.91254 -0.45009 -0.56602 0.34635 -0.11553 0.30245 0.37647 -0.25365 -0.54709 -0.42545 -0.058639 -0.24224 -0.13232 -0.25327 0.63682 -0.42098 -0.29362 -0.29381 -0.091507 0.14876 0.16478 0.31079 -0.3967 -0.28513 0.42441 0.35618 -0.18441 -0.01558 0.11808 -0.44691 0.30948 0.41045 -0.44941 -1.3516 0.41777 0.67717 -0.016589 0.36741 -0.14718 0.56295 0.0065646 -0.065084 0.2614 0.15238 -0.091335 -0.11221 0.15704 0.42238 -0.42626 0.019778 0.83995 0.11109 0.014967 -0.21591 0.025083 0.14462 0.19372 -0.41747 0.20112 -0.55372 -0.27143 -0.10956 -0.08875 -0.1061 0.62587 -0.2236 0.04874 0.29276 0.54444 -0.064714 -0.43141 -0.30769 0.20172 0.57471 0.31874 -0.52126 0.47731 -0.39601 -0.26483 0.37267 0.12427 0.06011 -0.010151 -0.71039 -0.3355 1.0127 -0.18736 0.67953 -0.29087 1.1837 -0.023823 -0.14715 0.31654 0.20609 -0.10151 0.15421 0.28108 -0.26101 -0.44042 -0.14698 0.45729 -0.26665 0.34678 0.10094 -0.52444 -0.62796 -0.22247 0.10115 0.66376 -0.011209 0.37814 -0.027388 -0.44076 -0.0085332 -0.24745 -0.033645 -0.14656 -0.19185 0.50072 -0.55358 -0.4854 -0.15595 0.40578 0.091794 0.15335 0.23226 0.17876 0.28957 -0.50595 -0.51281 0.3619 -0.50596 0.71619 -0.50136 0.64374 0.090692 0.28896 -0.28917 0.091625 0.1088 -0.36076 -0.22884 0.078121 0.039988 -0.45835 -0.03301 0.13922 -0.040556 0.64257 0.56194 -0.46597 0.11575 0.088526 0.089601 0.026024 0.19089 0.013142 0.27771 0.54879 -0.11396 -0.37262 -0.33716 0.041301 0.36248 0.29868 -1.6126 -0.94427 0.40015 -0.0825 -0.045447 -0.64683 0.49098 0.26529 0.11082 -0.10805 -0.23343 0.35197 -0.42082 0.61923 0.18138 -0.00078167 -0.13359 0.28594 -0.34807 1.5725 0.041247 -0.39104 0.35309 -0.17767
germany 0.046596 0.18904 -0.46218 -0.36952 0.49638 -0.084072 -0.21817 0.10112 0.22574 -1.8982 0.4634 0.34359 0.080282 -0.17099 0.12771 -0.57395 0.3355 0.048452 0.10111 0.11154 0.74975 0.21449 0.093244 0.39629 -0.82285 -0.4786 0.15886 0.32569 -0.4413 0.47514 -0.82776 -0.0091277 -0.11681 0.31074 -0.73891 -0.93395 0.47229 0.061625 -0.23209 0.091641 -0.6454 -0.41851 -0.1191 -0.8377 -0.22462 -0.13239 0.46743 0.42136 0.085805 -0.4119 -0.12885 -0.3719 -0.074528 0.25856 0.42807 -0.10703 0.15059 -0.093651 0.00020426 0.27187 -0.77064 0.12115 -0.51601 -0.90579 0.055391 -0.41215 -0.10934 0.55614 -0.11423 -0.22789 -0.3136 0.39942 -0.17418 -0.32829 -0.018092 -0.30644 -0.60059 0.55119 -0.079793 0.40236 -0.090854 -0.32376 -0.16997 0.23463 0.75075 0.5867 -0.16544 0.089686 -0.39967 -0.048933 0.20688 0.01057 0.29394 -0.22833 0.33369 -0.41849 -0.028932 0.79906 -0.69466 -0.41362 -0.40735 -0.54909 0.04779 -0.20116 0.32808 -0.49723 0.48904 0.39019 -0.57577 0.25102 0.48658 0.079282 0.089703 -0.37535 -0.084325 0.28171 -0.50114 0.0056733 -0.079146 -0.44476 0.29921 0.088691 0.44266 -0.16471 0.081618 0.94206 -0.0056012 0.14982 0.024455 -0.42174 -0.040294 0.43824 0.046113 0.1855 -0.75827 0.058845 0.28938 -0.0095693 0.038061 -0.049673 0.10547 -0.1924 -0.025505 0.071931 0.50595 0.34814 0.15281 -0.45152 -0.43343 0.45366 0.36144 0.18477 0.008504 0.1415 0.16374 0.46635 -0.093285 0.1958 -0.3629 0.1901 -0.25292 -0.16623 0.40528 -0.32054 0.74378 1.1915 0.32155 0.047077 0.31221 -0.1781 0.73097 0.37333 -0.25939 -0.36473 -0.25395 0.29954 0.53114 -0.40312 0.24995 0.94325 0.2663 0.23605 -0.86847 -1.0634 1.0301 -0.21658 -1.1831 -0.50515 -0.096721 -0.13074 0.0060968 0.020941 0.011997 -0.084362 -0.41398 -0.37339 0.5611 -0.54758 0.087178 0.074864 1.1872 0.053332 -0.77 -0.098641 -0.43487 -0.33498 -0.67023 0.047192 -0.43604 -0.26619 -0.29983 0.19651 -0.25937 0.12411 0.076934 0.13771 -0.1147 0.37667 -0.12897 -0.21604 0.48092 -0.061375 0.095193 -0.24116 -0.40125 0.20202 0.022887 -0.34533 0.11999 -0.20539 -0.045075 -0.29034 0.42979 0.54485 0.014853 0.029321 -0.28414 0.65476 0.64791 -0.26195 -0.80182 0.50255 0.6253 -0.32873 0.52968 0.24924 0.30055 0.1714 0.16186 -0.0094696 -0.12293 -0.40749 0.51695 0.68097 -0.13849 0.099114 -0.39958 -0.56245 -0.071594 0.041159 0.51042 -0.39967 0.70918 0.092197 -0.42696 -0.11023 -0.97495 -0.31463 0.019504 -0.60017 -0.17973 -0.17978 -0.45234 0.046427 -0.26432 -0.19633 -1.5363 -0.38197 0.79408 -0.0037235 -0.1093 0.4954 -0.91031 -0.11928 0.53723 0.42657 0.29081 0.56418 -0.48337 0.55939 0.24139 0.027593 0.20519 0.3665 0.2922 0.72185 0.43242 -0.54401 0.72344 0.0443
iran 0.28581 0.19797 0.35313 -0.81041 0.11978 -0.69864 -0.17337 0.3721 0.0057339 -2.3414 0.52107 0.012968 0.30816 -0.31533 0.017589 0.50995 -0.13274 -0.22667 -0.68466 -0.39116 0.36294 -0.026907 0.023243 0.67086 -0.46168 -0.5855 0.47954 -0.21011 -0.36287 0.25382 -0.074385 -0.10332 -0.46388 -0.31503 0.27781 -0.51219 -0.25694 -0.77197 -0.31253 0.074892 -0.12136 0.51409 -0.46017 0.043315 -0.55113 0.45248 -0.35424 -0.08113 0.0045131 -0.14125 -0.32644 0.2388 0.0082498 -0.67431 0.098561 -0.22301 -0.39629 0.36438 0.39991 -0.44159 -0.061284 0.76029 -0.47324 -1.1964 -0.37113 0.17041 0.76591 0.71864 -0.031571 0.28199 -0.099125 -0.22583 0.099067 0.099154 0.41679 0.011414 -0.055887 0.62649 -0.56494 0.61663 -0.020843 -0.64197 -0.42973 0.66804 0.53948 -0.70264 -0.16269 0.045473 0.11197 -0.1496 -0.41731 -0.069777 0.017266 0.36192 0.2483 0.37132 -0.55126 0.22058 0.32607 -0.047662 -0.33233 0.0080333 -0.58068 -0.028606 0.29523 -0.10517 -0.033458 -0.024489 0.12147 0.021477 0.72289 -0.38212 -0.048059 -0.17167 0.23498 0.58801 0.043795 0.20256 1.0776 0.075327 -0.26855 -0.070712 0.25793 0.28169 -0.11495 0.66222 -0.01087 -0.25402 0.49495 -0.15845 -0.28454 -0.27955 -0.45024 0.40692 -0.18137 -0.15683 -0.31847 0.10808 -0.46831 -0.26834 0.04545 -0.19644 0.4054 0.0019922 -0.28851 0.35434 0.4612 -1.1497 -0.14256 0.026883 0.16937 0.63604 -0.21373 0.67282 -0.24268 -0.098759 -0.020774 -0.044542 0.095369 -0.32336 -0.38223 0.18958 -0.029323 0.27836 -0.40568 -0.17546 0.22781 -0.98714 0.021126 -0.065502 0.36171 -0.22056 -0.1966 -1.0275 0.14211 0.4513 -0.12183 -0.096705 -0.15964 0.45239 -0.22267 -0.62082 0.012149 -0.76603 0.084005 0.51632 -0.15031 -0.33503 -0.096336 -0.46714 -0.30119 0.18372 0.56787 0.31528 -0.62843 -0.20005 0.4182 -0.20791 1.0209 -0.16948 1.3073 -0.11455 -0.028116 0.050332 0.74477 -0.17946 -0.0011038 0.0081067 -0.60981 -0.29443 0.15699 0.40048 0.19866 0.45272 -0.034166 -0.52049 0.021094 -0.0070602 -0.64603 0.81968 0.35625 0.3334 0.082239 0.051687 0.25141 0.43956 0.03821 0.42861 -0.30588 -0.30316 -0.10102 -0.53553 0.75994 0.089157 0.53756 0.41653 -0.68957 -0.30577 1.2543 -0.40679 -0.081132 0.033379 -0.0087174 0.49724 0.29107 0.063256 -0.16596 0.36987 -0.48644 0.2757 0.45722 0.59049 -0.90285 0.31102 -0.11456 -0.5177 -0.27197 -0.17017 -0.238 0.067344 0.25261 0.39186 0.19952 -0.01929 0.013758 -0.17122 0.051022 -0.8022 -0.03506 -0.17583 -0.028492 -0.4619 -0.53662 0.36539 -0.4419 -0.5107 -2.0501 -0.1948 1.4185 0.015126 0.47383 0.13075 0.57729 -0.4924 1.1645 -0.29301 0.16969 0.49173 0.33002 0.79067 -0.58628 -0.27116 1.0239 0.54304 -0.043908 0.99948 0.34456 -0.38976 -0.18106 0.030199
australia -0.040609 -0.044575 -0.37878 -0.33111 0.38301 -0.0094588 -0.62921 0.58603 0.059291 -1.5274 1.106 0.1151 0.21773 -0.12895 0.48024 -0.11324 -0.14202 0.077322 -0.58116 -0.21622 -0.3584 -0.14832 0.55047 0.046506 0.15794 0.46585 -0.28051 0.29304 -0.64133 -0.2841 -0.25261 0.13949 -0.2537 0.81044 -1.0052 -0.48074 0.6753 -0.0057606 -0.69854 -0.072867 -0.093054 -0.22472 -0.16867 -0.15572 0.0078449 -0.27117 -0.44842 -0.0048568 0.16884 -0.18882 -0.57101 -0.089394 -0.075667 0.32873 -0.02895 0.62984 -0.10374 -0.13075 -0.45341 -0.37107 -0.056367 0.23378 -0.48715 -0.206 0.57351 -0.064893 -0.033066 0.18429 -0.5679 0.43767 -0.74608 0.13766 0.081033 -0.28362 -0.70201 -0.45755 -0.077788 -0.17605 -0.14349 0.31286 -0.01561 0.16981 -0.35963 -0.30066 -0.19879 -0.040724 0.46102 -0.98598 0.34768 -0.81847 0.18637 0.18923 0.25201 -0.14452 0.045713 0.26363 0.045749 0.24074 -0.279 -0.29348 0.17142 -0.028066 -0.65326 -0.059965 0.34302 0.28839 0.00515 0.56548 -0.14805 0.30059 0.54571 -0.57123 -0.12161 -0.29262 0.4974 -0.15369 -0.29485 0.39723 0.022234 -0.64713 -0.0017628 0.18461 -0.94053 0.053444 0.0067836 0.39613 -0.69114 -0.22437 0.10033 0.054177 0.23869 -0.055233 0.16337 -0.65348 0.076816 0.61448 0.48015 -0.015846 0.11831 0.12539 -0.0071775 0.41632 0.22402 0.048251 -1.0837 -0.50091 0.27312 -0.58032 0.11917 -0.49084 0.66907 -0.16587 -0.40552 -0.28802 -0.0055384 -0.39176 -0.9197 -0.16547 -0.044007 0.18909 -0.24686 -0.3755 0.26447 0.057988 0.24365 0.10822 -0.029545 0.48476 0.55622 -0.012915 0.049902 0.12177 0.19519 0.15127 -0.35983 0.58178 0.1196 0.00061876 0.50258 0.73939 -0.19138 0.068416 0.61397 -0.58947 0.72424 0.21119 -0.27696 0.41109 -0.16349 -0.31148 -0.38568 0.64229 -0.096675 0.016045 -0.26244 -0.4095 1.0922 0.037055 -0.12861 -0.16264 1.4779 0.49723 -1.0977 -0.44278 -0.047721 0.80124 0.070565 -0.15927 0.082418 -0.86 -0.10593 0.24086 -0.083181 0.85056 0.00091199 0.16573 -0.96097 0.13694 0.062955 -0.37585 0.65527 -0.24362 -0.22348 -0.78015 -0.0076375 0.16613 0.23966 -0.37471 -0.23166 0.81701 -0.19157 -0.10415 0.11867 0.040501 -0.005528 0.45925 -0.26773 0.66238 0.28184 -0.26701 -0.47953 0.52804 -0.21731 0.15997 -0.04511 0.46086 0.25654 0.021904 0.097052 0.071125 -0.013277 -0.41477 0.002436 -0.17925 0.26641 0.04395 -0.06476 0.21348 0.14785 0.24125 0.12727 -0.55865 -0.044931 0.59662 -0.18115 0.0095425 -0.078387 -1.0384 -0.23074 0.33993 -0.46009 -0.04436 0.41765 -0.47554 0.046137 -0.045756 -1.1248 0.0087079 1.0887 0.22806 -0.26155 -0.34025 -0.51473 0.3913 -0.37417 -0.28723 -0.23385 0.075081 -0.0584 0.16903 0.19852 0.047398 0.0036427 0.13285 0.22501 0.71826 -0.28711 0.16039 0.40574 -0.58292
taiwan -0.28426 -0.30413 -0.2258 -0.31229 0.59827 -0.40324 -0.27072 0.15795 0.57429 -1.9452 0.77303 -0.023234 -0.11097 -0.53477 0.19968 0.36303 -0.08252 -0.39941 -0.66953 -0.1776 -0.39266 0.5632 0.041415 -0.43314 -0.66969 0.52986 -0.56158 0.023738 0.24574 -0.10104 0.14361 0.52334 0.20307 0.72961 -0.69999 0.15641 0.094761 -0.66036 -0.40996 -0.24185 0.24801 -0.19187 -0.24441 0.42178 -0.32548 0.29126 -0.13989 -0.016492 -0.8025 0.60465 0.082088 -0.030067 0.17073 -0.34843 -0.41396 0.81638 -0.32131 0.59141 -0.26871 0.076299 -0.23708 0.37404 0.15579 0.4704 0.14998 -0.28953 0.08558 0.40297 -0.4189 0.63741 0.21765 0.36847 0.68632 -0.2993 0.30639 0.23875 -0.073252 0.39612 0.26197 0.13869 -0.48891 -0.034641 -0.57852 -0.0086901 0.48462 -0.18133 -0.36722 -0.67561 -0.24213 -0.23577 -0.53043 -0.81225 -0.40513 -0.21741 0.094403 0.304 -0.057169 0.18764 -0.40934 0.48578 -0.56468 0.31351 -0.31761 0.28653 -0.1607 0.14425 -0.26137 -0.36311 0.22886 0.75739 -0.037607 -0.54785 0.044246 0.22555 1.1266 -0.077288 0.095406 0.50159 -0.18042 0.24882 -0.31046 0.18203 -0.12117 0.015709 -0.23861 0.49945 0.35022 0.43957 -0.068466 -0.43767 -1.0708 0.19019 0.49332 0.36539 0.24625 -0.14252 -0.37964 0.13278 0.5823 0.58445 0.42671 -0.26412 0.025109 -0.95698 -0.22354 0.37855 -0.36667 0.15263 0.20828 -0.50639 0.65088 -0.25751 -0.070448 0.52721 0.82183 0.52792 -1.2472 0.75978 -0.75055 -0.12809 -0.22009 -0.030221 -0.59044 -0.28216 0.34636 -0.7152 0.20626 -0.52699 -0.60948 0.25752 0.54439 0.11906 -0.92888 -0.043064 -0.42675 -0.4571 -0.22332 -0.29996 -0.19192 0.21433 -0.34699 -0.2051 -0.16714 -0.17693 0.097552 0.3371 -0.61539 0.6292 -0.68838 -0.15807 -0.21377 -0.41323 0.059059 0.28034 0.13253 0.098655 0.331 -0.09152 -0.10506 0.17469 0.84703 0.29741 -0.47982 -0.39088 -0.44128 0.85592 0.42733 -0.0018543 0.15655 0.017292 -0.47724 0.39839 -0.31187 0.74019 0.26287 -0.73957 -0.24931 0.47678 0.54305 1.2413 0.6992 0.80585 -0.32831 0.27562 0.068696 0.083147 0.19539 0.064576 -0.39395 -0.052752 0.1649 -0.84946 -0.25658 0.66662 -0.18066 -0.15339 -0.47901 -0.42006 0.20078 0.75962 -0.092147 -0.25211 -0.33333 0.065423 -0.29102 0.41786 0.39923 -0.054699 0.22445 -0.12432 -0.20187 -0.0027215 0.38054 -0.21414 -0.49393 -0.4086 -0.4049 -0.45122 0.19139 -0.14595 0.17059 -0.45815 -0.18192 0.042395 1.1282 0.24678 -0.17597 -0.27526 0.022217 -0.28824 0.094816 0.35501 0.75276 -0.37915 -0.36865 -0.13392 -1.6671 -0.43715 0.1766 -0.25534 -0.28264 -0.46102 0.24308 -0.28672 0.030314 0.18548 0.11799 0.56705 0.62546 0.26042 0.19995 0.19033 0.11908 -0.46937 -0.090495 1.0458 -0.1718 -0.44362 0.79623 -0.37695
canada 0.25836 0.14153 -0.47499 -0.060427 -0.1558 0.33012 -0.5541 0.47438 -0.68565 -1.185 0.84861 -0.26529 -0.21535 0.10592 -0.2281 0.79917 -0.46448 0.10458 -0.21554 0.12379 -0.64091 0.53306 0.53376 0.3067 -0.038342 0.2616 0.2917 -0.45894 -0.33007 0.057012 -0.37354 0.27174 0.32555 0.32485 -0.68717 0.087202 0.39793 0.504 -0.12578 0.01131 -0.91692 0.35132 0.084608 0.80779 -0.060778 0.017115 -0.35097 0.21772 -0.063157 0.022138 -0.28859 0.0060472 0.23216 0.0054394 -0.098861 0.074383 -0.015562 -0.12656 -0.065324 -0.072667 -0.18582 1.0677 -0.39888 -0.60716 0.12365 -0.51758 -0.47956 0.56492 -0.08174 0.16852 -0.32067 0.16312 -0.091756 0.44795 -0.61856 -0.3252 -0.3702 -0.020141 -0.016318 -0.25446 -0.38037 -0.21527 -0.14443 -0.51253 -0.39658 -0.52603 0.13496 -0.51341 -0.81248 -0.55087 0.062145 0.070197 0.42075 0.062072 0.55674 -0.31108 -0.20962 0.12162 -0.54749 0.21063 0.30231 0.052119 -0.44879 0.024813 0.2229 0.02964 -0.26962 0.62038 -0.29753 0.81416 -0.090812 -0.7074 -0.2662 -0.30723 -0.31215 -0.4061 0.44718 0.79727 0.00024194 0.11506 -0.42043 0.30036 -0.41258 -0.29143 -0.23937 0.35314 -0.16229 0.025641 0.68199 -0.095315 -0.080022 -0.27438 0.037514 -1.0763 0.53431 -0.06887 -0.26664 0.13743 -0.25579 -0.13273 0.22323 0.20982 0.035183 0.41378 -0.018074 -0.18955 0.38634 -0.49428 -0.0051449 -0.27259 0.8633 -0.20619 -0.11506 -0.15792 0.16895 0.16182 -0.62639 -0.11784 -0.10988 -0.52266 -0.11561 0.3021 0.13644 -0.05734 0.026619 0.75033 0.04925 -0.13155 -0.23018 0.26431 -0.14202 0.32476 -0.36412 0.22968 0.49682 0.40225 0.19679 -0.060924 -0.16263 0.8291 -0.60777 0.10593 0.37443 -0.70247 0.88484 -0.155 -0.49236 -0.052164 -0.59663 0.053845 0.28479 0.046324 -0.054857 0.23837 -0.36866 0.093946 0.73635 -0.17674 0.014459 0.013866 0.92473 -0.46051 -0.35598 -0.40978 -0.38284 0.68499 0.13171 0.36958 -0.10612 -0.068489 -0.10579 -0.28147 0.45173 0.5909 -0.5419 -0.14321 -0.48149 -0.054712 0.18966 -0.023889 0.34796 0.25727 -0.0025308 -0.47508 0.17621 0.53388 0.66136 -0.41011 0.21562 -0.16009 -0.10382 0.33918 -0.14234 -0.071664 0.13564 -0.31416 0.38672 0.35415 0.14684 -0.020721 -0.68944 0.63072 0.39112 0.14848 -0.068142 -0.36735 0.017277 -0.010821 0.34817 0.050991 0.44593 -0.047059 0.24895 0.32507 0.14964 -0.28359 -0.18852 0.53411 -0.28163 0.22377 0.25583 -0.40576 0.13707 1.0879 -0.29323 0.1775 0.235 -0.29068 -0.68159 -0.14112 -0.20865 -0.27427 0.21667 -0.40889 0.23333 0.10681 -1.6245 -0.34885 0.92905 0.2607 0.28958 0.12134 -0.59511 -0.13193 -0.29381 0.33762 0.46175 0.49419 -0.31987 0.47781 0.34812 0.40394 -0.34528 0.30197 0.25444 0.4604 0.17417 0.17466 0.53683 -0.45132
mexico 0.3 0.80191 -0.72953 -0.42422 -0.27676 0.29602 -0.75357 0.48055 0.25331 -1.0576 0.50552 0.40464 -0.31943 0.22438 -0.37195 -0.55594 -0.088215 -0.069873 0.26719 0.36606 -0.43964 0.15139 0.59775 -0.13251 -0.33206 -0.68432 0.27626 0.38775 -0.45529 -0.27649 0.22889 1.0434 -0.54249 -0.04746 -0.35963 -0.069166 0.44331 -0.1042 -0.35748 -0.41307 -0.18764 -0.25599 0.16438 0.47996 0.044449 -0.28678 0.12063 0.51858 -0.037285 0.32908 -0.32805 -0.36179 -0.042683 0.16944 -0.44437 -0.30547 -0.30861 -0.10594 0.18978 -0.30977 -0.058663 0.17041 0.64294 0.079289 -0.18994 -0.22415 0.36896 0.47998 0.68272 -0.69615 -0.70499 0.66523 0.1769 -0.03684 -0.19351 -0.45357 -0.10044 0.31244 0.2868 -0.24721 0.048415 -0.44822 -0.74104 0.46306 -0.25022 -0.021201 0.050634 -0.6652 0.17546 -0.20901 0.67453 0.03585 0.42998 -0.38306 -0.094949 -0.2262 -0.40629 -0.0076858 0.060979 -0.16557 0.45503 0.37844 -0.29328 -0.074291 0.076807 0.077622 0.17282 0.70865 -0.15264 0.80448 0.2598 -0.67257 0.1035 -0.26086 0.15394 -0.16798 0.47762 -0.043669 -0.01319 0.086372 0.35149 -0.31774 -0.75675 -0.062776 -0.012019 0.71812 -0.12927 -0.080516 -0.21188 0.56961 -0.1898 0.036744 -0.013778 0.29506 0.046315 -0.26927 -0.57851 0.87397 0.40544 -0.010117 -0.3382 -0.5161 -0.66406 0.15809 -0.45226 -0.26229 0.40817 -0.14979 -0.45507 -0.18846 0.47767 0.524 0.30689 0.11513 -0.18847 0.17849 -0.017421 -0.14368 -0.2066 -0.20573 0.3007 0.36612 0.098802 0.29631 0.32784 -0.78008 0.41432 -0.51404 0.0045154 0.41752 0.03962 0.13799 -0.30959 0.20419 0.72348 0.49366 0.064335 0.0069478 0.47527 0.60654 0.19483 -0.032467 0.14299 0.22649 0.5709 -0.67445 -0.81242 -0.0018106 -0.40053 -0.24841 -0.060069 0.23797 -0.7054 -0.14679 -0.09831 -0.041531 0.77919 -0.16717 0.022953 0.17858 0.60304 0.53992 0.067235 0.11875 -0.19957 0.063608 0.039399 0.53734 0.3352 0.24344 -0.55972 0.19736 -0.16989 0.76105 0.08699 0.23825 -0.37542 -0.58958 0.17717 0.56203 0.32146 0.077348 0.32194 0.17451 0.40834 0.30595 0.38017 -0.38866 0.072931 -0.37173 -0.29875 -0.15619 0.095325 0.1149 -0.069104 -0.043677 0.1447 0.34825 0.84658 -0.034697 -0.40165 0.25315 -0.23163 -0.012062 -0.5615 -0.4196 0.23505 -0.46644 -0.042723 -0.11073 0.23496 -0.42196 -0.49026 0.97901 -0.14653 -0.1231 -0.32495 0.34533 -0.075637 -0.22104 -0.089143 -0.0067435 0.37822 -0.13726 0.0059608 0.03565 0.26111 -0.23745 -0.93827 -0.33654 -0.064236 -0.37575 0.014075 0.17602 0.43659 0.074175 -1.925 -0.46658 0.4945 0.29324 0.55339 -0.22202 0.20704 0.13471 -0.47311 0.020161 0.083016 0.45202 -0.27671 0.2281 0.23207 0.28521 0.23596 -0.15614 0.47132 0.61869 0.17178 -0.6537 0.16372 0.40059
italy 0.032153 0.41639 -0.41594 0.065672 0.23653 0.13082 -0.4866 -0.22486 -0.50132 -1.4622 0.30859 0.23616 0.69443 0.42745 -0.19237 -0.42195 0.21496 0.14659 -0.22117 0.38409 -0.080372 0.55915 0.41271 -0.2662 -0.2167 -0.46194 -0.13238 -0.3792 -0.45265 -0.14679 -0.89217 0.5588 -0.15136 0.39178 -0.79342 0.0095561 0.54513 -0.48459 -0.15227 -0.11922 0.047221 -0.68031 -0.24821 -0.070483 -0.44197 -0.59512 0.49523 0.67179 0.17471 0.21527 -0.70643 -0.19617 0.82933 0.11375 0.29953 0.46081 0.0020299 -0.11754 0.53374 0.37924 -0.29984 0.41343 -0.48491 -0.56444 -0.34234 0.24201 -0.30778 0.37202 0.080052 -0.69809 -0.091955 0.082229 -0.50565 -0.85593 -0.01696 -0.041366 -0.040501 -0.13037 0.080091 0.0052495 -0.11208 -0.4133 -0.64772 0.32204 0.069617 1.0066 0.13685 0.049752 -0.087193 0.19636 0.89091 0.23745 -0.082034 -0.7522 0.16386 -0.56735 -0.78445 0.31227 -0.85711 -0.033404 0.079955 -0.12227 -0.16739 -0.46322 -0.23503 -0.15009 0.24856 0.22724 0.073596 0.43277 0.84279 -0.070446 -0.050143 -0.8696 0.3701 -0.24815 -0.18592 0.15462 0.46849 -0.16883 -0.48678 0.4775 0.097791 -0.36822 0.67405 0.76392 -0.64854 -0.24223 0.11016 0.43371 0.10852 -0.48127 0.25998 0.13706 0.064923 -0.2331 0.27919 -0.30654 -0.050469 -0.97621 0.23131 0.03227 -0.48912 0.4827 0.026809 -0.10198 -0.13602 -0.88859 -0.24956 -0.22699 0.03149 0.072403 0.11716 -0.24574 -0.33961 0.22998 0.095439 0.81062 -0.96646 -0.43485 -0.45732 -0.61294 0.34501 0.43241 0.61887 0.061878 -0.2655 -0.4516 0.21393 -0.096996 0.20165 0.77376 0.012449 0.17116 -0.96408 0.27821 0.36893 -0.21663 0.20354 0.49349 0.032491 0.54136 0.18836 0.18051 0.49799 0.029277 -1.436 -0.006205 -0.45367 0.073398 0.22048 0.15779 0.010517 -0.056673 0.020352 -0.81182 0.0229 -0.13331 -0.10685 0.57464 1.2489 0.12326 -0.51998 0.18219 0.19542 0.027079 -0.3701 0.29959 -0.19176 -0.33379 0.077214 0.044306 -0.064597 0.57042 -0.088545 -0.066076 0.098542 -0.76135 -0.19276 0.11927 0.54701 0.17193 0.25822 -0.43474 -0.55975 -0.32153 0.36146 -0.55887 -0.28261 0.35804 -0.42149 -0.45975 -0.19106 0.030533 0.73621 -0.42836 -0.013654 0.66219 0.62788 -0.016263 -0.57606 -0.065195 0.55944 -0.19528 0.68663 0.55054 -0.057769 0.40581 -0.16754 0.12342 0.20264 0.12152 0.2194 0.2172 0.2055 -0.51146 -0.26767 0.041104 -0.23702 0.36625 0.21434 -0.66055 0.20993 0.52511 0.16919 -0.18631 -0.49475 -0.095554 0.10619 -0.77474 -0.043391 0.055522 -0.2845 0.24503 -0.51361 -0.085433 -1.5727 -0.61673 0.88221 0.2522 0.015237 0.64228 -0.24738 0.014615 0.35971 0.089688 0.15652 0.48027 0.30739 -0.060933 -0.10947 0.17966 -0.11769 0.59752 -0.13748 0.62898 -0.14288 -0.51203 -0.0030393 -0.56419
spain 0.57118 0.026095 -0.29801 -0.032558 -0.02156 0.4056 -0.72295 0.67535 0.46939 -1.2843 0.74605 0.64279 0.55908 0.90971 -0.36709 -0.47714 -0.13558 0.23691 0.28119 0.32337 -0.16753 0.040236 0.295 -0.27447 -0.57934 -0.78258 -0.46986 0.52337 -0.38623 0.18643 -0.40888 0.93113 -0.2821 0.3881 -0.5786 -0.56821 0.63842 -0.015052 -0.35629 0.44768 -0.33144 -0.39703 0.041959 -0.35475 0.3458 -0.86361 0.20167 0.17713 0.53264 0.51642 -0.12521 -0.075569 0.68686 -0.40861 0.21003 0.15172 -0.25891 -0.16094 -0.12215 -0.10217 -0.11059 -0.031263 -0.22112 0.31248 -0.62176 -0.90991 0.45287 0.23971 -0.23181 -0.62831 -0.07214 0.78148 0.29902 -0.21217 -0.13878 -0.53801 0.097323 -0.095777 -0.056853 0.33745 0.14503 -0.10361 -0.59297 0.5503 0.31904 0.16542 0.33097 -0.16562 0.19252 0.10027 0.90757 -0.1188 -0.38627 -0.33771 0.077051 -0.29985 -0.21384 0.18071 -0.47265 -0.26232 0.25377 -0.19004 0.34614 -0.14604 0.43879 0.36156 -0.026976 0.34305 -0.62032 0.58118 0.67508 -0.21158 0.26737 -0.88753 -0.61149 0.044651 -0.16766 0.44594 -0.22205 -0.015574 -0.4649 -0.23998 -0.4396 -0.38588 0.021218 0.7846 -0.15138 0.21537 -0.060448 0.31736 0.088949 -0.46349 -0.0026491 0.063184 0.30587 -0.3268 -0.026025 -0.39707 -0.041412 0.063048 0.30201 -0.6278 0.11332 0.044819 0.20266 -0.17333 0.028658 0.04355 -0.429 -0.34637 0.3145 -0.21513 0.18565 0.2802 -0.00059082 0.082974 -0.25975 0.28871 -0.52716 0.46304 0.32973 0.55213 0.30068 0.19169 0.59611 0.032212 0.26018 -0.70196 0.23934 0.22671 0.25616 0.8621 0.12164 -0.039058 -0.22104 0.39839 -0.51927 0.01892 0.069491 0.7435 0.17079 -0.14596 0.041317 0.059225 0.47353 -0.55337 -1.5413 0.036798 -0.92773 0.28061 -0.33555 0.25216 0.10029 -0.61777 0.3568 -0.41272 -0.1129 -0.1132 0.10328 0.56125 1.0426 0.06948 -0.30503 0.25204 0.24435 -0.2844 -0.63723 0.8185 -0.20296 0.39122 -0.37387 0.35084 -0.19204 0.42661 -0.042729 0.31399 0.40891 -0.28638 -0.17262 0.089541 0.55858 0.17686 -0.25324 -0.026148 -0.047781 -0.41583 0.76224 -0.68884 -0.1306 0.22158 -0.74186 -0.19789 0.32368 0.1418 0.60224 -0.053622 -0.13291 0.58202 0.67511 -0.3097 -0.046254 0.29122 0.45492 -0.099659 0.69151 0.36393 0.0233 -0.20223 0.090762 -0.35742 -0.19055 -0.23125 -0.022793 0.19851 -0.10543 -0.25839 0.25291 0.21066 -0.76023 -0.4478 0.6916 -0.17307 0.23441 0.69701 0.15114 0.22693 0.068964 -0.14868 -0.012042 -1.0058 0.57037 -0.35059 -0.027398 0.31181 0.033532 -0.21601 -1.4294 -0.77081 0.89029 0.28394 0.63365 -0.018811 -0.41617 0.26515 -0.43391 0.033863 -0.042536 0.46039 -0.13789 0.32206 0.020422 0.10406 -0.28385 -0.27959 0.4357 0.53151 -0.050183 -0.27263 0.13742 -0.16683
turkey 0.75456 0.31669 0.76943 -0.0015726 0.20047 -0.57897 0.3302 0.30396 0.34281 -1.967 0.38332 0.15247 0.42816 0.41192 0.24254 0.54463 0.04034 0.31465 -0.30737 -0.6352 0.76224 0.045214 0.032789 0.30346 -0.83046 -0.67545 0.51895 -0.47571 -0.16763 -0.11575 -0.3637 0.27454 -0.14968 -0.21136 -0.019969 0.24769 0.10951 0.10616 -0.2585 0.058818 0.00049851 -0.4809 -0.39999 -0.49463 -0.32427 -0.31639 0.51374 0.11056 0.21957 0.42107 -0.083406 -0.076154 0.30479 -0.81614 0.13707 0.4688 -0.41305 0.26545 -0.11139 0.47903 -0.23129 0.74014 -1.1244 -0.90684 -1.1354 -0.01106 0.33418 0.74422 0.13554 0.01309 0.2855 0.026849 0.25605 0.2907 0.019966 -0.26218 0.2833 0.59239 0.11803 0.11049 0.094842 -0.051958 -0.17754 -0.72386 0.86415 -0.18023 -0.43 -0.1369 -0.41425 -0.49895 0.19126 0.04528 -0.50252 0.52963 0.096504 0.38628 -0.6266 0.39624 -0.63696 0.11179 0.079097 -0.18125 0.33821 -0.50124 -0.41411 0.20155 0.85094 0.42979 0.1206 -0.028696 0.9242 0.36397 -0.21675 -0.22482 -0.048934 -0.21325 -0.31451 0.60646 0.37496 -0.35452 -0.29366 -0.03321 0.20344 0.39432 0.1284 0.9864 0.29116 -0.25773 0.57403 0.15799 0.010574 0.48344 0.26414 0.39881 0.32441 -0.46539 0.068532 0.026118 -0.56723 -0.031084 0.57225 -0.44099 -0.20437 -0.44222 -0.54273 -0.47095 -0.10988 -0.51025 -0.6036 -0.60141 -0.022564 0.34115 0.3759 0.54276 -0.097715 0.51954 0.12494 0.20904 -0.41031 -0.031968 -0.04005 0.7172 0.055006 0.49829 -0.098223 -0.089367 0.153 -0.17713 -0.14587 -0.38018 0.45685 -0.27342 -0.11245 -0.11233 0.067096 0.5687 0.22955 -0.021047 0.16291 0.27379 -0.090154 -0.3806 -0.18717 -0.89737 0.075997 0.50933 -0.84685 0.10635 -0.41949 -0.22447 -0.10221 0.3591 -0.28543 -0.15041 -0.2159 -0.26031 0.46905 -0.42424 -0.20206 0.52353 1.2951 0.17005 -0.25224 0.35938 0.28707 0.46561 -0.0113 -0.030596 0.010737 0.58543 -0.18611 0.2463 0.18957 0.59622 0.37882 0.096358 0.17744 -0.1124 -0.48082 0.41097 0.78381 0.048316 -0.0166 -0.41424 -0.10862 -0.69982 0.41112 -0.29964 -0.22553 0.067496 -0.27809 -0.35217 0.17029 -0.15306 0.44876 0.083641 0.09695 0.091848 0.45144 -0.023697 -0.43342 0.075662 0.14981 -0.10185 0.28927 0.057641 0.32115 0.45782 -0.051555 -0.48919 -0.29763 0.12678 0.0054546 0.22869 0.024492 0.071642 -0.32967 -0.13162 -0.45167 0.22239 0.49331 0.20388 0.47706 -0.063669 0.16154 -0.25188 -0.17165 -0.65181 -0.021338 -0.71312 0.057744 0.042385 0.29635 0.24841 -0.13657 0.10468 -1.3095 0.40222 0.47959 0.014939 0.07498 -0.09554 0.7839 -0.6871 0.20602 -0.11206 0.48543 0.33769 0.074538 0.23295 -0.42228 0.036785 0.51947 -0.011469 -0.49688 0.41977 -0.11475 -0.70903 -0.45391 0.12822
ireland 0.54161 0.241 0.015134 0.20865 -0.15938 0.40723 0.25975 0.52582 -0.1899 -1.1973 0.18073 -0.49931 0.37923 -0.33869 0.073313 -0.01834 -0.43097 0.21246 -0.24771 0.01997 -0.63575 0.7218 -0.48936 -0.12267 -0.29277 -0.52925 -0.14794 -0.13447 -0.70958 0.29814 -0.35269 -0.10581 -0.1134 0.8133 -0.75765 0.59024 0.41641 0.94108 -0.65665 -0.2692 -0.18535 -0.42717 0.51321 0.37237 -0.0030826 -0.50487 0.093997 -0.11618 0.64578 -0.49555 -0.65546 0.30531 0.4465 0.33555 0.40435 0.30825 0.20214 0.20676 -0.92051 -0.090006 0.033448 -0.034815 -1.2436 0.3767 0.044418 -0.29438 0.2284 0.67289 0.14775 -0.39933 -0.41738 -0.052131 0.079978 0.44163 -0.2274 -0.1351 -0.7235 -0.14268 -0.48128 -0.076287 0.15641 -0.18248 -0.038355 0.22552 -0.20637 -0.069335 -0.39463 -0.13974 -0.02471 0.1415 0.07099 0.19268 -0.86385 -0.71654 0.34004 -0.14221 0.38254 -0.17963 -0.51508 -0.083361 -0.32553 0.11214 0.02096 -0.087162 0.15088 0.18686 0.33914 0.57988 0.19008 0.84945 0.30145 -0.32809 0.51127 -0.32373 -0.051517 -0.76108 -0.14956 -0.12887 -0.30225 -1.3046 -0.43842 0.16201 -0.35636 -0.021108 0.38189 0.34917 -0.12478 0.16124 0.25179 0.32532 0.4315 -0.035359 0.32513 -0.30487 0.010534 0.36036 0.39224 -0.17505 -0.17177 -0.54788 -0.17097 -0.61672 -0.0081812 -0.089696 -0.65817 -0.090083 0.19122 -0.18526 -0.13863 -0.58365 0.26988 -0.41691 -0.035283 0.11577 0.10881 0.6083 -0.76314 0.62941 0.31218 0.22945 -0.068341 0.64264 0.27318 -0.049036 -0.46639 0.70343 0.37775 -0.47137 0.20216 -0.16869 0.28935 0.50878 -0.38924 0.5807 -0.0019483 -0.031518 -0.36835 -0.36372 0.25794 0.94795 -0.47754 -0.29546 0.2363 -0.42318 0.85889 -0.32275 -0.82835 -0.17841 -0.40479 -0.76246 -0.022232 0.013987 0.63261 -0.47856 -0.60502 -0.15777 0.10606 0.14694 -0.26243 -0.3603 1.241 0.22098 -0.98835 0.074377 0.46114 -0.03244 0.2615 0.77977 -0.45108 0.27863 0.42737 0.28371 -0.13344 0.22051 0.064636 0.056304 -0.61519 -0.073656 0.47775 -0.24896 0.35338 0.13373 -0.31773 -0.42607 -0.46805 -0.071782 0.51278 -0.59983 0.13075 0.18074 -0.28233 0.20014 -0.027818 0.079908 0.019154 -0.14018 -0.23482 0.65186 0.62989 0.41449 -0.82503 -0.45469 0.52564 -0.083007 0.1659 -0.16321 0.4348 -0.15379 -0.076923 -0.060689 -0.36958 0.046056 0.1459 -0.85481 0.11459 -0.40704 0.036193 -0.17784 -0.29292 0.0049821 0.24728 0.12325 0.8858 0.64377 -0.64548 -0.4402 -0.081863 -0.48521 -0.21582 0.04287 -0.20756 0.47813 0.26384 0.016748 -0.21084 -0.054889 -0.971 -0.27618 1.1001 0.27571 0.22194 0.049399 0.038551 -0.12358 0.63111 0.3119 -0.2715 -0.29118 0.48915 0.22491 0.18844 0.15955 0.077134 -0.27566 0.13179 0.41492 -0.038918 -0.33396 -0.092757 -0.023497
brazil 0.22403 0.66101 -0.68764 -0.027683 0.12385 0.19 -0.5318 0.41277 -0.0015129 -1.3769 -0.17732 0.46503 0.11411 -0.43059 -0.21416 -0.41219 -0.58403 -0.12241 0.067654 0.10379 -0.054962 0.8219 0.32616 -0.029344 -0.8874 -0.29175 0.5588 -0.17938 -0.67835 -0.27252 0.046951 0.46546 -0.70902 -0.016788 -0.51338 0.018019 0.65368 -0.10726 -0.57366 0.32212 -0.52888 -0.50447 -0.16628 -0.019821 -0.20302 -0.66894 0.25736 0.61853 0.14278 -0.23414 0.10448 -0.37043 0.29125 0.34164 -0.21244 0.28251 -0.30606 -0.49175 -0.22826 -0.39275 -0.92814 0.092541 -0.50975 -0.52502 -0.3511 0.2845 0.46201 0.48963 0.35203 -0.76309 -0.4718 0.79749 -0.18547 -0.23522 -0.2203 -0.72415 -0.11722 -0.21611 -0.020811 -0.0074641 0.64612 0.14331 -0.51486 0.080548 -0.045303 0.43641 0.31554 -0.25414 0.18954 -0.43305 0.3018 -0.40696 0.88273 -0.68291 0.13078 -0.53466 -0.55783 0.17282 -0.24644 -0.66118 0.076836 -0.32943 0.051848 -0.20766 0.60501 0.36116 -0.25165 0.28917 -0.57035 0.2116 0.58128 -0.56594 -0.6551 -0.80568 0.10952 -0.069484 0.69195 0.37406 0.031743 -0.21731 -0.29303 -0.4339 0.051266 -0.56771 -0.16523 0.85091 0.24892 -0.28663 0.013932 0.33409 -0.02991 0.14513 -0.038614 -0.090726 -0.10473 -0.13513 -0.25125 0.31426 -0.19295 0.23044 -0.18098 -0.31478 0.050666 -0.0025586 -0.0080006 0.23471 0.52613 -0.52522 0.24546 -0.65602 0.035345 -0.18374 -0.2856 0.024958 0.24939 -0.2414 0.057408 -0.0049866 -0.45975 -0.17303 -0.25615 0.28448 0.19007 0.53905 0.0036008 -0.97551 -0.32173 0.12051 -0.50145 -0.20591 0.0077463 0.47581 -0.41329 0.27843 0.62433 -0.38432 0.087445 0.30466 -0.03935 1.0457 0.040677 0.42911 0.21494 -0.066247 0.52488 0.31891 -0.72819 0.50439 -0.43525 0.067141 -0.19329 -0.073148 -0.22296 0.27057 -0.27778 -0.22467 1.0748 -0.090845 -0.26483 0.20317 1.0616 -0.1618 -0.74085 0.23593 0.11059 -0.18879 -0.093114 0.56247 -0.21538 -0.34243 -0.2425 -0.23292 -0.43784 0.2292 0.30028 0.017905 -0.44614 -0.8248 -0.49586 0.56452 0.42322 -0.5675 0.69231 -0.22935 0.066942 0.33728 0.2114 -0.036834 0.064558 -0.013545 -0.42343 0.18854 0.18012 0.68411 -0.018721 0.083376 -0.45922 0.69236 0.47384 -0.078002 -0.3463 0.099668 -0.26298 0.36007 0.13943 0.33425 0.42941 0.2538 0.35416 -0.24245 0.3236 -0.076659 -0.12167 0.87325 -0.30635 -0.15865 -0.83402 0.022692 -0.19334 -0.16328 0.46286 0.22003 -0.015728 -0.24223 0.44936 0.25082 -0.60795 -0.34446 -0.24299 -0.35396 -0.30504 -0.78572 -0.10517 0.096705 0.19661 -0.05575 -1.3411 -0.70484 0.60469 0.25456 -0.24059 -0.089349 -0.1455 -0.11524 0.1837 -0.075864 0.18107 0.022476 -0.22648 0.3317 -0.23636 0.44204 -0.080854 0.15383 0.58879 0.54117 -0.80292 -0.55605 0.14481 -0.41878
singapore -0.041204 -0.47508 -0.22726 -0.059088 -0.11204 -0.21334 0.27554 0.56707 0.63278 -1.6646 0.90116 -0.23493 -0.060577 0.058423 0.3383 0.099275 0.26261 0.19004 -0.31919 -1.1185 -0.17801 -0.029856 -0.17171 -0.055381 -0.35572 0.096214 -0.075299 0.41808 0.15782 -0.45435 0.37804 0.060098 0.15938 0.80394 -0.5544 0.083324 0.25383 -0.27466 -0.19622 0.34294 -0.011986 -0.011775 -0.05969 0.54984 -0.24188 0.025078 0.027268 0.35128 0.042603 0.36842 -0.29842 -0.53739 -0.078792 -0.4712 -0.04531 0.41549 0.0757 0.79323 -0.13742 -0.63724 0.051103 -0.052893 -0.44175 -0.0044105 0.98471 -0.16357 0.10752 0.14401 -0.79155 0.27445 -1.055 -0.21845 -0.2194 -0.061702 0.31049 0.081422 0.38187 -0.023703 -0.046328 0.3614 -0.083194 -0.44381 -0.48759 0.39412 0.061772 0.0045069 0.2426 -0.82755 0.038918 -0.29026 -0.34343 0.26151 -0.15507 -0.27673 0.6034 0.18656 -0.30654 0.39696 -0.35464 -0.20577 0.055165 -0.23165 -0.6631 0.014965 -0.0089661 -0.055973 0.22531 0.00022694 -0.54588 -0.1096 0.06689 -0.90056 -0.033789 0.25442 0.76737 -0.22423 -0.10456 0.32291 -1.1537 -0.56664 -0.04007 -0.45636 -0.32557 -0.36593 -0.063141 0.37313 -0.34212 -0.17712 -0.095592 -0.31947 -0.13184 -0.0045027 0.23476 -0.17977 0.2537 0.14268 0.45128 -0.10345 0.17295 0.37734 0.47658 0.21402 0.15345 -0.30515 -0.25985 -0.62621 -0.23842 0.011869 -0.58534 0.30926 0.93888 0.30577 0.31573 0.58884 0.19783 -0.028875 -0.98454 0.74596 -0.10145 -0.11267 -0.18503 0.9835 0.0035972 -0.1676 0.31488 -0.39304 0.45846 0.042377 -0.326 0.36233 -0.20558 -0.14666 -0.2865 0.30102 -0.5921 -0.39972 0.34851 -0.17351 0.56832 0.5934 -0.32776 0.37737 -0.44307 -0.088528 -0.11156 -0.25659 -0.14772 0.58753 0.031367 -0.2256 0.11075 0.059975 -0.24494 -0.072319 -0.3552 0.10603 0.24053 -0.023667 -0.42861 0.024707 0.66602 0.57049 -0.58558 0.16783 -0.68527 1.156 -0.31236 -0.16754 -0.13229 -0.87243 -0.46401 -0.21968 -0.20648 -0.0010842 0.51087 0.17723 -0.13006 -0.017038 -0.2015 0.4174 0.79995 0.19063 -0.25661 0.24148 -0.35778 -0.2694 -0.25809 -0.31974 -0.15982 0.28979 -0.10065 -0.028116 0.22233 0.68069 0.1616 0.537 -0.0034002 -0.1289 0.13296 0.0055581 0.073493 0.030033 -0.1453 0.91261 0.40519 0.46714 0.63968 0.19911 -0.13588 -0.58594 -0.13274 -0.3689 0.061765 0.28902 -0.15274 -0.55878 -0.55552 0.2898 -0.31086 0.21684 -0.38187 -0.036762 0.14038 0.094429 0.47693 -0.17793 0.007892 -0.58296 -0.22256 -0.41236 0.5286 -0.17021 1.1116 -0.41779 -0.1122 0.26859 -0.62499 -0.3015 0.11499 0.032075 -0.71181 -0.63248 -0.23976 -0.54417 -0.079432 -0.2498 0.31208 0.42053 -1.149 -0.029116 0.24205 0.48148 -0.50222 -0.22672 0.50422 1.1129 -0.087125 -0.44345 -0.19066 -0.58964
indonesia 0.015666 -0.47121 -0.19556 -0.3192 0.30556 -0.66171 0.31485 0.7494 -0.063963 -1.825 1.2742 0.70786 0.081471 -0.28048 0.069249 0.079169 0.37182 0.43904 -0.3365 -0.88425 0.39141 -0.061421 0.044499 0.0093984 -0.38269 0.47003 -0.091394 -0.20451 -0.31534 -0.39636 0.65641 0.75065 -0.3239 0.27537 0.28344 -0.45134 0.011599 -0.60708 0.21174 -0.22349 -0.063041 -0.057434 -0.13854 -0.27221 0.14689 -0.57196 0.43319 -0.33506 -0.19495 0.20377 0.18358 0.1416 0.16215 -0.26669 -0.14458 0.46485 0.19099 -0.11502 -0.61903 -0.45673 -0.61249 0.37525 -0.88032 -0.34166 0.50108 0.16188 0.47167 0.27071 -0.36186 0.43711 -0.91192 0.76241 -0.18033 -0.37825 0.017718 -0.42106 0.42259 -0.052873 0.48761 0.22386 0.12026 -0.40358 -0.42199 0.28648 0.66566 -0.31009 -0.20614 -0.55802 -0.16263 0.10574 -0.24062 -0.099935 -0.72782 -0.18544 0.17781 -0.14256 -0.031983 -0.22408 -0.093023 0.11453 0.41855 -0.21733 0.06952 -0.30546 0.29599 0.15241 0.037892 0.029307 0.21868 0.062759 0.43833 -0.9195 -0.5104 0.06194 1.0628 0.41772 0.059319 0.24261 0.12593 -0.013621 -0.21156 0.17287 -0.20251 -0.011608 -0.04003 0.95725 0.12907 -0.059002 0.32977 -0.33485 0.24093 0.59934 -0.12187 -0.035316 0.52796 -0.020065 -0.023513 0.77219 0.10491 0.22844 -0.025403 0.33451 -0.012329 0.47227 -0.73001 -0.31403 0.18557 0.088867 0.099395 -0.44837 0.26109 -0.10878 0.061739 0.49296 -0.067631 0.053785 -0.41718 0.23892 -0.22781 -0.094297 0.069566 -0.040014 0.21228 0.47343 0.091983 -0.39787 0.55174 0.35537 0.0021626 -0.56866 0.082524 0.10672 -0.18332 -0.15734 -0.37861 0.05548 0.50904 0.23969 0.013164 0.38567 -0.19244 -0.20649 -0.10058 -0.5744 0.14804 0.10505 -0.76698 0.68546 -0.11925 0.39976 0.62042 0.13712 -0.22339 0.21097 0.21885 -0.083927 0.82749 0.14624 0.12876 0.1493 0.81043 0.67356 -0.56245 0.16823 -0.1315 0.43094 0.69382 -0.12333 -0.027074 -0.50795 -0.47791 0.15093 0.4645 0.19712 0.27927 0.47602 -0.60525 -0.46216 0.10293 0.023073 0.23605 -0.10272 0.24636 0.23295 0.14354 -0.10339 -0.060479 0.18166 -0.71233 0.38429 -0.05895 -0.38594 0.19272 0.45107 0.18295 0.36597 0.059008 0.07662 0.37318 -0.32507 -0.028621 0.35928 -0.012133 0.15275 0.40123 0.09508 0.38414 0.47653 -0.16373 0.04425 0.26509 -0.55464 -0.31267 0.43313 0.045034 -0.02268 -0.13029 0.522 -0.19295 0.46405 0.24162 -0.35669 0.10401 -0.59404 0.60873 0.1011 -0.32152 -0.34021 -0.22857 -0.32609 -0.21871 -0.20911 0.040226 -0.14674 -0.13572 0.0060896 -1.2678 -0.87387 0.27599 -0.38865 -0.29005 -0.10191 -0.41553 -0.3901 -0.54208 -0.35672 0.30502 0.23437 -0.04273 0.13301 -0.77611 0.51084 0.086292 0.078666 -0.17329 1.5531 -0.14866 0.047845 -0.00010512 -0.76064
vietnam -0.46676 -0.13372 -0.19631 -0.67522 -0.41272 -0.1528 -0.025186 0.21398 -0.33371 -1.2721 0.80841 -0.2844 -0.61413 -0.88823 0.23608 -0.29267 0.46936 0.027242 -0.49809 -0.51246 -0.1557 0.55995 0.17135 0.15274 -0.41349 0.085999 -0.009605 -0.35276 0.11616 -0.041326 0.086415 -0.092047 -0.34879 0.068372 -0.12854 -0.43894 -0.6518 -0.9099 0.25771 0.0085403 0.56809 -0.37838 -0.039045 0.0016067 0.11524 -0.82261 0.26117 -0.13154 -0.5101 0.16498 -0.23146 0.18663 -0.17239 0.50539 0.053301 0.0036628 0.36997 0.45041 -0.68017 -0.53521 -0.29287 0.0062695 -0.48379 -0.69928 -0.0026242 -0.067715 0.32583 0.49625 -0.1199 0.46014 -0.84447 -0.052333 -0.0022623 0.56927 -0.33418 0.13405 0.59601 0.29855 0.12601 -0.82405 0.07622 -0.32991 0.17825 -0.40635 -0.12991 -0.88323 -0.28904 -0.15773 0.10618 0.052298 0.14302 -0.40853 -0.24966 0.16621 0.20549 0.058866 -0.00015711 -0.029199 -0.055541 -0.15781 0.16687 0.10214 -0.42074 0.091151 0.30456 -0.11559 -0.53749 0.25089 0.20241 0.060693 0.47594 -0.55074 -0.48402 -0.58346 0.65485 -0.52018 0.24019 -0.11304 -0.17347 0.49641 -0.28169 -0.54913 -0.39832 -0.006736 0.51247 0.54182 -0.24104 0.3412 0.39387 0.23593 -0.37299 0.089636 0.29507 -0.073603 -0.31635 -0.96881 0.059791 -0.20403 0.3929 0.61098 -0.057969 0.52402 -0.25151 -0.12503 -0.68855 0.10807 -0.063223 0.0086941 -0.038211 0.15546 0.15951 -0.57679 0.050724 -0.017616 0.066211 0.43117 -0.65525 0.42612 0.1978 -0.25984 0.042478 0.2841 0.15253 0.14227 0.54926 -0.35085 0.26695 -0.079002 -0.39602 0.053388 -0.026896 -0.025678 -0.65116 -0.48245 -0.22119 -0.10343 0.40988 -0.28138 -0.19503 0.57821 -0.38151 -0.30469 -0.53707 -0.35366 0.20357 -0.0078867 -0.43789 0.67705 0.076714 -0.25695 -0.50043 0.41158 -0.34376 0.35546 0.4475 0.38383 0.8004 -0.33845 -0.076318 0.25496 0.94952 -0.11085 -0.37416 -0.33734 0.01797 0.90804 -0.056172 0.18884 -0.2162 0.48347 0.17781 -0.58233 -0.18046 0.0042413 -0.021324 -0.064271 -0.24797 0.13771 -0.12807 0.26062 0.69068 -0.27234 0.26668 -0.13363 0.0025738 0.53017 0.013781 0.25828 -0.39032 -0.38215 -0.0042761 -0.73105 0.16527 0.58109 -0.32926 -0.098467 0.41842 -0.56174 0.098566 0.14753 0.12923 -0.059525 0.011078 0.0847 0.55419 0.14635 0.61066 0.44135 -0.35974 -0.33637 -0.30234 -0.15934 0.20879 0.31286 0.44484 -0.27029 0.23472 0.36695 -0.3645 -0.4087 -0.11643 0.12857 0.3138 -0.55028 0.75996 0.1978 -0.37269 -0.76966 -0.27976 0.11794 -0.28512 0.12976 0.10821 0.29114 -0.061079 0.26252 -1.4821 -0.76111 0.83538 -0.18273 -0.22001 -0.40853 0.61313 -1.0605 0.37397 0.37309 0.092522 0.4226 -0.26437 0.33151 -0.29134 0.9689 -0.06145 0.073259 -0.18401 1.1189 0.11765 -0.28733 -0.19782 -0.083761
egypt 0.42437 -0.34578 -0.52208 0.035195 0.065964 0.22836 0.21803 0.14837 -0.15642 -1.7873 0.029841 -0.014015 0.56515 -0.1339 0.11242 0.12896 -0.21086 0.27778 -0.49442 -0.76953 -0.40626 0.00559 -0.081089 0.058707 0.35832 -0.47672 0.26792 -0.53453 0.028995 0.39969 -0.66118 0.29408 -0.75925 0.23558 -0.18956 -0.61412 0.45309 0.31379 0.18813 -0.3776 0.6871 -0.4439 -0.5812 0.1091 -0.27234 -0.45366 0.23447 0.195 0.11942 -0.088196 -0.084661 0.22095 -0.17032 -0.32498 0.61176 0.28725 0.071707 0.076914 0.41392 0.33526 0.0049765 0.94381 -0.37546 -0.65715 -0.1878 0.19998 0.22445 0.36983 0.52599 -0.4594 0.02238 -0.068756 0.45286 -0.090982 0.47099 -0.33024 0.029996 -0.2676 -0.34636 0.65594 0.30365 -0.45013 -0.43258 0.35448 0.30216 0.41269 -0.3659 0.027691 0.50935 -0.15879 -0.40925 0.24622 0.25073 0.53127 0.14683 0.025514 -0.40724 0.11154 0.18718 0.10649 0.094771 -0.16743 1.0968 -0.66929 -0.065834 0.1011 0.10588 0.32141 0.068869 -0.49936 0.62662 -0.039473 -0.13978 -0.5469 0.34824 -0.45308 -0.27886 0.45708 0.85348 0.01164 -0.66702 -0.21572 -0.41176 -0.76821 -0.019857 0.89853 -0.034353 0.17599 0.87369 -0.34499 0.42071 0.27315 0.52973 -0.052399 -0.52731 -0.28629 -0.066599 0.15901 -1.0351 -0.05219 0.15864 -0.16231 -0.66557 -0.1903 -0.41717 -0.52237 -0.13288 -0.56038 -0.4258 -0.2686 0.14 -0.19165 -0.30741 0.09296 -0.26063 0.18757 0.47951 0.31485 0.13016 0.13594 0.045771 0.49516 0.31764 0.6115 0.38244 -0.39904 -0.089233 -0.34295 -0.30479 -0.16732 -0.13419 0.41033 0.36387 -0.51634 0.3068 0.73703 -0.4963 -0.17761 -0.37645 0.57434 -0.001905 0.41918 -0.42251 0.278 0.016477 0.28708 -0.83678 0.45256 -0.36839 -0.41815 0.44752 0.037308 0.22778 -0.24532 0.19996 0.027483 0.48916 -0.59458 -0.011419 0.2579 0.93137 0.14157 -0.26319 0.36234 0.30655 -0.33569 -0.0065105 -0.02457 0.47577 -0.21438 0.08854 -0.14637 0.20938 0.36163 0.1247 -0.47571 -0.1131 -0.54497 0.22354 0.24958 0.61513 -0.18734 0.22036 0.051248 -0.080517 -0.046919 0.051384 0.14147 0.38512 0.070639 -0.58113 -0.26423 0.22433 0.10489 0.49901 0.47447 -0.50181 -0.4417 0.65938 -0.54264 -0.40318 0.50356 -0.093348 0.33578 0.72746 -0.50074 -0.10407 0.13922 -0.20988 0.015723 0.2777 0.45026 -0.042818 0.3112 0.11733 -0.16498 -0.5295 -0.13678 -0.74485 -0.080072 0.031244 -0.39466 0.21975 -0.54921 -0.1963 0.23613 -0.21014 -0.44509 -0.35465 0.27107 0.066066 0.29135 0.53955 0.36335 -0.29088 -0.51106 -1.7369 -0.25056 0.63241 0.20631 0.51166 -0.11536 0.24032 -0.46545 0.34271 -0.045494 0.77213 0.49271 -0.06827 0.33274 -0.77492 -0.016751 -0.30365 0.63678 0.089955 0.46137 -0.0166 -0.62744 -0.057463 -0.30536
thailand -0.02656 -0.20648 -0.0068051 0.18777 -0.21811 -0.40351 0.5852 0.78002 -0.16901 -1.3478 0.7411 -0.13551 -0.47471 0.26187 0.23999 -0.25645 0.25022 0.53422 -0.13433 -0.67409 -0.32446 0.072551 0.064634 -0.4722 -0.94598 0.084134 -0.43411 -0.33834 0.44604 0.031347 -0.052982 -0.022056 -0.041513 0.47323 -0.26606 0.23067 -0.015907 -0.55226 0.0085838 -0.14319 0.32287 -0.59219 -0.26734 0.2648 0.010558 -0.92394 0.18843 -0.37446 -0.21815 0.068932 0.10694 -0.15786 0.85718 -0.4401 0.053298 0.20903 0.10443 0.30644 -0.91721 -0.36359 -0.18648 0.14579 -0.68738 -0.15183 -0.19831 0.15501 -0.089004 0.4062 -0.25954 0.13942 -0.74804 0.77934 0.132 0.27502 0.40674 0.2753 0.37358 -0.30323 0.21409 -0.11864 0.47763 -0.3947 -0.67622 0.26942 0.13568 -0.36374 -0.27494 -0.8174 0.072272 -0.78383 -0.38832 -0.20452 -0.41823 -0.28302 0.88215 -0.090226 0.022325 0.070972 0.27834 -0.12289 0.34517 0.14154 -0.14001 -0.32525 -0.030019 0.11487 -0.043077 0.55527 -0.25493 0.64314 0.60858 -0.82276 -0.37444 -0.44395 0.87694 -0.18754 0.7057 -0.23115 -0.0037339 -0.23551 -0.13659 -0.044173 -0.5541 -0.11245 -0.50151 0.74055 -0.36537 -0.043045 0.1803 -0.052446 0.040778 0.66353 0.39838 0.24123 -0.41471 -0.77549 -0.028441 -0.16549 0.10143 0.13591 -0.11749 0.37486 -0.30732 -0.31185 -0.46015 -0.069737 0.014023 -0.18861 -0.21745 -0.098163 0.40103 -0.099298 -0.10108 0.68147 0.11928 0.29128 -0.5962 0.046494 -0.11921 0.1549 -0.16991 0.41187 0.38987 -0.13129 0.2707 -0.37168 0.43979 0.13053 -0.41279 -0.39037 -0.39673 0.0046809 -0.32144 -0.13207 -0.63573 0.10788 0.099941 0.14964 0.00084152 0.77886 -0.79893 -0.11567 -0.42247 -0.11928 -0.085629 -0.040083 -0.39126 0.91142 -0.11253 -0.2027 -0.26326 0.16789 -0.64675 0.44052 0.17242 0.017964 0.51627 -0.11628 -0.10287 0.029385 0.89588 0.36107 -0.70758 0.046572 -0.47758 0.6891 0.48811 -0.13017 -0.48915 0.079617 -0.36522 -0.095398 0.28334 -0.029504 0.39168 -0.10477 -0.45721 -0.54829 -0.076264 0.42708 0.54965 -0.58038 -0.26336 -0.3762 -0.3674 0.15664 -0.023432 0.035229 -0.22557 -0.099054 -0.38238 -0.30338 0.23069 -0.049398 0.4101 0.12398 0.30573 -0.004498 0.44213 0.32809 0.16295 0.77675 0.13898 0.73994 0.57307 -0.091212 0.5797 0.3067 -0.52057 0.081165 0.0078324 -0.52144 -0.47827 -0.023755 -0.17244 -0.38048 -0.15847 0.41785 -0.24573 -0.043123 0.056394 0.30799 -0.12382 -0.098153 0.2101 -0.44993 0.17191 -0.17311 -0.1337 -0.17489 0.19012 0.15008 0.49673 0.26535 0.042655 -0.0075746 -1.3381 -1.0208 0.48426 0.39183 0.23738 -0.40437 -0.19084 -0.50529 -0.31733 -0.52302 0.13929 0.7398 -0.40632 0.33412 -0.0927 0.39902 -0.28247 -0.2747 0.13548 1.2366 0.25116 -0.3893 0.31622 -0.16764
lebanon 0.061714 -0.32385 0.4594 0.20714 -0.081273 0.16239 -0.48377 0.037058 -0.049619 -1.5755 -0.25038 0.25014 0.45077 -0.3759 1.0594 0.83957 -0.36981 0.23549 -0.3259 -0.69859 0.11413 0.50102 -0.10807 -0.37305 -0.30428 -0.39217 0.1139 -0.7375 -0.13265 -0.049412 -0.93084 -0.37407 -0.65673 0.43563 0.4542 -0.38713 0.26761 -0.17874 -0.063364 -0.52358 0.42794 0.16675 0.30587 -0.19082 -0.27728 -0.017882 0.14666 -0.050486 0.69934 0.43059 0.1373 -0.10844 -0.18201 -0.47983 -0.36384 -0.41742 0.50254 0.6298 0.024144 0.23268 -0.093593 0.25957 -0.84291 -0.27306 -0.44148 -0.24373 0.057315 0.013278 0.1444 -0.1194 -0.42991 -0.95906 0.15059 0.17435 0.35965 -0.3451 0.36228 0.47494 -0.51692 -0.20985 -0.34834 -0.32868 -0.18338 0.16775 0.27508 0.04835 -0.15169 -0.013065 0.22544 -0.15668 -0.30988 -0.19812 0.042833 0.057403 -0.12925 -0.036 -0.646 0.027663 -0.19922 0.34441 -0.39969 0.11259 0.73755 0.046877 0.37551 0.037564 0.39289 0.2841 0.81915 -0.52955 0.31955 -0.2365 0.51106 -0.57015 0.76902 0.28183 -0.073426 0.11082 0.14011 0.064877 0.31033 0.08434 -0.042027 0.087515 -0.012833 0.49415 -0.077304 -0.010844 0.7107 0.54172 -0.00020076 0.40881 0.35796 0.17417 -0.03121 -0.52454 -0.36959 0.23121 -0.033265 -0.32059 -0.041069 0.24672 -0.23244 -0.18846 -0.66115 -0.25073 -0.011825 -0.5166 -0.7913 0.22907 0.26998 -0.24455 -0.24445 -0.044846 0.33794 -0.055459 0.15945 0.23269 0.59529 -0.11146 -0.40862 0.062862 -0.00031931 0.23128 -0.20638 0.051544 0.28563 0.18907 -0.81177 -0.089792 0.35016 0.32451 0.78226 -0.016612 -0.0080184 0.66719 0.16609 -0.037526 -0.31844 0.43707 -0.30439 -0.53122 -0.53597 0.12564 -0.071537 0.86667 -0.27891 0.43541 -0.50196 0.2253 0.30469 -0.32893 0.51939 0.094844 0.48119 0.0097287 1.0067 -0.16886 0.36386 0.65384 0.96907 0.010609 -0.36534 -0.21191 0.23966 -0.84562 -0.44446 0.030458 0.22597 0.17011 0.072037 0.43814 0.082506 -0.14434 0.54829 -0.38403 -0.10178 -0.16597 0.060537 0.7824 1.0918 -0.65267 -0.11347 -0.11722 -0.059749 0.28694 0.58019 -0.055474 0.15822 -0.3459 -0.052948 -0.02389 0.10501 -0.060534 0.24805 0.14389 -0.19034 -0.34471 0.4353 -0.46519 -0.21894 0.2159 0.45255 -0.28239 0.55929 -0.2498 0.1312 0.4409 -0.34041 -0.4506 -0.048257 0.74274 -0.24007 0.38391 0.31605 -0.63257 -0.5667 -0.37611 0.12245 0.32934 0.23564 -0.10819 -0.57395 0.2063 0.29282 -0.023286 0.054381 -0.1912 0.32598 0.017289 -0.67581 0.54338 0.35814 0.369 0.19944 -0.36122 -1.7749 -0.051247 0.64981 0.25754 1.0117 0.58396 -0.13278 -0.31494 0.47658 -0.082131 1.0501 0.30814 0.13674 0.066657 -0.55602 0.0031654 -0.070585 0.22482 0.30155 1.1109 0.44868 -0.19838 -0.64032 -0.29641
poland -0.073772 0.084822 -0.29853 -0.23599 0.2405 -0.47623 -0.21442 0.60271 0.67022 -1.7464 -0.32623 0.63512 -0.1071 0.14255 0.57331 -0.25535 -0.19876 0.10616 0.092079 0.1282 0.12943 0.43249 0.60306 0.042481 -0.50532 -0.77221 -0.84029 0.62716 -0.7036 0.77948 0.046306 0.063346 -0.36583 0.47601 -0.30055 -0.12573 0.19882 0.11678 -0.47353 -0.15579 -0.24389 -0.86773 0.019894 0.082172 -0.23996 -0.73331 0.17082 -0.10306 -0.055361 -0.61225 0.33913 -0.29098 0.43224 -0.66963 0.0080747 -0.30646 0.38849 -0.21107 0.56202 -0.16214 -0.84289 0.29261 -0.66483 -0.39943 -0.49818 0.017011 0.37138 0.76319 -0.074222 -0.088341 0.44836 -0.014016 -0.1626 0.39578 -0.26802 -0.41797 -0.68006 0.36455 0.40952 -0.080677 0.13338 -0.11237 -0.19781 -0.22773 0.23703 -0.13574 -0.12177 -0.21041 0.013446 -0.14519 0.99139 -0.28042 -0.43254 -0.38508 0.0086195 -0.4203 -0.45605 0.19877 -0.81728 0.1024 -0.18221 -0.29424 0.34808 -0.86559 0.4742 -0.27315 0.28459 0.45523 -0.24139 0.0076557 0.38896 0.46442 -0.10061 -0.043735 0.19113 -0.42829 0.059638 -0.38501 0.083088 -0.2081 0.23506 -0.21173 -0.30112 -0.25864 0.29214 1.0914 -0.018568 0.010135 0.26984 -0.17472 0.2983 -0.18587 -0.031773 0.41619 0.39475 -0.30114 -0.12259 -0.40553 -0.16766 -0.021484 0.093493 -0.0031037 -0.59662 -0.010238 0.12571 0.065983 0.28439 -0.65694 -0.24289 -0.46823 -0.067857 0.25458 -0.39316 -0.32483 0.14813 0.25547 -0.59376 0.58334 -0.21492 -0.67398 -0.57601 0.57762 -0.25968 -0.0092901 0.26094 0.44752 0.06002 -0.20947 0.056506 -0.56307 0.54306 0.66408 -0.21164 -0.071844 -0.4984 0.45372 0.54831 -0.46605 -0.097255 0.16407 0.18393 0.19549 -0.35764 -0.33058 1.083 0.54026 -0.73578 0.35826 -0.72413 -0.16292 -0.3491 -0.56538 -0.13462 -0.0032115 -0.66375 -0.11781 0.25788 -0.49799 -0.1349 0.045127 1.0983 -0.31215 -1.2557 -0.34039 -0.30275 0.30725 -0.080226 -0.23155 -0.32239 -0.047816 -0.17607 0.29727 -0.5221 0.22379 -0.6725 -0.1969 -0.053421 0.061955 -0.9001 -0.12943 0.33116 -0.21752 -0.38497 -0.64096 0.34746 0.45854 -0.35303 -0.53572 -0.1807 0.024447 -0.49365 -0.44216 0.40954 0.036012 -0.66121 -0.30908 0.17068 0.3178 0.90384 0.083006 -0.58279 0.49195 0.74778 -0.24126 0.74871 -0.079888 0.55938 0.26838 0.19903 -0.73381 -0.8714 0.034719 0.51645 -0.016775 0.057724 0.22744 0.00023713 -0.75332 0.025984 -0.077143 0.10104 0.37165 0.2988 0.0099255 -0.083917 -0.39626 -0.7876 -0.58409 0.15895 0.043206 0.33015 -0.46716 -0.026391 -0.30025 -0.36013 0.41713 -1.1845 -0.66765 1.0909 -0.31651 0.27029 -0.0034345 -0.60319 -0.41268 0.33447 0.50717 0.20255 0.031702 0.041176 0.95684 -0.59752 -0.042095 0.31612 -0.05972 -0.08184 0.50977 0.47014 -0.24047 0.044115 0.19284
jordan 0.15573 -0.15937 0.20553 -0.3333 0.050676 0.13864 0.037025 -0.16459 0.41869 -0.91199 0.23803 -0.44599 0.26358 -0.060231 0.15792 0.11417 -0.20054 -0.099449 -0.048162 -0.39513 -0.2435 -0.017777 -0.09026 -0.1683 0.39326 -0.18638 -0.32551 -0.11932 0.21111 -0.38137 -0.56096 -0.49027 -0.29601 0.32263 -0.79454 -0.44872 0.30826 0.048192 0.30526 -0.10197 0.18481 0.012868 0.098775 -0.1683 -0.1761 -0.53726 -0.26983 0.10197 0.21112 0.075426 -0.12498 -0.33275 -0.32184 0.018788 0.3918 0.14346 0.25161 0.49533 0.060229 -0.0036846 -0.097052 0.4583 -0.39678 -0.48339 -0.23197 -0.14171 0.09565 0.27622 0.55336 0.26383 0.18899 -0.097384 0.71164 0.42898 0.097747 -0.41006 0.51328 0.015265 -0.14911 0.3132 0.62261 -0.2826 -0.13767 0.25655 0.56588 0.28919 -0.10342 0.23071 0.064315 -0.1898 -0.49749 0.59832 -0.34603 0.050947 -0.10986 -0.43695 -0.16121 -0.42227 0.21896 -0.20452 -0.029637 -0.0069605 0.49353 -0.13862 0.071755 -0.063324 0.66927 0.11948 0.22169 -0.43117 0.28953 0.023688 0.085749 -0.16952 0.22367 0.34882 0.080073 -0.069926 0.14522 0.25694 -0.3763 -0.16868 -0.081282 -0.71529 -0.17983 0.43576 0.1506 -0.25303 0.67265 -0.37728 0.10803 -0.062523 0.55087 0.099984 -0.29933 -0.32153 0.13788 -0.060045 -0.51111 -0.27657 0.25973 0.075545 0.2648 -0.43302 -0.31827 0.016704 -0.17851 -0.52506 -0.47151 -0.1506 0.54692 -0.23327 -0.79643 0.077959 -0.52489 -0.028611 0.41076 -0.046075 0.65068 0.029955 0.44809 0.13793 0.083959 0.010932 0.076317 -0.3452 -0.38822 0.15648 -0.26845 0.23332 0.21104 0.2522 -0.18508 0.011155 -0.23746 0.88594 0.031855 -0.23425 -0.13258 0.15487 0.16543 0.44251 -0.59646 0.049706 -0.089867 0.040508 -0.29532 0.14947 -0.57536 0.4513 -0.063006 0.22626 0.24487 -0.21259 0.3087 0.39547 0.54404 -0.32351 0.11244 0.25947 1.585 -0.34341 -0.28342 0.69764 0.43044 0.18169 -0.07099 -0.2981 0.19186 -0.2463 -0.47868 0.25019 0.075824 -0.40073 0.3755 -0.20661 0.32852 -0.43738 -0.2788 -0.21516 0.7024 -0.10936 0.19546 0.052727 0.7024 0.42958 0.47795 0.39836 0.4234 -0.32398 -0.19502 -0.060429 0.31152 -0.31903 -0.45423 0.75013 0.026941 0.012761 0.47867 -0.31707 -0.34619 0.49457 0.19903 0.37035 0.63533 -0.32781 0.013759 0.057009 -0.1454 -0.30849 -0.51802 -0.23614 0.074674 0.16221 -0.0022117 -0.33756 -0.37009 -0.16563 0.0064447 -0.39296 -0.02488 -0.095457 0.34088 -0.78801 -0.40332 -0.22233 0.040724 -0.30486 -0.15545 -0.68858 -0.027078 -0.051673 0.28512 -0.42036 0.083456 -0.23761 -1.2761 -0.51769 0.54525 -0.21936 0.62119 0.13401 0.22642 0.026472 -0.072844 0.10834 0.84053 0.56687 -0.16914 0.02821 -0.061729 -0.17536 -0.16323 1.1731 -0.27453 0.40742 0.28864 -0.61028 -0.29847 -0.22298
malaysia -0.077933 -0.39708 -0.050891 -0.4528 -0.41209 -0.64034 0.92621 0.6005 0.03323 -1.6157 0.82731 0.17192 -0.37943 -0.33282 0.16979 0.12594 0.079731 0.39176 -0.21632 -0.98093 -0.026518 0.042767 -0.061856 0.010021 -0.85412 0.013504 -0.09154 0.025354 -0.37035 -0.66791 0.44595 0.30619 -0.035857 0.42525 -0.49656 -0.016621 0.2803 -0.24015 0.14842 -0.026747 -0.24273 0.024347 -0.19341 0.11758 -0.1628 -0.8202 -0.31366 0.34204 -0.063426 -0.30855 -0.34679 -0.097272 0.094327 -0.31633 -0.16052 0.80615 0.13054 0.14974 0.092491 0.29128 -0.41522 0.361 -0.97459 -0.55545 0.64571 0.17733 0.18198 0.37782 -0.2207 0.32886 -1.0916 0.026402 -0.088889 0.04362 0.4082 0.24605 0.08043 -0.095569 0.18709 0.2737 0.50355 -0.17136 -0.45835 0.38235 0.15781 -0.1395 -0.3063 -0.72822 0.2683 0.099869 -0.75432 -0.013509 0.1716 -0.15473 0.36821 -0.0072989 -0.34439 0.20305 -0.55259 0.12765 0.053474 -0.12136 -0.04334 -0.23532 -0.16575 -0.13993 0.42198 0.55902 -0.2095 -0.10726 0.55263 -1.1476 -0.22673 -0.11015 1.0768 -0.37518 0.19315 0.24413 -0.4613 -0.10256 -0.27623 -0.4997 -0.34191 -0.3666 -0.19045 0.75076 -0.52375 0.11432 0.3538 -0.31534 0.4977 0.10988 0.073824 -0.012712 0.12482 -0.51545 0.66883 0.038023 -0.26658 0.065487 0.22953 0.26481 -0.080723 -0.13283 -0.43204 -0.22103 0.33846 -0.090981 -0.20741 0.057957 0.6004 0.19537 0.26273 0.60725 -0.28124 -0.034224 -0.81526 0.92828 -0.33104 0.13051 0.13477 0.50643 0.045544 0.2667 0.15171 -0.42372 0.40593 -0.0033298 -0.42777 -0.22544 -0.2689 -0.052198 -0.38249 -0.13336 -0.36406 0.34986 -0.25233 -0.091896 0.18425 0.62444 -0.2012 0.018846 -0.46343 -0.43553 -0.25771 -0.45074 -0.33107 0.78066 -0.041322 0.16325 0.22157 0.36092 -0.26639 0.69093 -0.20962 0.35889 0.7498 0.046761 0.048745 0.048694 0.95357 0.23805 -0.90652 0.055453 -0.27484 0.60963 0.33611 -0.30694 -0.28401 -0.76262 -0.086057 0.28176 0.32239 0.18923 0.59215 0.18195 -0.6442 -0.39345 0.12564 0.7247 0.095878 -0.12703 -0.19465 -0.22894 0.043458 0.024509 0.35947 0.21555 -0.18414 0.66213 0.2435 -0.41506 0.19059 0.46737 0.22439 0.70473 -0.08031 -0.3514 0.14355 -0.035754 -0.025461 0.33962 -0.30558 0.69039 0.57388 0.094341 0.85816 0.39185 -0.082427 -0.0027672 -0.13736 -0.89354 -0.28816 0.47747 -0.38926 -0.26003 -0.29119 0.59494 -0.329 0.22437 -0.21698 -0.2327 -0.26245 -0.32589 0.14982 -0.18313 -0.41859 -0.54675 -0.37243 -0.32669 0.31958 0.10007 0.4316 -0.31709 -0.43447 -0.51802 -0.8685 -0.64091 0.29099 0.25716 -0.042004 -0.54905 -0.67045 -0.26877 -0.55043 -0.32575 0.15694 0.26792 -0.39456 0.11595 -0.32719 0.57847 -0.48564 -0.1163 0.11655 1.226 -0.054356 -0.48942 0.15063 -0.70474
sweden -0.032197 -0.17141 -0.42062 0.24484 0.48973 0.12072 0.38287 0.1947 0.44005 -1.3865 0.33475 -0.016062 -0.183 0.89111 -0.20983 -0.24679 0.40651 0.27742 -0.47629 -0.11864 0.29033 0.1907 0.27963 0.45759 -0.39641 -0.066574 -0.17317 -0.19601 -0.46838 -0.12436 -0.49346 0.16216 -0.11056 0.54919 -0.83421 -1.0774 0.47033 0.32018 -0.5616 -0.062053 -0.41884 -0.41466 -0.078648 0.21223 -0.262 -0.15758 0.070556 -0.21555 0.075588 0.41952 -0.53503 -0.085892 0.076528 -0.099807 0.075788 0.29138 0.40936 0.32259 0.20864 0.052193 -0.56178 0.69721 -0.89436 0.10753 -0.52208 -0.44377 0.16051 0.58297 -0.19086 -0.21744 -0.65836 0.10778 0.2409 0.2362 -0.16994 0.0033529 -0.54439 -0.13613 0.37716 0.064256 -0.2275 -0.40545 -0.12878 0.06609 0.06009 -0.28146 0.052927 -0.71313 -0.17153 -0.68529 0.21327 -0.22064 0.71599 -0.75649 0.15074 -0.72936 -0.0007701 0.26856 -0.65926 -0.041481 0.41997 -0.22858 0.09518 -0.32437 -0.1029 0.19116 0.51141 0.37605 -1.2683 0.28962 0.83007 -0.16781 0.10387 -0.39913 0.0089169 0.13148 -0.058658 0.24322 -0.12 0.14399 -0.53302 0.31288 0.33537 -0.50008 0.17266 1.2768 0.027305 -0.40016 0.77513 -0.17531 0.58629 0.038482 -0.1719 -0.30049 0.29186 -0.031705 -0.075162 0.87258 0.073247 0.18024 0.11361 0.038962 -0.32246 0.40453 0.59989 0.1097 0.88794 0.058339 -0.24935 -0.45983 0.22225 -0.21125 -0.081354 -0.16101 -0.1732 0.72437 -0.33971 0.29935 -0.12059 -0.54407 -0.63992 0.5229 -0.12753 0.19171 0.24011 0.84788 0.090652 0.1875 0.40538 -0.41796 0.35087 0.40848 -0.40634 0.24531 -0.49141 0.29424 -0.038261 -0.21992 -0.43195 0.88051 -0.25732 -0.44996 0.27946 -0.36398 0.23177 -0.64432 -1.2521 -0.14876 -0.39429 0.0096612 -0.12813 -0.32972 0.25148 0.77807 -0.4149 -0.063316 0.0085056 -0.20283 0.66218 0.27795 1.1121 -0.37263 -0.59453 -0.03142 -0.052541 -0.40203 -0.15512 0.035021 -0.42208 0.30343 -0.078436 0.65645 0.44409 0.12773 0.0066024 -0.21 0.0088341 0.064749 -0.10772 -0.70734 0.48139 0.23191 -0.15858 -0.43029 -0.17264 0.11348 -0.14658 -0.88884 0.51311 0.034161 -0.43673 0.11037 0.041795 0.25975 0.1146 0.35192 -0.58734 1.3391 0.44613 0.4708 -0.030248 0.18306 0.51158 -0.06209 0.39607 0.33114 0.63496 0.10842 -0.45735 -0.14042 -0.27549 0.36249 -0.4289 -0.13973 -0.30375 0.05091 0.3021 -0.38925 -0.023489 -0.1858 0.56494 -0.23152 -0.42073 -0.065746 0.27889 0.018608 0.19994 -0.41771 0.11011 -0.67874 0.1514 -0.34388 0.28303 0.28433 -0.14944 -0.3354 -0.815 -0.66476 0.71334 0.053701 0.16237 0.57698 -0.56964 -0.058543 -0.014126 -0.0018046 -0.073843 0.10577 -0.43975 0.32693 -0.035966 0.40895 -0.33006 0.070205 -0.3397 0.76483 0.68904 0.15415 0.48861 0.13667
argentina 1.0267 1.1515 -0.59539 -0.42915 0.21849 -0.059179 -0.98557 0.35452 0.28245 -1.0277 0.47005 0.77812 0.64641 -0.092641 -0.41625 -0.51507 -0.026375 -0.35584 0.18951 0.43204 -0.67292 0.52724 0.22533 -0.33835 -0.25631 -0.56927 -0.11804 -0.25079 0.034314 0.092986 -0.37249 0.78183 -0.39851 -0.1669 -0.66898 -0.59617 0.50198 0.16765 -0.53923 0.28996 -0.14446 -0.19832 -0.17067 -0.10758 0.24272 -0.29806 -0.27392 0.63658 0.40405 -0.048507 0.0086692 -0.1473 0.033383 0.42569 -0.3061 -0.24452 -0.16891 -0.37414 -0.10945 -1.1829 -0.34905 0.19567 -0.63414 -0.30786 -0.57238 0.0147 0.26092 0.55766 -0.24328 -0.6455 -0.59422 1.1171 0.39279 0.088485 -0.39948 -0.91615 -0.3254 -0.19096 0.37379 -0.47486 0.5659 -0.41454 -0.30762 0.014668 -0.18731 0.23628 0.2262 -0.45833 -0.39012 -0.48171 0.75854 -0.26904 -0.18255 -0.52758 0.16694 0.095154 -0.12714 0.11262 -0.3799 -0.49977 0.32015 0.25149 -0.49664 -0.40366 0.7811 0.43385 -0.091124 0.21098 -0.69813 0.31033 0.78749 -0.44598 -0.27785 -0.90919 -0.00893 0.063658 0.085514 0.14317 0.23724 -0.12771 -0.082852 -0.21148 -0.33238 -0.35255 0.14662 0.59336 -0.22196 0.064654 -0.30467 0.35644 0.014265 -0.57143 0.006348 -0.30101 0.14137 0.35184 -0.16998 0.021588 -0.36699 0.01719 0.014802 -0.3865 -0.54031 0.35204 -0.19306 0.16126 0.20439 -0.39958 -0.06436 -0.54595 -0.12473 -0.38241 0.23917 0.0049226 0.2843 0.074024 -0.12097 0.012429 -0.095451 0.37108 -0.49264 0.60458 -0.20451 0.30192 0.0047307 -0.41846 -0.10179 -0.58812 -0.019633 -0.34475 0.071556 0.68556 0.080498 0.16984 0.047099 -0.039997 -0.16938 0.32798 -0.37108 1.076 0.12605 0.23056 0.20024 -0.22878 0.35107 0.040739 -0.84403 -0.23236 -0.24024 0.30267 -0.40508 0.86555 -0.16093 -0.42261 -0.5858 -0.22536 0.69983 0.059074 0.0061486 0.39839 0.94564 -0.032305 -0.45006 -0.20168 0.10995 -0.028562 -0.20973 0.60795 -0.14993 -0.078317 -0.31259 -0.30591 0.1257 0.34161 0.63848 -0.19646 -0.15919 -0.7375 0.24389 0.22587 0.56386 0.091102 0.4804 -0.038254 -0.34372 0.29179 0.23644 0.085718 -0.29779 -0.27751 -0.60162 0.38063 0.11462 0.51177 0.46457 -0.079642 -0.40324 0.60452 0.69078 0.37209 -0.33869 0.56579 -0.24004 -0.24928 0.40018 0.03699 0.1457 -0.21189 0.24388 0.061693 0.80495 0.0081411 0.0086004 0.32711 -0.44878 0.048839 -0.27284 0.237 -0.11217 -0.21706 0.24745 0.17573 0.47498 0.63259 0.70093 0.26526 0.10702 -0.68343 -0.21402 -0.37137 -0.12144 -0.3374 0.085131 0.014031 0.63554 -0.22841 -1.28 -0.80839 1.148 0.42301 0.080705 0.21692 -0.44711 0.021824 0.23107 -0.11815 0.28304 0.21361 0.25132 0.39983 -0.28081 0.3947 0.42197 0.32377 0.19533 0.45994 0.46529 -0.88995 0.61806 -0.44641
greece 0.65865 -0.18759 -0.0039639 0.29778 0.41342 0.18833 0.2438 0.071559 -0.0053298 -1.7514 0.23406 0.69573 0.22255 0.2747 0.5321 -0.049403 -0.31989 -0.27239 0.10552 -0.46117 0.12955 0.30403 0.57823 0.043431 0.19592 -0.32472 -0.23757 -0.40674 -0.34775 0.57883 -0.37972 0.34012 -0.040645 0.29968 -0.5461 -0.41537 -0.038188 0.095085 0.025771 -0.06344 0.051892 -0.85359 -0.36399 -0.74876 0.030667 -0.33965 0.33444 0.36838 -0.088199 0.040205 -0.35471 -0.056455 0.65106 -0.88796 0.055213 0.68218 -0.30928 0.53642 -0.10491 -0.083383 -0.12426 0.90353 -0.99555 -0.018651 -0.47124 0.012348 -0.17129 0.80044 0.29619 -0.57171 -0.61248 0.28251 0.28186 -0.17179 -0.70966 -0.10058 -0.25557 -0.16514 0.13651 -0.092411 -0.011072 -0.25323 -0.32023 -0.27467 0.77587 0.76122 0.072023 0.089953 -0.3877 -0.71569 0.37355 -0.11851 -0.57562 -0.50004 0.38504 0.036994 0.20062 0.56351 -0.51273 0.025433 0.12429 0.10938 -0.05343 -0.011376 0.3447 0.064114 0.15104 -0.28122 -0.105 0.47668 0.28776 -0.062697 0.23201 -0.20299 -0.3552 -0.56138 -0.3005 0.17665 0.080777 -0.52874 -0.41934 0.39411 -0.58803 0.23434 0.0020749 1.217 0.24144 0.029073 0.24455 0.18435 0.39491 0.46707 0.53127 0.39118 -0.081853 -0.31624 0.15086 0.036282 -0.32378 -0.46586 -0.088414 -0.54938 -0.28168 -0.34365 -0.13321 -0.16901 0.098021 -0.44827 0.079394 -0.67556 0.15526 -0.34999 0.3812 0.54844 -0.43227 0.65606 0.036516 1.1036 -0.37086 0.25362 -0.3103 0.45718 0.20725 0.28618 0.003851 -0.29964 -0.1117 0.39579 0.50221 -0.146 0.1097 0.23075 0.14531 0.46853 -0.085251 0.061871 0.36182 -0.2277 0.12145 0.93137 0.11037 -0.15408 -0.10407 -0.60429 0.49486 0.34055 -0.93226 -0.15617 -0.19012 0.23119 -0.5754 0.094102 -0.64844 -0.31559 -0.21181 -0.99245 0.71976 -0.16305 -0.33566 0.84873 0.88633 0.40923 -0.30076 0.59062 0.58294 -0.47384 -0.11513 -0.28947 0.19498 0.18183 -0.38949 0.73285 -0.11093 0.6817 -0.12952 -0.377 0.20701 -0.03406 -0.4073 -0.13057 0.68239 0.28868 0.23061 -0.41709 -0.2589 -0.79713 0.17135 -0.60465 -0.15748 0.33221 -0.67519 0.15697 -0.22219 -0.24902 0.24752 0.059735 -0.60315 -0.011669 0.82448 -0.23023 0.22364 0.18167 0.72241 -0.023953 0.58173 -0.19899 0.26322 0.66485 -0.36186 0.36763 -0.089538 0.44996 0.085459 0.28072 -0.23169 -0.084344 -1.0133 0.05908 -0.19915 0.041459 0.021761 0.11628 0.48674 0.10712 0.017248 0.2221 -0.113 -0.23988 -0.26702 -0.95088 0.3061 0.23772 -0.089284 0.19809 -0.1753 0.39961 -1.2589 -0.66954 0.81885 -0.40352 0.24589 0.27624 0.15034 0.078584 0.56378 -0.10002 -0.2622 0.22924 0.20064 0.26349 0.13263 0.42384 0.052569 -0.51082 0.19135 0.77224 0.29282 -0.2697 -0.2784 -0.11638
philippines 0.049987 -0.25845 -0.2981 -0.54693 -0.085716 -0.18083 -0.26206 0.75973 0.17808 -1.3512 0.9295 0.22267 0.56208 -0.062588 -0.13268 -0.31828 0.18818 -0.093548 -0.23151 -0.88698 -0.32961 -0.049392 -0.080365 -0.38008 -1.0193 0.10599 -0.6415 -0.15115 0.35756 -0.099477 0.19737 0.51707 0.10478 0.38914 0.033839 0.13866 0.169 -0.47709 -0.14341 0.091035 0.3482 -0.49169 -0.19488 0.7784 0.54458 -1.0737 -0.008907 -0.36804 0.029543 0.12689 -0.09188 0.42687 0.050538 -0.0368 -0.12693 -0.22478 -0.25956 0.23648 -0.30029 -0.087326 -0.56569 0.1658 -0.19386 -0.047101 -0.015173 -0.19452 0.57447 0.44583 -0.47336 0.31595 -0.65493 0.53758 -0.66955 0.041307 -0.25805 -0.46479 0.067338 -0.083526 0.676 -0.21646 0.24238 -0.27939 -0.4742 0.61666 0.17965 -0.21524 -0.19569 -1.1071 -0.037218 -0.21534 -0.29419 -0.23388 -0.4106 -0.47339 0.02911 -0.050787 -0.59982 -0.11206 -0.32157 0.22036 0.37895 0.15813 -0.040823 0.63312 0.23067 -0.23954 0.19017 -0.032179 0.10007 0.37395 0.039548 -1.0247 -0.32778 0.19968 0.89457 0.13009 0.093613 -0.27692 -0.025997 0.37697 -0.20644 -0.17838 -0.40592 -0.35656 -0.039723 0.75866 -0.080454 -0.068127 0.032115 0.16949 -0.44011 -0.057687 0.50285 -0.086248 0.37375 -0.46615 0.032902 0.13168 0.36461 0.28724 -0.19451 0.5647 -0.26946 -0.33675 -0.068651 -0.32797 -0.045164 -0.10572 -0.41572 -0.5029 0.6955 -0.43953 0.40679 1.0577 0.1353 0.25057 -0.53427 0.17648 0.16359 -0.073986 0.44977 0.23004 0.53307 0.3508 -0.047969 -0.61483 0.43897 0.0083657 -0.089663 0.098987 0.17642 0.15474 0.023827 0.13856 -0.21203 0.62387 -0.015072 0.38312 0.083102 0.5583 -0.51617 -0.0011345 -0.26839 -0.18576 0.35299 0.27329 -0.65446 0.97432 -0.3327 0.098514 0.12774 0.17616 -0.081243 0.17898 -0.1017 0.21504 0.54075 -0.12024 -0.047181 0.15997 0.48688 0.55806 0.0079063 0.24402 -0.19498 0.47294 0.10066 0.044087 0.048304 -0.24276 -0.34209 -0.13866 0.18291 0.089402 0.11683 0.31967 -0.43546 -0.6016 0.15187 0.32571 0.27256 0.19954 0.072888 -0.17687 0.032408 0.023969 0.74249 -0.28915 0.078217 -0.17145 -0.37969 -0.44177 -0.18044 0.52622 0.10048 -0.25358 0.30563 0.34194 -0.2833 -0.17077 0.13971 0.31517 -0.57969 0.13794 0.053673 0.10178 0.49999 0.26948 -0.18853 -0.44891 -0.62804 -0.33403 -0.40078 0.68353 -0.22057 -0.43732 0.18411 0.058619 0.1036 0.23974 -0.19312 -0.18049 0.14702 0.32537 0.63984 0.34363 -0.16288 -0.22682 -0.030103 -0.50491 0.28763 -0.35806 0.0096541 0.52468 0.035091 0.20889 -1.0552 -0.64077 0.32239 0.033807 0.08142 -0.14221 -0.01286 -0.56784 -0.5878 0.19017 -0.087085 0.28919 0.16495 -0.06861 -0.2619 0.63248 -0.34297 -0.28957 0.061884 1.2435 -0.33903 -0.45858 -0.14991 -0.68968
netherlands 0.22829 -0.15291 -0.46818 0.4441 0.30835 0.58717 -0.19887 -0.22438 0.023618 -0.99867 1.0099 -0.095091 -0.29256 -0.10886 -0.29457 -0.19944 0.39997 0.050419 -0.20704 -0.33 0.38234 -0.0069402 0.41881 0.3424 -0.57007 -0.071072 -0.17745 0.33091 -0.75361 0.19431 -0.52404 0.25748 0.56034 0.72455 -0.45113 -0.40813 0.6746 0.22272 -0.5329 0.24527 -0.074423 -0.36544 -0.155 -0.262 0.30319 -0.57219 0.24302 -0.21962 0.66802 0.55612 -0.27798 0.32227 0.35173 -0.19718 0.047435 0.26806 0.020827 0.068127 -0.29401 0.097629 -0.77127 0.182 -0.42733 -0.20017 0.10675 0.02664 0.41962 0.24793 -0.46265 -0.52241 -0.39968 0.3609 0.30753 -0.63182 -0.2464 0.096946 0.29513 -0.18177 0.21508 -0.19647 -0.1131 -0.13445 -0.48592 0.012637 0.1032 -0.60303 0.64082 -0.32008 -0.67799 0.086761 -0.18346 -0.23718 -0.053064 -0.40385 0.23678 0.010673 0.017391 -0.27 -0.53392 -0.17703 -0.12569 -0.60075 0.53498 -0.07155 0.10321 0.1194 0.12114 0.34057 -0.37584 1.1315 0.98353 -0.22242 0.094529 -0.13426 0.27973 0.10336 -0.29098 0.32138 -0.37568 -0.14704 -0.3302 0.26273 0.041511 -0.29605 -0.072498 1.0251 -0.12614 0.51648 0.053393 0.034344 0.12955 0.12508 -0.079352 0.54896 0.12285 0.025343 0.62097 0.061052 -0.025035 -0.30009 0.15971 -0.062307 0.053899 0.27892 -0.077144 0.13951 0.75176 0.19762 -0.04484 0.090223 0.5443 -0.4961 0.029153 -0.02485 0.12057 1.2164 -0.24948 0.59486 -0.52043 0.056172 -0.55061 0.5354 -0.058899 0.05661 0.32717 0.59819 -0.092847 -0.34453 0.14515 -0.13184 0.75284 0.34084 0.0024683 -0.54298 0.043189 0.15503 0.32372 -0.60985 -0.51309 0.66844 -0.43556 -0.22086 0.10539 -0.51396 0.44082 -0.36534 -0.84358 0.16949 -0.1189 0.1579 0.39022 -0.11954 0.32482 0.12813 -0.31118 -0.15908 0.098179 0.1798 0.10262 -0.36375 0.73697 0.29187 -0.70499 -0.17266 0.18704 -0.25611 -0.26141 -0.0039076 -0.33277 0.032317 -0.23968 -0.033768 0.080743 0.56348 -0.11924 0.3095 -0.31631 -0.11127 0.17594 -0.48014 0.85412 -0.13554 -0.25546 0.06872 -0.68928 -0.18348 -0.13342 -0.084249 0.57134 -0.11306 -0.04652 -0.089884 0.17738 0.52806 0.039726 0.017203 0.31892 0.19283 0.21653 -0.2191 -0.36611 0.35299 0.30538 -0.019717 0.6607 0.23821 -0.1224 0.071102 0.29131 -0.5799 0.16047 -0.054389 0.19543 0.26654 0.019753 -0.27916 0.59719 -0.19604 -0.75045 0.097024 0.59245 0.10164 0.14584 0.51933 0.20922 0.046188 -0.43059 -0.56871 -0.081585 -0.67142 -0.10434 -0.74532 -0.2885 -0.0091466 -0.078433 0.37882 -1.2821 -0.92211 0.21533 0.91068 -0.37839 0.21462 -0.48922 -0.5155 -0.0060067 0.039477 -0.17025 0.76779 -0.22948 0.39465 0.10128 0.10361 -0.2024 -0.28231 0.16044 0.52094 0.56843 -0.053899 0.76435 -0.45227
nigeria 0.48436 0.8044 -0.22246 -0.02041 -0.24151 0.10519 -0.03596 1.0855 0.085347 -1.4159 -0.066422 0.20383 0.40206 -0.44971 -0.31746 -0.33356 0.1798 0.47301 -0.12191 -1.1534 0.18269 0.56117 0.12495 0.31199 -0.32732 -0.24 0.12066 -0.03174 -0.097246 0.68105 -0.18132 0.30107 -0.14939 0.88535 -0.24247 -0.15688 0.093092 0.25969 0.089574 -0.026594 -0.26158 -0.57919 -0.53397 -0.096168 0.058789 -0.64935 -0.017792 0.1159 0.56829 -0.29401 -0.22134 0.35814 0.088217 0.44843 0.27296 -0.015974 0.095989 0.47499 -0.23208 0.088506 -0.46594 1.239 -0.33322 -0.59777 0.016285 0.063796 0.24652 0.32972 0.3008 -0.19929 -0.21973 -0.23556 0.20513 -0.24971 0.30817 0.16255 -0.080845 0.059291 0.45611 0.49515 0.4047 -0.32125 -0.33879 0.77175 0.11598 -0.033327 0.26935 -0.77243 -0.23637 0.014425 -0.38185 0.34505 0.28394 -0.51603 0.29091 -0.37283 0.4793 0.2857 0.28817 0.14294 0.097659 -0.14684 0.57849 -0.20742 0.18726 0.19484 0.1726 0.14169 -0.22487 0.048269 0.62098 -0.93851 -0.48026 0.48825 0.45815 0.41054 0.4105 0.21088 0.95968 0.036678 -0.78582 -0.24237 0.15467 0.086726 0.60789 0.17295 -0.60163 0.0054985 0.13816 0.46172 0.002847 -0.33793 -0.28178 -0.37273 -0.38888 0.1063 -0.080873 -0.02682 -0.0049547 0.12017 -0.84572 -0.10144 -0.079429 0.09574 -0.78344 -0.0090313 0.092233 -0.14829 0.29963 0.19508 0.26191 -0.23914 0.71589 0.63622 -0.27558 0.32578 0.25366 0.029187 0.060298 -0.16047 -0.013193 0.044004 0.16382 0.46418 -0.45603 -0.55822 0.62343 -0.51533 -0.31528 -0.79064 -0.55354 0.21702 -0.30495 -0.16824 0.40971 0.43517 0.33886 -0.095744 -0.58695 1.3374 -0.37069 0.44044 0.11498 -0.36215 0.43397 -0.23629 -0.43499 0.52184 -0.80098 0.078122 0.59062 0.36415 0.12647 0.61754 -0.20577 -0.049862 1.0141 -0.33287 -0.30009 0.057144 0.63859 0.042412 -0.013763 -0.32637 0.12362 -0.39531 0.24153 -0.21405 0.43342 -0.10965 -0.16745 -0.20168 -0.20686 0.52967 0.21206 0.15792 -0.39114 -0.77126 0.38745 -0.39433 -0.094698 -0.011937 0.63276 0.34672 -0.11998 -0.90283 -0.2248 0.19275 0.42207 0.12896 -0.15854 0.53869 0.14718 0.35241 0.04276 0.77347 -0.48136 0.35799 0.42051 -1.0868 0.14671 0.17524 -0.8026 0.51125 0.70233 0.14926 0.014089 0.39854 -0.070843 -0.42056 0.40819 0.17075 0.10833 0.19886 0.23297 0.014739 -0.3504 0.046167 -0.48807 0.81058 -0.11743 0.37145 0.011864 -0.18821 0.40935 -0.0075836 -0.26288 -0.05312 -0.25936 0.14831 0.46006 -0.13381 -0.17891 0.28226 -0.072532 -0.087127 -1.3095 -0.62613 0.48215 0.25155 -0.293 -0.16431 -0.053572 -0.27144 -0.024433 -0.27837 -0.021145 -0.064576 -0.64308 0.2384 -0.45434 0.18611 0.62472 -0.019039 0.09178 1.0227 -0.63344 -0.48808 -0.012549 -0.22674
switzerland 0.037859 0.054109 -0.39561 0.099635 0.19697 0.12181 -0.10879 -0.39994 -0.28582 -1.0909 0.61257 -0.46287 -0.05175 0.090548 -0.35038 -0.32585 0.16642 0.23669 -0.34264 0.019029 0.38899 0.064882 -0.32599 0.17582 -0.92728 -0.16823 0.37517 -0.17457 -0.49077 -0.30172 -0.82718 0.22314 0.79028 0.74161 -0.45515 -0.37987 0.43179 0.2898 -0.49912 -0.5136 -0.67617 -0.50668 0.15175 -0.11641 -0.46474 0.28416 -0.24327 0.60669 0.19854 0.19142 -0.74024 -0.42474 0.66058 0.44963 0.43896 -0.030891 -0.18084 0.0059653 0.26711 0.036953 -0.5079 0.48614 -0.92449 -0.32273 -0.38285 -0.2654 -0.081879 0.21022 -0.5852 -0.40001 -0.48032 -0.23853 0.30936 -0.11545 -0.0065592 0.06994 -0.18579 -0.29165 0.31747 -0.0071686 -0.28624 -0.32338 -1.0548 0.354 0.10475 0.16158 0.04582 -0.1302 -0.75944 -0.53953 -0.10333 -0.1497 0.57474 -0.40032 0.88576 -0.13413 -0.75318 0.59107 -0.18686 0.23489 0.7689 -0.30992 0.2296 -0.50744 0.033179 -0.11353 0.65498 0.30805 -0.25765 0.59613 0.36082 -0.51046 0.022623 0.25011 -0.046501 -0.3496 -0.021425 -0.042203 -0.1656 0.22433 -0.10724 -0.0070793 0.25568 0.02743 -0.041844 0.47346 -0.23717 -0.035891 0.075036 -0.39974 -0.34984 0.23181 -0.0075162 -0.18002 0.11646 0.40879 0.16008 0.091808 -0.13099 -0.54531 0.20514 -0.82887 -0.35201 0.1563 0.089238 0.013035 0.40731 -0.53263 -0.30337 0.84767 0.24266 -0.13275 0.19161 0.22742 0.40039 0.31392 0.13321 0.15099 -0.34298 -0.17603 -0.060402 -0.1693 0.20628 0.093578 0.29643 0.78394 0.23357 -0.53896 0.49239 -0.21569 0.026905 0.29729 0.038679 -0.21382 -0.35517 0.040691 0.76109 -0.48595 0.07847 0.88571 0.045153 -0.50337 -0.14871 -0.22781 0.69402 -0.11615 -0.88328 -0.34815 -0.0089854 0.4487 0.6036 0.16229 0.44485 0.16014 -0.083583 -1.3172 0.41459 -0.15037 0.27365 0.31935 0.9181 -0.056338 -0.72112 0.12901 -0.014273 -0.0055021 -0.84004 0.50358 -0.77304 -0.17044 0.10098 0.48588 -0.077014 0.24458 0.32866 -0.24784 -0.18381 -0.20746 0.24976 0.18992 0.13681 -0.63462 0.015599 -0.28139 0.012512 -0.19751 0.28278 -0.072754 0.049257 0.006041 -0.64428 -0.2291 0.055139 0.088993 0.37302 -0.31608 0.28436 0.82698 0.72852 -0.12287 -0.41656 0.39937 0.29523 0.017832 -0.08237 0.50724 -0.052738 -0.4794 -0.59754 -0.7765 0.05716 -0.31637 0.3653 0.049112 -0.06035 -0.090313 -0.1821 -0.87857 -0.59984 -0.25856 0.48233 -0.19643 0.11931 0.70413 0.55547 0.34749 -0.056176 -0.42979 0.40307 -0.501 -0.2147 -0.40735 0.47034 0.25354 0.53204 0.24297 -1.0569 -0.86025 0.72224 0.050946 0.027766 0.40286 -0.34052 -0.096324 0.035865 0.06662 0.1009 1.0553 -0.42917 0.52998 0.31035 0.20429 -0.27515 0.62626 -0.21298 0.49196 0.36641 0.30672 0.63919 0.0063995
austria 0.12057 0.44733 -0.56082 -0.06099 0.22084 -0.03001 -0.2116 0.056046 -0.013219 -0.9953 0.53642 0.07403 0.16 0.0077292 -0.77795 -0.11272 0.23834 -0.11908 -0.22779 0.24984 -0.22393 0.67349 0.28543 -0.10577 -0.46211 -0.33048 0.059756 0.27186 -0.74424 -0.33233 -0.30238 0.072787 0.32683 0.55119 -0.26374 0.039494 0.12255 -0.1595 -0.0060722 0.20404 -0.47714 -0.51851 0.2018 -0.6637 0.28126 -0.54872 -0.092775 -0.1755 0.2261 -0.067183 -0.57926 -0.067674 0.2834 0.012347 0.86126 0.086423 -0.1145 -0.18573 -0.048975 0.2018 -0.30943 0.15854 -0.31338 -0.74457 0.16727 -0.44278 0.32883 0.53387 -0.061573 -0.66113 -0.21418 -0.18437 0.11781 -0.10438 -0.17155 -0.77018 -0.47654 0.089531 0.45788 0.36753 0.16531 -0.43855 -0.91192 0.072749 0.61595 0.44952 -0.66385 0.44105 -0.63774 -0.42532 -0.25091 -0.082719 0.47976 0.31349 0.18401 -0.21572 -0.65919 0.63167 -0.56588 -0.068789 -0.054841 -0.37293 -0.22136 -0.99668 -0.062377 -0.12822 0.50621 0.34072 -0.93637 0.41715 0.58318 -0.11008 0.22779 0.13001 -0.27901 -0.70617 -0.11261 -0.29947 0.055239 -0.24631 -0.078376 0.40271 0.22052 -0.6687 0.12627 0.8465 -0.22028 -0.10245 0.081081 -0.57797 -0.2712 0.21268 0.36316 0.037373 -0.23166 0.36657 0.54149 0.30558 0.10854 -0.20219 -0.0063704 0.15992 -0.47623 0.2156 0.74223 0.37139 0.7141 -0.57809 -0.37828 0.48079 0.50384 0.41705 -0.37938 0.24562 0.20348 0.65544 0.37605 0.3998 -0.069048 -0.47954 -0.43295 0.066952 0.53229 -0.17842 -0.16309 0.69453 0.003116 -0.6783 0.26445 -0.51906 0.78556 0.6317 0.11198 -0.39058 -0.65362 -0.10674 0.8049 -0.58749 -0.16056 0.89924 0.14348 -0.26821 -0.19246 -0.77364 0.27967 -0.14669 -1.1353 -0.2832 -0.35752 0.12336 0.045605 -0.13698 -0.29876 -0.15588 -0.79934 -0.69156 0.18344 0.19816 0.3418 0.78796 1.3807 -0.099016 -1.0005 0.18203 -0.48097 0.25423 -0.4811 0.20357 0.059275 -0.019356 -0.16856 0.33506 0.16482 0.020979 -0.027399 -0.34542 -0.18523 -0.25074 0.065109 -0.23534 -0.21506 -0.097738 0.19027 0.039614 -0.64997 0.019853 0.29751 -0.9047 0.10393 -0.24067 -0.93064 -0.26784 0.2671 0.11633 0.46165 0.078499 0.21726 0.59942 0.84235 -0.13327 -0.55362 0.28659 0.39487 0.064758 0.58096 0.32602 0.26589 0.44201 -0.27762 -0.13516 -0.46223 0.10268 0.73294 0.12591 -0.12293 -0.17951 0.017287 -0.54299 -0.54363 -0.31519 0.30957 -0.043392 0.19304 0.37255 0.12792 0.14956 -0.44647 -0.18795 0.037632 -0.50968 0.1287 -0.5471 0.0058231 -0.3379 0.10878 0.059549 -1.2206 -0.74805 0.5638 0.20016 0.17708 0.45087 -0.40331 -0.2436 -0.25712 0.038427 0.046826 0.34661 -0.54741 0.79917 -0.30082 -0.1711 0.049955 0.21092 0.16224 -0.16029 0.5192 -0.47595 0.86445 0.17255
colombia 0.32355 0.83082 -0.22135 -0.1355 -0.38133 0.67328 -0.23636 0.31436 0.19184 -1.3283 0.20439 0.62324 0.03881 -0.13999 -0.27601 -0.069821 0.15937 -0.16421 -0.060306 0.11029 -0.4179 0.40678 0.29659 -0.46069 -1.1041 -0.8796 0.13174 0.044546 -0.48886 0.02068 0.19807 0.22334 -0.14534 -0.15752 0.32853 0.050785 0.4768 -0.093737 -0.49919 -0.3051 -0.41284 -0.4221 -0.48768 0.18187 0.25665 -0.73222 0.081625 0.43097 0.71799 -0.048916 0.015056 -0.092422 -0.35963 0.58548 -0.32344 -0.37373 -0.74737 -0.2127 -0.2164 -0.79198 -0.59775 -0.33806 -0.49314 0.4971 -0.70133 0.23033 0.38493 0.61633 0.54432 -0.23582 -0.40204 0.25437 0.22482 0.12288 0.013433 -0.60548 0.36538 -0.419 -0.14688 0.15132 0.42283 -0.6439 -0.37992 0.63633 -0.10146 -0.37332 0.090608 -0.56354 -0.40788 -0.83786 0.17181 -0.11268 0.37162 -0.76816 0.28253 -0.023585 -0.62187 0.13542 0.10928 0.001664 0.27025 0.15892 -0.019762 0.045478 0.087154 0.099845 -0.11366 0.4686 0.084192 0.68188 0.1832 -0.62011 -0.0089787 -0.42944 0.090621 -0.0091494 0.15078 0.12375 -0.06431 0.072629 -0.21673 -0.089572 -0.046873 0.051949 -0.23325 0.34296 0.29436 0.20121 0.18882 0.37377 -0.69702 -0.10918 -0.22811 0.30133 -0.34369 -0.020519 -0.63771 0.48901 0.15467 0.16261 -0.40868 -0.37397 -0.55433 -0.088959 -0.38369 0.090437 0.98777 -0.041481 0.041843 -0.38301 0.024802 0.1117 0.075583 0.29885 -0.18586 0.23727 -0.26524 -0.089773 -0.11149 -0.064476 0.20941 -0.0040694 0.26353 0.012057 -0.40135 -0.63094 0.29023 -0.33809 -0.078528 -0.83542 0.33894 0.21711 -0.25686 0.35461 0.67757 0.39017 0.20954 0.40715 -0.4082 0.75081 -0.2642 0.038727 -0.024726 -0.32373 0.49113 0.21997 -0.53692 0.44944 -0.41581 -0.12423 -0.44546 0.11032 -0.099461 0.032376 -0.1697 0.20323 0.48867 0.35646 0.087358 0.40501 0.639 0.28948 -0.10079 -0.4269 0.16764 -0.23443 -0.63464 0.81203 0.0083141 -0.019004 -0.079655 0.22731 -0.59019 0.6466 0.093319 0.17247 -0.41489 -0.44814 0.18892 0.74667 0.30358 -0.34358 0.12574 0.78829 0.51634 0.8071 0.6067 -0.53713 0.25495 -0.39821 -0.31212 -0.28033 0.20697 0.84315 0.25729 -0.15011 0.21816 0.33327 0.6905 -0.24481 -0.41139 0.050315 0.0096792 -0.33274 0.14498 -0.0064988 0.5116 -0.086724 0.042375 0.070926 0.15368 -0.09711 -0.47706 -0.061835 0.080478 0.79359 -0.0055284 -0.40205 -0.13374 -0.12554 -0.0096996 0.085632 0.2957 0.51261 0.5492 0.72238 0.077551 0.16498 0.065221 -0.2947 0.88561 -0.34542 0.11338 0.17531 0.55212 0.2955 -0.90557 -0.54354 1.0386 0.40253 0.44751 0.30151 0.3864 -0.25068 -0.44046 -0.050533 0.79488 0.3652 0.36587 0.17146 0.096804 0.52278 -0.0056057 -0.0011251 0.21057 1.2909 -0.21297 -0.42008 -0.25174 0.26521
belgium 0.22308 0.20579 -0.27893 0.53885 -0.43775 0.93254 -0.086246 -0.16641 0.066363 -0.99787 0.7727 -0.25388 -0.33339 0.21555 -0.001058 -0.15889 0.025909 0.30526 0.12043 -0.15503 0.14519 0.27646 0.19337 0.15105 -0.81438 -0.1553 -0.21944 0.29769 -0.34873 0.081077 -0.80319 -0.29635 0.18324 0.73908 -0.36238 -0.16995 0.62618 0.60654 -0.5364 -0.10308 -0.14015 -0.14181 0.15154 -0.38444 0.062662 -0.38765 0.35957 0.043219 0.2385 0.28882 -0.53203 0.057238 0.86438 0.18985 0.56399 0.52698 0.68792 0.24896 -0.30603 -0.27586 -0.27214 0.54045 -0.60721 -0.23874 -0.89803 -0.21832 0.31586 0.030756 -0.44577 -0.4859 -0.49023 -0.095228 0.1617 -0.32932 -0.083426 -0.17378 0.26662 -0.11594 -0.11691 -0.65788 0.11355 -0.18307 -0.22243 0.26695 0.2515 -0.5705 0.73094 -0.1409 -0.91921 -0.34666 0.32017 -0.12172 0.080872 0.10631 0.23187 -0.28898 -0.15514 0.24957 -0.65735 -0.31695 0.093214 -0.29596 0.65815 -0.43408 0.19045 -0.08787 -0.16701 0.3509 -0.31792 0.41698 0.55651 -0.042202 -0.25929 -0.19693 -0.62588 0.18049 0.28302 0.37561 -0.26339 -0.0022047 -0.12998 0.22861 0.21367 -0.38039 0.18366 0.59902 0.096632 0.65313 0.099456 -0.21076 0.37629 0.37633 0.26833 0.17579 0.0078038 -0.16957 0.5403 0.020277 0.38041 -0.063731 0.40545 -0.23724 -0.039895 -0.0060696 0.17764 -0.33015 -0.0025239 -0.41749 -0.082979 0.24032 0.17056 -0.43432 0.098117 0.015944 0.37499 0.36019 -0.21069 0.24366 -0.43823 -0.14773 -0.21805 0.53602 -0.18984 -0.12924 0.65549 0.45489 -0.058369 -0.35645 0.36694 0.20654 0.33365 0.37416 0.15538 -0.089586 -0.29429 0.416 0.54398 -0.31924 -0.6227 0.82274 -0.35724 -0.17155 -0.50902 -0.38273 0.18408 -0.14547 -0.76665 0.35247 0.24872 0.11333 0.17608 -0.31955 0.16791 -0.078747 0.074523 -0.54438 0.21348 -0.13338 -0.24565 0.24859 1.1571 -0.11688 -0.72871 -0.1563 -0.10506 -0.31632 -0.71067 -0.024523 -0.19179 0.17851 0.0086721 0.3774 0.31461 0.62939 -0.27627 0.092976 0.0055803 -0.54234 -0.028749 -0.5125 0.49001 -0.32428 -0.059646 -0.77627 -0.48322 -0.39967 0.26096 -0.68842 0.18445 -0.43978 -0.45463 0.059761 -0.23462 0.01133 0.27121 0.12414 0.47053 0.82981 0.78669 -0.10422 -0.49478 0.26485 0.50007 -0.48596 0.72237 0.25685 -0.059587 0.13473 0.29381 -0.49638 0.20501 0.003332 0.038329 -0.091078 0.12055 0.027136 -0.51836 -0.37858 -0.75676 -0.37724 0.88551 -0.010341 0.072945 0.52748 0.12134 -0.085768 -0.55628 -0.28521 -0.094199 -0.60741 -0.27768 -0.10664 -0.25888 -0.65481 0.48546 0.98352 -0.87499 -0.74004 0.63632 0.23164 0.17524 0.35265 -0.52302 -0.33316 -0.19026 0.05548 0.34436 0.85744 -0.4964 0.5233 0.41041 0.14971 0.13856 -0.22752 0.23694 0.62565 0.24526 -0.4053 0.187 -0.68353
portugal 0.21601 0.021339 -0.74252 0.50271 0.44012 0.37607 -0.52155 0.72618 0.068649 -1.405 0.33115 0.70482 0.077082 -0.085744 -0.1059 -0.31305 -0.56776 0.25509 -0.093186 -0.31595 -0.11624 0.50898 0.039423 0.069134 -0.5022 -0.55574 -0.28356 0.6128 -0.66614 -0.034811 0.2014 0.39659 -0.18357 0.45483 -0.23113 -0.28512 0.57186 0.47889 -0.16828 0.095793 -0.59588 -0.16539 -0.17696 -0.17783 -0.12473 -0.73333 0.63544 0.4392 0.19852 0.062731 -0.20237 -0.18499 0.4735 -0.04724 0.73867 0.57526 0.49419 0.12643 -0.29791 0.021847 -0.32361 0.067064 -0.54443 0.4768 -0.46037 -0.24851 0.51915 0.23273 0.0023109 -0.90508 -0.3047 0.4032 0.085644 -0.11888 -0.42311 -0.52294 0.022183 -0.37137 0.23311 -0.12677 0.30331 -0.047817 -0.061043 -0.0092748 0.28058 0.15728 0.15495 -0.056527 0.1663 0.27596 0.32507 -0.35435 -0.36477 -0.54358 0.0011972 -0.68872 0.17997 -0.051748 -0.45816 0.18006 0.10652 -0.46544 0.21023 -0.27084 0.3952 0.21963 -0.43501 0.26083 -0.37233 0.70526 0.73394 -0.15567 -0.17009 -0.63498 0.07123 -0.28911 -0.13571 0.46194 -0.26932 -0.17902 -0.12549 -0.17201 -0.42742 -0.40435 0.2712 0.80183 -0.058188 -0.33455 0.21887 0.098824 0.34883 -0.12536 -0.63664 0.45727 0.16255 -0.45587 0.40647 0.21295 0.11072 0.24047 0.082617 -0.52371 0.22818 -0.24261 0.029166 -0.30429 0.6146 0.063965 -0.17119 -0.51661 0.040611 -0.37033 -0.22298 0.025819 -0.018288 0.13436 -0.2777 0.35606 -0.19543 0.027928 -0.042666 0.63177 0.49046 0.33877 0.32039 -0.49037 -0.10971 -0.034901 0.072772 0.016063 -0.1232 0.68035 -0.27481 0.2527 0.16559 -0.57648 -0.12398 -0.0082789 0.093026 0.9639 -0.020159 -0.14213 0.20815 -0.18953 0.38547 -0.08986 -0.96248 -0.13255 -0.66222 0.12075 0.021214 -0.17808 0.060196 0.19919 0.17273 -0.62602 0.52943 0.19875 -0.22863 0.52109 1.1433 0.19973 -0.67131 0.54163 0.46687 -0.35476 0.19641 0.45864 -0.11747 0.0024839 -0.18548 0.43209 -0.30935 0.55298 0.053203 0.10062 0.039318 -0.83091 -0.35476 -0.098763 0.63279 -0.24529 0.22257 -0.15033 -0.17682 -0.53473 0.46441 -0.46152 -0.2901 0.45533 -0.52254 -0.09866 -0.0083224 -0.059115 0.35582 0.004118 -0.40179 0.52583 0.73275 -0.13713 -0.25177 -0.041952 0.6129 0.010405 0.81789 0.49076 0.56745 0.34593 0.22417 -0.37739 -0.016986 0.25903 0.079972 0.30922 -0.46113 -0.54314 -0.17222 -0.096795 -0.33661 -0.14086 0.668 0.34164 0.011354 0.10176 -0.17143 0.24705 -0.37054 -0.44433 -0.012656 -0.38137 -0.18024 0.063655 -0.1626 0.082446 -0.22829 0.095151 -1.1747 -1.0683 0.51429 -0.12387 0.060276 0.50949 -0.17689 -0.17129 0.16931 -0.11844 -0.38247 -0.059421 -0.5083 0.48834 -0.32141 0.68315 -0.28525 -0.22968 0.32207 0.51224 -0.64382 -0.21915 0.49409 -0.46449
romania 0.31299 0.33605 -0.23898 -0.46604 0.22154 -0.23177 -0.17582 -0.35846 0.13496 -1.2601 -0.027706 0.28264 -0.027602 -0.30083 -0.40933 -0.93086 0.1704 0.27064 0.1361 0.058484 0.22314 0.26167 0.72883 0.29341 -0.0015659 -0.74412 0.18247 -0.24727 -0.42377 0.17562 0.011241 -0.014872 0.27787 0.74394 -0.38933 0.10297 -0.10042 0.43639 -0.5683 -0.23833 0.10969 -0.57584 0.06912 0.074092 -0.15332 -0.88799 0.1522 0.20612 0.25018 -0.52091 0.11761 0.14932 0.64531 -0.97835 0.61461 0.32019 0.30895 -0.15192 0.64753 -0.44874 -0.37862 0.2746 -0.97114 -0.28472 -0.74204 -0.0047309 0.48838 0.36653 -0.287 -0.50938 -0.072518 0.060622 0.50829 -0.074555 -0.28765 -0.54952 -0.36712 0.028894 0.3817 -0.09277 -0.09011 -1.0456 -0.14635 -0.41611 0.31544 -0.24415 -0.29965 -0.5762 -0.20445 -0.67514 0.42675 0.22418 -0.084699 0.16417 0.024311 -0.15519 -0.33017 -0.033796 -0.5793 0.35484 0.18204 0.1504 -0.036961 -0.93564 0.077713 0.39514 0.68311 -0.33063 -0.47271 0.53831 0.52987 -0.12363 -0.10342 0.27649 -0.37045 -0.41361 -0.18303 -0.021778 0.1524 -0.080095 0.2513 -0.15056 -0.045302 -0.23797 0.59988 0.75029 -0.30198 0.43223 0.17333 0.11573 -0.3688 -0.24318 0.41449 0.85089 0.19974 -0.59603 0.18935 -0.48641 0.014069 0.037178 0.0931 0.15503 -0.31404 -0.1827 0.036434 -0.62995 0.41741 -0.032279 -0.30471 0.30362 0.063909 -0.76719 -0.47743 0.090741 -0.24997 0.69501 -0.042176 0.36812 -0.31998 -0.1844 -0.36376 0.71842 0.62655 0.28675 0.42484 -0.2169 -0.45573 -0.41863 -0.062253 0.026853 0.36405 0.80922 0.29413 0.16089 -0.12748 0.026403 0.15465 -0.32659 -0.90093 0.38262 -0.35116 0.10464 0.057873 -0.62886 0.061692 0.19643 -0.87065 0.36964 -0.14399 -0.39223 -0.20657 0.017905 -0.29353 -0.32644 0.086308 -0.42818 0.35385 -0.63086 -0.0096178 0.73185 1.3048 0.15828 -0.87507 -0.166 0.056274 0.36625 -0.13169 0.18685 -0.70002 -0.13073 -0.58101 -0.36979 -0.44036 0.47047 0.07814 -0.64876 -0.34986 -0.004276 -0.42552 -0.11225 0.45743 0.20152 -0.46265 -1.3984 0.12557 0.067238 0.20191 -0.33538 0.34002 0.40403 -0.51086 -0.11921 -0.29469 0.25626 0.23261 0.1406 0.0055718 0.24346 0.93498 0.30925 -0.049085 0.44274 0.70176 -0.61441 0.99952 0.0010766 1.0125 0.15596 -0.31662 -0.022108 -0.6527 -0.087519 0.39161 0.22296 -0.093197 -0.040827 -0.19156 -0.11171 0.08371 -0.17541 0.02251 0.23728 0.53654 -0.34052 0.26188 0.045573 -0.39696 -0.46863 0.020629 -0.014935 -0.036501 -0.47383 0.012703 0.12207 0.028867 -0.10537 -0.65731 -0.67535 1.197 -0.044793 0.43245 0.5991 0.032593 0.0086094 0.35269 0.25623 0.22205 -0.058984 -0.098915 0.46645 -0.26628 0.016022 0.55782 0.42685 -0.28537 0.45071 0.49287 -0.18632 -0.012785 -0.21579
